tree
version=v4
num_class=8
num_tree_per_iteration=8
label_index=0
max_feature_idx=19
objective=multiclass num_class:8
feature_names=Column_0 Column_1 Column_2 Column_3 Column_4 Column_5 Column_6 Column_7 Column_8 Column_9 Column_10 Column_11 Column_12 Column_13 Column_14 Column_15 Column_16 Column_17 Column_18 Column_19
feature_infos=[0:144] [5001:5145] [18:26] [0:1] [0:2] [0:3] [0:1] [0:1] [0:1] [0:12] [0:3] [0:1] [0:2] [0:2] [0:1] [0.28854253888130188:4.7823338508605957] [0.70691269636154175:4.2497014999389648] [0.2602350115776062:4.4506807327270508] [0.41219264268875122:5.5430927276611328] [0:3]
tree_sizes=1143 1147 1339 1039 942 846 857 849 1388 1500 1405 1407 1415 1413 1624 1513 1386 1414 1507 1627 1518 1411 1631 1512 1502 1414 1503 1732 1519 1417 1528 1518 1494 1608 1609 1726 1523 1414 1618 1521 1613 1399 1408 1512 1397 1519 1529 1521 1495 1611 1415 1522 1520 1521 1526 1530 1387 1496 1418 1625 1410 1412 1526 1524 1608 1502 1622 1518 1522 1309 1533 1522 1486 1628 1620 1623 1521 1417 1531 1522 1603 1509 1613 1631 1525 1411 1428 1532 1610 1724 1604 1621 1528 1305 1421 1522 1614 1512 1507 1723 1637 1306 1535 1530 1616 1615 1507 1726 1639 1419 1642 1528 1518 1510 1415 1725 1632 1522 1641 1635 1719 1829 1609 1742 1518 1414 1636 1638 1720 1728 1408 1738 1507 1415 1635 1625 1509 1612 1516 1629 1730 1643 1643 1542 1610 1714 1521 1622 1520 1630 1643 1422 1509 1821 1525 1521 1525 1534 1528 1529 1917 1730 1532 1724 1726 1636 1649 1531 1712 1721 1630 1722 1728 1634 1526 1538 1925 1509 1508 1633 1627 1524 1647 1635 1808 1506 1501 1640 1625 1636 1539 1636 1709 1516 1419 1846 1621 1632 1535 1643 1726 1728 1413 1747 1622 1752 1662 1645 1719 1514 1514 1635 1622 1640 1648 1642 1713 1624 1632 1743 1619 1420 1751 1641 1717 1738 1516 1747 1734 1533 1630 1644 1725 1831 1521 1851 1937 1548 1529 1645 1609 1622 1624 1742 1637 1533 1662 1639 1828 1525 1528 1745 1628 1646 1659 1748 1721 1740 1632 1953 1732 1737 1761 1660 1833 1527 1520 1742 1628 1651 1552 1653 1621 1525 1638 1747 1633 1646 1551 1639

Tree=0
num_leaves=10
num_cat=0
split_feature=16 0 6 0 15 16 0 17 4
split_gain=15.3373 3.38026 4.81825 4.78105 2.26186 7.0683 1.23374 0.479788 1.77636e-15
threshold=3.15290379524231 113.00000000000001 1.0000000180025095e-35 53.500000000000007 1.4620031714439394 3.6751787662506108 131.50000000000003 2.8109301328659062 1.5000000000000002
decision_type=2 2 2 2 2 2 2 2 2
left_child=1 3 -3 -1 5 -2 -4 8 -5
right_child=4 2 6 7 -6 -7 -8 -9 -10
leaf_value=-1.6269315896317642 -1.6605901713812716 -1.5946193511522371 -1.6511657684914096 -1.7077121858305822 -1.5569217395927886 -1.5427851352579955 -1.7077121858305822 -1.6794389771609959 -1.7077121858305822
leaf_weight=2.4758420884609285 3.1832255423068991 2.6526879519224158 1.7684586346149447 1.7684586346149469 2.6526879519224167 2.1221503615379333 2.1221503615379333 1.7684586346149433 8.1349097192287392
leaf_count=14 18 15 10 10 15 12 12 10 46
internal_value=-1.65361 -1.6763 -1.64658 -1.69004 -1.59462 -1.61347 -1.68201 -1.70343 -1.70771
internal_weight=28.649 20.691 6.5433 14.1477 7.95806 5.30538 3.89061 11.6718 9.90337
internal_count=162 117 37 80 45 30 22 66 56
is_linear=0
shrinkage=1


Tree=1
num_leaves=10
num_cat=0
split_feature=0 5 11 14 10 10 0 0 0
split_gain=9.50041 6.5608 4.7381 3.98966 1.3656 2.80916 0.561294 0.469432 8.88178e-16
threshold=39.500000000000007 1.0000000180025095e-35 1.0000000180025095e-35 1.0000000180025095e-35 1.5000000000000002 2.5000000000000004 106.50000000000001 107.50000000000001 51.500000000000007
decision_type=2 2 2 2 2 2 2 2 2
left_child=2 -2 3 -1 6 -6 8 -7 -3
right_child=1 4 -4 -5 5 7 -8 -9 -10
leaf_value=-2.047178882151814 -1.9375364950388849 -2.047178882151814 -1.8902171490217259 -1.9324760771721343 -1.9539828531058243 -2.009900470533418 -2.0132894170441813 -2.047178882151814 -2.047178882151814
leaf_weight=1.34125888347626 2.2801401019096401 1.3412588834762553 2.5483918786048889 1.7436365485191345 1.6095106601715077 1.3412588834762575 1.4753847718238828 2.2801401019096375 5.7674131989479065
leaf_count=10 17 10 19 13 12 10 11 17 43
internal_value=-1.99655 -2.01611 -1.94067 -1.98235 -2.02908 -2.00894 -2.04135 -2.03337 -2.04718
internal_weight=21.7284 16.0951 5.63329 3.0849 13.815 5.23091 8.58406 3.6214 7.10867
internal_count=162 120 42 23 103 39 64 27 53
is_linear=0
shrinkage=1


Tree=2
num_leaves=12
num_cat=0
split_feature=2 18 0 17 17 17 2 17 18 15 0
split_gain=13.1939 2.53059 4.51484 3.86986 7.60912 3.00134 3.45755 2.28695 2.16944 2.16417 8.88178e-16
threshold=22.500000000000004 1.9264482855796816 17.500000000000004 0.79850897192955028 1.5812206864356997 2.0940308570861821 18.500000000000004 2.7622839212417607 0.84928971529006969 3.0992637872695927 92.500000000000014
decision_type=2 2 2 2 2 2 2 2 2 2 2
left_child=1 7 -3 -4 -5 -6 -7 10 9 -9 -1
right_child=-2 2 3 4 5 6 -8 8 -10 -11 -12
leaf_value=-2.1927202921380831 -1.9814256632244538 -2.1927202921380831 -2.1927202921380831 -1.9814256632244538 -2.1927202921380831 -2.039051471109989 -2.1543030868810593 -2.1575045206524783 -2.1927202921380831 -2.0659435147899057 -2.1927202921380831
leaf_weight=3.0762732028961235 1.1831820011138905 2.3663640022277814 1.1831820011138914 1.1831820011138914 1.1831820011138918 1.301500201225281 1.3015002012252805 1.4198184013366701 1.4198184013366697 1.1831820011138914 2.3663640022277832
leaf_count=26 10 20 10 10 10 11 11 12 12 10 20
internal_value=-2.14316 -2.1538 -2.13403 -2.11145 -2.0921 -2.12669 -2.09668 -2.17159 -2.143 -2.11589 -2.19272
internal_weight=19.1675 17.9844 8.51891 6.15255 4.96936 3.78618 2.603 9.46546 4.02282 2.603 5.44264
internal_count=162 152 72 52 42 32 22 80 34 22 46
is_linear=0
shrinkage=1


Tree=3
num_leaves=9
num_cat=0
split_feature=15 15 0 0 16 8 15 0
split_gain=7.34365 22.1812 7.58691 6.36179 11.0742 0.648153 0.631542 4.44089e-16
threshold=1.882646977901459 1.6003455519676211 129.50000000000003 42.500000000000007 2.9716937541961674 1.0000000180025095e-35 2.1508138179779057 23.500000000000004
decision_type=2 2 2 2 2 2 2 2
left_child=1 3 6 7 -5 -4 -2 -1
right_child=2 -3 5 4 -6 -7 -8 -9
leaf_value=-2.24644332919268 -2.2095292653003349 -1.9645541140147693 -2.1135526991802367 -2.24644332919268 -2.0249589458386072 -2.165903553427563 -2.2464433291926804 -2.24644332919268
leaf_weight=1.6931216418743162 1.3544973134994496 1.2416225373744962 1.1287477612495413 1.1287477612495425 1.128747761249542 1.2416225373744965 8.0141091048717481 1.3544973134994505
leaf_count=15 12 11 10 10 10 11 71 12
internal_value=-2.19722 -2.15479 -2.22089 -2.19932 -2.1357 -2.14097 -2.24111 -2.24644
internal_weight=18.2857 6.54674 11.739 5.30511 2.2575 2.37037 9.36861 3.04762
internal_count=162 58 104 47 20 21 83 27
is_linear=0
shrinkage=1


Tree=4
num_leaves=8
num_cat=0
split_feature=17 5 7 0 15 15 16
split_gain=12.0586 22.933 7.82254 1.73291 1.82725 2.32559 0.580442
threshold=1.9458477497100832 2.5000000000000004 1.0000000180025095e-35 136.50000000000003 2.1874866485595708 0.96083962917327892 2.8559145927429204
decision_type=2 2 2 2 2 2 2
left_child=1 2 6 4 5 -2 -1
right_child=3 -3 -4 -5 -6 -7 -8
leaf_value=-2.2021464525218657 -2.2464433291926804 -1.9363651924969782 -2.0987870736232983 -2.1726152014079894 -2.2464433291926804 -2.1633866854349031 -2.24644332919268
leaf_weight=1.1287477612495451 1.5802468657493576 1.128747761249542 1.6931216418743131 1.3544973134994496 7.4497352242469788 1.8059964179992674 2.1446207463741302
leaf_count=10 14 10 15 12 66 16 19
internal_value=-2.19722 -2.1398 -2.18604 -2.22594 -2.2326 -2.20215 -2.23117
internal_weight=18.2857 6.09524 4.96649 12.1905 10.836 3.38624 3.27337
internal_count=162 54 44 108 96 30 29
is_linear=0
shrinkage=1


Tree=5
num_leaves=7
num_cat=0
split_feature=18 0 15 15 14 0
split_gain=19.5597 23.7947 24.0977 8.97012 7.0875 1.77636e-15
threshold=1.7940607666969302 109.50000000000001 2.5167064666748051 1.9699486494064333 1.0000000180025095e-35 101.50000000000001
decision_type=2 2 2 2 2 2
left_child=1 2 3 -1 -5 -2
right_child=5 -3 -4 4 -6 -7
leaf_value=-2.2187577812734212 -2.2464433291926804 -2.2464433291926804 -1.8840143382496519 -1.980662069167793 -2.157849575851051 -2.2464433291926804
leaf_weight=1.8059964179992691 8.2398586571216565 3.3862432837486267 1.2416225373744962 1.1287477612495422 1.1287477612495422 1.3544973134994496
leaf_count=16 73 30 11 10 10 12
internal_value=-2.19722 -2.14289 -2.0768 -2.1357 -2.06926 -2.24644
internal_weight=18.2857 8.69136 5.30511 4.06349 2.2575 9.59436
internal_count=162 77 47 36 20 85
is_linear=0
shrinkage=1


Tree=6
num_leaves=7
num_cat=0
split_feature=18 6 16 18 3 0
split_gain=18.6443 13.3009 6.07351 3.36464 10.6695 1.77636e-15
threshold=0.66878369450569164 1.0000000180025095e-35 1.9328351020812991 1.5372574925422671 1.0000000180025095e-35 39.500000000000007
decision_type=2 2 2 2 2 2
left_child=1 -1 -2 4 -4 -5
right_child=2 -3 3 5 -6 -7
leaf_value=-1.973847165064591 -2.1283183247371746 -2.2021464525218657 -2.2464433291926804 -2.2464433291926804 -2.0882401982254852 -2.2464433291926804
leaf_weight=1.4673720896244076 1.6931216418743122 1.1287477612495422 3.2733685076236716 4.7407405972480756 1.5802468657493589 4.4021162688732147
leaf_count=13 15 10 29 42 14 39
internal_value=-2.19722 -2.07311 -2.21776 -2.22858 -2.19494 -2.24644
internal_weight=18.2857 2.59612 15.6896 13.9965 4.85362 9.14286
internal_count=162 23 139 124 43 81
is_linear=0
shrinkage=1


Tree=7
num_leaves=7
num_cat=0
split_feature=10 17 8 13 1 1
split_gain=25.0408 26.5262 15.0457 21.4773 0.651425 4.44089e-16
threshold=1.5000000000000002 2.5877959728240971 1.0000000180025095e-35 1.5000000000000002 5018.5000000000009 5054.5000000000009
decision_type=2 2 2 2 2 2
left_child=4 5 3 -3 -1 -2
right_child=1 2 -4 -5 -6 -7
leaf_value=-2.2095292653003349 -2.2464433291926804 -2.0987870736232983 -2.157849575851051 -1.8034745624845347 -2.2464433291926804 -2.24644332919268
leaf_weight=1.3544973134994531 1.2416225373744958 1.3544973134994507 1.6931216418743131 1.1287477612495422 10.158729851245878 1.3544973134994505
leaf_count=12 11 12 15 10 90 12
internal_value=-2.19722 -2.12094 -2.04292 -1.96455 -2.2421 -2.24644
internal_weight=18.2857 6.77249 4.17637 2.48325 11.5132 2.59612
internal_count=162 60 37 22 102 23
is_linear=0
shrinkage=1


Tree=8
num_leaves=12
num_cat=0
split_feature=18 5 0 15 16 17 6 16 15 0 13
split_gain=13.4374 9.52781 5.2866 5.21554 3.64683 3.02754 2.57445 0.463174 9.71281e-05 2.27272e-05 4.69345e-06
threshold=2.2745763063430791 2.5000000000000004 113.00000000000001 1.9207001328468325 3.87404477596283 2.6285032033920293 1.0000000180025095e-35 2.9716937541961674 1.6651021242141726 101.50000000000001 1.5000000000000002
decision_type=2 2 2 2 2 2 2 2 2 2 2
left_child=2 3 7 4 -2 -5 -4 8 -1 10 -10
right_child=1 -3 6 5 -6 -7 -8 -9 9 -11 -12
leaf_value=-0.053815069135660566 0.065924695443102407 -0.037440992232235563 0.050181742710886879 -0.012518896134165153 0.15500688559439538 0.071124061936492095 -0.019749700211926097 -0.025477980012940712 -0.053390902856742098 -0.05352831340141502 -0.053296075894555574
leaf_weight=1.735118940472608 2.90440686047077 2.9987827390432349 2.3828424811363211 2.3713366538286209 1.9007457643747327 1.9895317256450651 2.9397164285182953 1.7542104572057713 2.5361760258674622 2.3879460394382477 2.6877167522907257
leaf_count=10 16 17 13 13 10 11 17 10 15 14 16
internal_value=9.13533e-05 0.0399218 -0.0294104 0.065232 0.101162 0.025641 0.0115577 -0.049053 -0.0534775 -0.0534005 -0.0533421
internal_weight=28.5885 12.1648 16.4237 9.16602 4.80515 4.36087 5.32256 11.1012 9.34696 7.61184 5.22389
internal_count=162 67 95 50 26 24 30 65 55 45 31
is_linear=0
shrinkage=0.05


Tree=9
num_leaves=13
num_cat=0
split_feature=0 0 17 15 9 10 13 16 18 13 0 8
split_gain=8.32836 5.73827 9.76126 4.47523 6.36149 1.07742 1.50252 0.426385 1.709e-05 1.02365e-05 1.11579e-05 6.66742e-06
threshold=39.500000000000007 109.50000000000001 3.3954523801803593 1.4317336082458498 1.0000000180025095e-35 1.5000000000000002 1.5000000000000002 2.9278897047042851 2.098969697952271 1.5000000000000002 83.500000000000014 1.0000000180025095e-35
decision_type=2 2 2 2 2 2 2 2 2 2 2 2
left_child=3 5 -3 4 -1 8 -7 -4 9 -2 -11 -10
right_child=1 2 7 -5 -6 6 -8 -9 11 10 -12 -13
leaf_value=-0.051001114039392038 -0.050176981278829205 0.1006819173371897 -0.050348657786867958 0.098705910576018824 0.090729146284203144 -0.050724954362844368 0.023977968403753252 -0.013132397647870371 -0.050338958659388006 -0.050215202418145102 -0.050417986301084107 -0.050494749902883697
leaf_weight=1.8060665577650099 2.169266037642954 2.3108766525983802 1.8183615729212763 2.669828936457634 1.4096850305795667 1.352020189166069 1.3404649049043655 1.3344090729951856 1.4300638884305954 1.2812084928154948 1.4416632950305937 1.3213168680667877
leaf_count=13 17 17 14 19 10 10 10 10 11 10 11 10
internal_value=8.70312e-05 -0.018825 0.02262 0.0508558 0.011129 -0.040733 -0.0135338 -0.0345969 -0.0503141 -0.050258 -0.0503226 -0.0504138
internal_weight=21.6852 15.7997 5.46365 5.88558 3.21575 10.336 2.69249 3.15277 7.64352 4.89214 2.72287 2.75138
internal_count=162 120 41 42 23 79 20 24 59 38 21 21
is_linear=0
shrinkage=0.05


Tree=10
num_leaves=12
num_cat=0
split_feature=2 18 0 7 11 18 3 18 18 16 16
split_gain=10.4119 2.30833 4.06506 3.58883 6.06949 2.12311 4.24794 1.93658 7.39897e-06 3.43172e-06 1.90098e-06
threshold=22.500000000000004 1.9264482855796816 17.500000000000004 1.0000000180025095e-35 1.0000000180025095e-35 0.84928971529006969 1.0000000180025095e-35 2.8163880109786992 1.176614582538605 2.6797018051147465 3.87404477596283
decision_type=2 2 2 2 2 2 2 2 2 2 2
left_child=1 5 10 4 -4 6 -1 -6 -7 -10 -3
right_child=-2 2 3 -5 7 8 -8 -9 9 -11 -12
leaf_value=0.052517021562490364 0.1335390217982444 -0.049257387762628377 0.14667941310595689 -0.025415505114339865 -0.019670719825114827 -0.04914351155481439 -0.049260949581428404 0.060811493284909549 -0.049222755037653422 -0.049330243748108876 -0.049165567388072783
leaf_weight=1.9541545137763074 1.3566576540470112 1.1348323449492439 1.2699102088809011 2.0535452589392662 1.6671767160296442 2.0094861015677452 2.1566356420516968 1.354860685765743 1.8061805441975596 1.2609457373619077 1.1200149357318876
leaf_count=16 10 10 10 17 14 18 19 11 16 11 10
internal_value=2.10676e-05 -0.0101622 0.00845423 0.0289456 0.0549555 -0.0275892 -0.000878552 0.0164116 -0.0492181 -0.0492669 -0.0492118
internal_weight=19.1444 17.7877 8.60034 6.34549 4.29195 9.1874 4.11079 3.02204 5.07661 3.06713 2.25485
internal_count=162 152 72 52 35 80 35 25 45 27 20
is_linear=0
shrinkage=0.05


Tree=11
num_leaves=12
num_cat=0
split_feature=12 0 18 15 15 0 15 17 17 16 18
split_gain=6.87486 9.66824 11.7955 22.3472 6.51222 7.40462e-05 0.00010308 1.58864e-05 3.19745e-06 3.07366e-06 7.86463e-07
threshold=1.5000000000000002 129.50000000000003 2.211010336875916 2.1874866485595708 0.76750376820564281 131.50000000000003 1.9207001328468325 1.7205169796943667 2.8545691967010502 3.3660737276077275 0.70828497409820568
decision_type=2 2 2 2 2 2 2 2 2 2 2
left_child=4 2 3 -2 -1 6 -6 -4 10 -9 -8
right_child=1 -3 7 -5 5 -7 8 9 -10 -11 -12
leaf_value=0.07693965052924466 0.18210634219010913 0.16385815303224707 -0.049151735556969403 -0.048881347492463076 -0.049350461169535891 -0.049487114591320096 -0.048917800528682553 -0.04900578785551165 -0.048854111319923725 -0.048891775281750816 -0.048971503430626166
leaf_weight=1.184799864888191 2.1523870676755887 1.1717668548226363 1.7816887274384496 2.0390524640679359 2.1599823087453842 1.2880014702677725 1.0795791223645212 1.3128243014216425 1.1759445741772649 1.0753515511751173 1.8500193804502485
leaf_count=10 17 10 16 19 19 11 10 12 11 10 17
internal_value=-1.23569e-05 0.0293515 0.0105016 0.0697354 -0.0320469 -0.0491418 -0.0490709 -0.0490387 -0.0489238 -0.0489545 -0.0489517
internal_weight=18.2714 9.53307 8.3613 4.19144 8.73833 7.55353 6.26553 4.16986 4.10554 2.38818 2.9296
internal_count=162 84 74 36 78 68 57 38 38 22 27
is_linear=0
shrinkage=0.05


Tree=12
num_leaves=12
num_cat=0
split_feature=17 5 7 0 15 11 15 7 6 17 10
split_gain=10.5946 15.5636 6.69241 1.66838 1.77999 2.25078 0.59278 1.10672e-05 3.18383e-06 3.03688e-06 1.13436e-06
threshold=1.9458477497100832 2.5000000000000004 1.0000000180025095e-35 136.50000000000003 2.1874866485595708 1.0000000180025095e-35 1.9699486494064333 1.0000000180025095e-35 1.0000000180025095e-35 2.6865651607513432 1.5000000000000002
decision_type=2 2 2 2 2 2 2 2 2 2 2
left_child=1 2 6 4 5 -2 -1 9 -9 -6 -10
right_child=3 -3 -4 -5 7 -7 -8 8 10 -11 -12
leaf_value=-0.048998811133939828 0.032748746673031799 0.1993278172073136 0.086777440889652183 0.024051838976677734 -0.049032002513804122 -0.049108701605258737 -0.003596803397067859 -0.048807830351738829 -0.048932023454033663 -0.04893392780252559 -0.048861075440151086
leaf_weight=2.0747723802924187 1.8278422877192479 1.3979739695787428 1.8303675428032873 1.3638327047228802 1.6474831253290179 1.5534722581505775 1.1001285165548322 1.6981612890958788 1.1900352388620379 1.5153248459100721 1.0699173286557195
leaf_count=19 16 10 15 12 15 14 10 16 11 14 10
internal_value=-4.23096e-06 0.0518286 0.0106321 -0.0279746 -0.0347308 -0.0048589 -0.0332667 -0.0489153 -0.0488596 -0.048985 -0.0488984
internal_weight=18.2693 6.40324 5.00527 11.8661 10.5022 3.38131 3.1749 7.12092 3.95811 3.16281 2.25995
internal_count=162 54 44 108 96 30 29 66 37 29 21
is_linear=0
shrinkage=0.05


Tree=13
num_leaves=12
num_cat=0
split_feature=18 0 15 2 16 17 8 18 0 2 15
split_gain=17.6174 19.1976 15.5077 17.7181 7.70196e-06 5.00367e-06 4.03086e-06 3.23435e-06 1.97562e-06 1.25538e-06 6.74392e-07
threshold=1.7940607666969302 109.50000000000001 1.9699486494064333 19.500000000000004 3.6751787662506108 2.880548477172852 1.0000000180025095e-35 2.211010336875916 48.500000000000007 19.500000000000004 1.4257066249847414
decision_type=2 2 2 2 2 2 2 2 2 2 2
left_child=1 2 -1 -4 5 7 -3 -2 9 -9 -6
right_child=4 6 3 -5 10 -7 -8 8 -10 -11 -12
leaf_value=-0.020808714731708138 -0.048902722017491046 -0.048825424033857104 0.071391772589706096 0.28329264252848119 -0.048877558348697801 -0.048877261179840481 -0.04893759300458507 -0.049003233962025911 -0.049042627004800367 -0.048934780437127491 -0.048822666931976705
leaf_weight=1.7687496170401589 1.0767870098352412 1.489696241915226 2.4629269987344742 1.6456137523055074 1.1803949475288393 1.5016272962093351 1.7322647124528885 1.5311330258846285 1.6502746641635893 1.1905458718538282 1.0638789162039755
leaf_count=16 10 14 19 12 11 14 16 14 15 11 10
internal_value=-0.000120433 0.0492029 0.102976 0.156265 -0.0489321 -0.0489581 -0.0488857 -0.0489803 -0.0489995 -0.0489733 -0.0488515
internal_weight=18.2939 9.09925 5.87729 4.10854 9.19464 6.95037 3.22196 5.44874 4.37195 2.72168 2.24427
internal_count=162 77 47 31 85 64 30 50 40 25 21
is_linear=0
shrinkage=0.05


Tree=14
num_leaves=14
num_cat=0
split_feature=18 0 0 3 17 18 16 16 13 14 15 2 17
split_gain=15.4188 10.9346 5.70875 17.1773 19.5966 0.000110574 3.98253e-05 6.88085e-06 2.72343e-06 3.36127e-06 1.60847e-06 6.33319e-07 4.52877e-07
threshold=0.66878369450569164 106.50000000000001 69.500000000000014 1.0000000180025095e-35 2.1764981746673588 1.7940607666969302 2.6461011171340947 3.6751787662506108 1.5000000000000002 1.0000000180025095e-35 3.302336692810059 19.500000000000004 1.5251715779304507
decision_type=2 2 2 2 2 2 2 2 2 2 2 2 2
left_child=1 -1 6 5 -5 10 -2 8 12 -10 -4 -9 -8
right_child=2 -3 3 4 -6 -7 7 11 9 -11 -12 -13 -14
leaf_value=0.18903921763476225 -0.04924591591747967 -0.0084110357100623031 -0.048898459430815958 -0.016244020486687428 0.2459817600088961 -0.049418152407179318 -0.048940190105390004 -0.048878130376602963 -0.049040653336924811 -0.0489256153251173 -0.048827022092751575 -0.048823693829741666 -0.048894388399283839
leaf_weight=1.6711396798491507 1.1287853047251681 1.2080422490835188 1.8296856284141534 1.5061552822589876 1.3520563766360281 1.2739918082952497 1.0833048671483996 1.0731743201613428 1.5398012027144432 1.0805961266160011 1.3839599788188932 1.064046651124954 1.0755456611514089
leaf_count=13 10 10 17 13 11 11 10 10 14 10 13 10 10
internal_value=-6.40507e-06 0.106193 -0.019873 0.011995 0.1078 -0.049024 -0.0489705 -0.0489256 -0.048959 -0.0489932 -0.0488677 -0.048851 -0.0489174
internal_weight=18.2703 2.87918 15.3911 7.34585 2.85821 4.48764 8.04525 6.91647 4.77925 2.6204 3.21365 2.13722 2.15885
internal_count=162 23 139 65 24 41 74 64 44 24 30 20 20
is_linear=0
shrinkage=0.05


Tree=15
num_leaves=13
num_cat=0
split_feature=10 17 8 13 16 18 17 17 1 16 6 18
split_gain=22.0328 20.6387 9.44714 10.3496 0.661229 4.529e-06 3.63731e-06 3.28617e-06 2.54195e-06 2.01835e-06 1.41848e-06 6.6618e-07
threshold=1.5000000000000002 2.5877959728240971 1.0000000180025095e-35 1.5000000000000002 3.7838618755340581 2.098969697952271 2.016759037971497 2.7094663381576543 5110.5000000000009 3.224784374237061 1.0000000180025095e-35 1.363626301288605
decision_type=2 2 2 2 2 2 2 2 2 2 2 2
left_child=4 6 3 -3 5 8 -2 9 10 -7 11 -1
right_child=1 2 -4 -5 -6 7 -8 -9 -10 -11 -12 -13
leaf_value=-0.048891891427312671 -0.048867084708534403 0.08748413189308521 0.036547149727520996 0.27350855617288045 -0.011274168346167027 -0.049049346300449895 -0.048989001920838819 -0.048904293432540116 -0.048968794725646379 -0.048969199511144507 -0.048854364516748613 -0.048944123261849534
leaf_weight=1.39784310013056 1.392513066530227 1.4571742936968803 1.7445327937602995 1.5356689542531967 1.3232818320393551 1.4316117540001871 1.0911458656191824 1.0772178247570989 1.4142519757151601 1.7406287789344785 1.6034377440810201 1.0837679430842397
leaf_count=13 13 12 15 10 12 13 10 10 13 16 15 10
internal_value=-0.000124582 0.0678232 0.129028 0.182936 -0.0444392 -0.048941 -0.0489206 -0.0489797 -0.048911 -0.0490054 -0.048891 -0.0489147
internal_weight=18.2931 7.22103 4.73738 2.99284 11.072 9.74876 2.48366 4.24946 5.4993 3.17224 4.08505 2.48161
internal_count=162 60 37 22 102 90 23 39 51 29 38 23
is_linear=0
shrinkage=0.05


Tree=16
num_leaves=12
num_cat=0
split_feature=18 5 0 15 16 17 6 16 0 0 17
split_gain=11.921 8.19882 5.04695 4.14257 2.71327 2.63326 2.2366 0.457928 0.000223426 9.14964e-05 1.23608e-05
threshold=2.2745763063430791 2.5000000000000004 113.00000000000001 1.9207001328468325 3.87404477596283 2.6285032033920293 1.0000000180025095e-35 2.9716937541961674 69.500000000000014 101.50000000000001 1.9458477497100832
decision_type=2 2 2 2 2 2 2 2 2 2 2
left_child=2 3 7 4 -2 -5 -4 8 -1 10 -10
right_child=1 -3 6 5 -6 -7 -8 -9 9 -11 -12
leaf_value=-0.053306402163521865 0.05955680523979287 -0.036593272465090372 0.046272445505079758 -0.012336204014832323 0.13352852796191192 0.06479402985036134 -0.018669772843612497 -0.024688555184600218 -0.052494851712986769 -0.052965947143606168 -0.052658421139129608
leaf_weight=2.0135944783687609 3.0425551980733854 2.920538902282714 2.4600412100553504 2.3643618822097778 2.0920332670211792 2.0801559537649155 2.8754660487174988 1.7225923836231221 2.2196007519960403 2.2977150976657867 2.4080856293439865
leaf_count=12 16 17 13 13 10 11 17 10 14 14 15
internal_value=0.000159707 0.0367445 -0.0284265 0.0591042 0.0896958 0.0237629 0.0112731 -0.0482939 -0.0528428 -0.052708 -0.05258
internal_weight=28.4967 12.4996 15.9971 9.57911 5.13459 4.44452 5.33551 10.6616 8.939 6.9254 4.62769
internal_count=162 67 95 50 26 24 30 65 55 43 29
is_linear=0
shrinkage=0.05


Tree=17
num_leaves=12
num_cat=0
split_feature=0 5 15 9 8 10 16 17 3 0 0
split_gain=7.33151 5.7996 3.50863 5.58873 1.72555 4.75217 0.590222 0.000110678 0.000214482 6.98645e-05 5.30753e-05
threshold=39.500000000000007 1.0000000180025095e-35 1.4317336082458498 1.0000000180025095e-35 1.0000000180025095e-35 1.5000000000000002 2.5909359455108647 3.5023255348205571 1.0000000180025095e-35 103.50000000000001 69.500000000000014
decision_type=2 2 2 2 2 2 2 2 2 2 2
left_child=2 -2 3 -1 7 6 -6 8 -3 -8 -10
right_child=1 4 -4 -5 5 -7 9 -9 10 -11 -12
leaf_value=-0.050595576161593041 0.053535593900245176 -0.050644568380595625 0.086549664019889075 0.081236383862491254 -0.010391685893861899 0.052687516145420346 -0.049930920124162809 -0.049701833453351413 -0.050178832609336747 -0.050387551742051062 -0.04976317228644362
leaf_weight=1.7289185076952009 2.3880808353424063 1.7413656264543513 2.8871178776025772 1.5026043057441709 1.2587105035781858 1.9295959100127218 2.3515478894114499 1.4445428028702734 1.4018598422408106 1.3011360168457029 1.6984769627451894
leaf_count=13 17 13 19 10 10 14 19 12 11 10 14
internal_value=0.00014209 -0.0181366 0.0464923 0.0107041 -0.0311751 -0.0137978 -0.0399186 -0.0500859 -0.0502005 -0.0500936 -0.0499511
internal_weight=21.634 15.5153 6.11864 3.23152 13.1272 6.84099 4.91139 6.28625 4.8417 3.65268 3.10034
internal_count=162 120 42 23 103 53 39 50 38 29 25
is_linear=0
shrinkage=0.05


Tree=18
num_leaves=13
num_cat=0
split_feature=2 18 0 7 17 16 16 18 15 16 16 15
split_gain=8.51178 2.09326 3.73172 4.29338 2.18004 2.00937 3.28152 1.86399 1.58941 5.73605e-05 1.17505e-05 1.34604e-05
threshold=22.500000000000004 1.9264482855796816 44.000000000000007 1.0000000180025095e-35 2.7622839212417607 3.5552614927291875 3.9020783901214604 0.84928971529006969 3.0992637872695927 3.3192203044891362 2.4904092550277714 1.9699486494064333
decision_type=2 2 2 2 2 2 2 2 2 2 2 2
left_child=1 4 5 -4 10 9 -7 8 -6 -3 -1 -12
right_child=-2 2 3 -5 7 6 -8 -9 -10 -11 11 -13
leaf_value=-0.049017251303615755 0.11414855574356007 -0.04976977964481346 0.093157902512209637 -0.016993502474624143 -0.013032543945720721 0.068833306048785889 -0.049174386213272504 -0.048835919217757755 0.063876146317588381 -0.049308032545905947 -0.048959049074826712 -0.04876167093905482
leaf_weight=1.4205438718199781 1.5059587508440007 1.3248061388730987 2.0884343013167381 1.5346989408135416 1.3763677105307586 1.259305998682976 1.1069346517324445 1.2782273739576338 1.3122615516185758 1.3661518916487692 1.5200505778193476 2.0006415173411369
leaf_count=13 10 11 16 13 12 10 10 12 10 12 14 19
internal_value=6.20222e-05 -0.00970631 0.00776768 0.0464996 -0.0267335 -0.0199811 0.0136289 0.000872537 0.0245049 -0.0495354 -0.0488959 -0.0488469
internal_weight=19.0944 17.5884 8.68033 3.62313 8.90809 5.0572 2.36624 3.96686 2.68863 2.69096 4.94124 3.52069
internal_count=162 152 72 29 80 43 20 34 22 23 46 33
is_linear=0
shrinkage=0.05


Tree=19
num_leaves=14
num_cat=0
split_feature=12 0 15 0 15 16 17 18 18 16 17 19 7
split_gain=6.22647 8.04636 9.63037 11.2854 5.93449 0.66022 8.3713e-05 6.40625e-05 5.9989e-05 4.9432e-05 2.94525e-05 2.09321e-05 2.23411e-06
threshold=1.5000000000000002 48.500000000000007 1.9207001328468325 129.50000000000003 0.76750376820564281 2.7909940481185918 1.7205169796943667 0.84928971529006969 2.4540537595748906 2.7110340595245366 2.5877959728240971 1.0000000180025095e-35 1.0000000180025095e-35
decision_type=2 2 2 2 2 2 2 2 2 2 2 2 2
left_child=4 6 -3 5 -1 10 -2 12 9 -9 -4 -10 -6
right_child=1 2 3 -5 7 -7 -8 8 11 -11 -12 -13 -14
leaf_value=0.068706297749572112 -0.049217953565884515 0.13604397912647437 -0.048898722797104714 0.13694092287938966 -0.048660105109893187 -0.0012463200307749353 -0.048645346801517671 -0.048893132943686385 -0.048594750792877256 -0.049309374861742972 -0.048548009612233593 -0.04889614806149005 -0.048555845365742901
leaf_weight=1.2612239345908163 1.215613901615143 2.4008819162845612 1.2876081466674811 1.3332010954618452 1.0366900488734245 1.0517554283142088 1.3439981862902639 1.4968459308147433 1.1278663724660876 1.3625586703419683 1.1187598034739492 1.1774741634726522 1.0187443867325783
leaf_count=10 11 17 12 10 10 10 13 14 11 12 11 11 10
internal_value=-3.36146e-05 0.0272154 0.05431 0.0133539 -0.0313642 -0.0342922 -0.0489173 -0.0488445 -0.0489385 -0.0490915 -0.0487357 -0.0487487 -0.0486084
internal_weight=18.2332 9.75182 7.19221 4.79132 8.4814 3.45812 2.55961 7.22018 5.16475 2.8594 2.40637 2.30534 2.05543
internal_count=162 84 60 43 78 33 24 68 48 26 23 22 20
is_linear=0
shrinkage=0.05


Tree=20
num_leaves=13
num_cat=0
split_feature=17 5 7 0 4 16 17 15 15 10 17 13
split_gain=9.32622 11.4132 5.74451 1.5839 3.30703 0.816658 0.599839 0.000208987 4.74069e-05 1.31144e-05 6.38387e-06 6.33309e-06
threshold=1.9458477497100832 2.5000000000000004 1.0000000180025095e-35 136.50000000000003 1.0000000180025095e-35 3.6751787662506108 1.0401487946510317 2.214196085929871 1.4257066249847414 2.5000000000000004 2.656044721603394 1.5000000000000002
decision_type=2 2 2 2 2 2 2 2 2 2 2 2
left_child=1 2 6 4 -2 7 -1 8 -6 10 -9 -12
right_child=3 -3 -4 -5 5 -7 -8 9 -10 -11 11 -13
leaf_value=-0.0025454342531418366 0.053456241826951516 0.16218803257462533 0.076730554496879627 0.023029099475092917 -0.048948222026677701 -0.0023843606694305122 -0.048786873331809311 -0.048762814914765452 -0.049408586286697621 -0.048510873340822269 -0.048535581889358359 -0.048691492577570064
leaf_weight=1.0779897272586851 0.9761679470539083 1.6275576204061506 1.9661213308572767 1.3813167288899411 1.0833415687084182 1.0744747817516316 2.0070526823401451 1.2643854543566706 1.1558638811111448 1.9201314970850942 1.1167938262224197 1.5627676397562027
leaf_count=10 9 10 15 12 10 10 19 12 10 19 11 15
internal_value=1.99718e-05 0.0470405 0.00993826 -0.0272041 -0.0340378 -0.0433438 -0.032629 -0.0487749 -0.0491859 -0.048618 -0.0486702 -0.0486265
internal_weight=18.214 6.67872 5.05116 11.5352 10.1539 9.17776 3.08504 8.10328 2.23921 5.86408 3.94395 2.67956
internal_count=162 54 44 108 96 87 29 77 20 57 38 26
is_linear=0
shrinkage=0.05


Tree=21
num_leaves=12
num_cat=0
split_feature=18 0 15 17 16 10 17 0 17 18 17
split_gain=15.9968 15.927 11.4675 10.6665 1.84343e-05 1.50104e-05 8.74453e-06 4.95441e-06 6.61666e-06 2.41243e-06 1.02513e-06
threshold=1.7940607666969302 109.50000000000001 1.9699486494064333 2.4940803050994877 3.4455386400222783 1.5000000000000002 3.1426173448562627 51.500000000000007 1.9458477497100832 3.4977289438247685 2.0940308570861821
decision_type=2 2 2 2 2 2 2 2 2 2 2
left_child=1 2 -1 -4 6 -3 7 8 -2 -6 -9
right_child=4 5 3 -5 9 -7 -8 10 -10 -11 -12
leaf_value=-0.019933154574174012 -0.048602234467300956 -0.04872415725349459 0.2168762205932826 0.064096858156201031 -0.048594642113598222 -0.048495722941028538 -0.048578875983464748 -0.048832064702116075 -0.048756810508093378 -0.048499195572921303 -0.048762498863988743
leaf_weight=1.7252646014094368 1.1290330588817581 1.1517491638660431 2.0335692167282104 2.6070597767829895 1.6402604877948763 1.9145446121692657 1.0223333463072775 1.0648892074823382 1.789720758795738 1.1100565344095228 1.053466275334358
leaf_count=16 11 11 12 19 16 19 10 10 17 11 10
internal_value=-0.000215524 0.0450354 0.0901283 0.131046 -0.0486635 -0.0485815 -0.0487122 -0.0487393 -0.048697 -0.0485561 -0.0487975
internal_weight=18.2419 9.43219 6.36589 4.64063 8.80976 3.06629 6.05944 5.03711 2.91875 2.75032 2.11836
internal_count=162 77 47 31 85 30 58 48 28 27 20
is_linear=0
shrinkage=0.05


Tree=22
num_leaves=14
num_cat=0
split_feature=3 0 17 15 18 16 0 17 18 4 14 0 18
split_gain=13.1124 29.4401 15.019 5.48201 0.000321755 0.000156416 4.57188e-05 1.55612e-05 1.16581e-05 5.19667e-06 4.84164e-06 2.63474e-06 2.17473e-06
threshold=1.0000000180025095e-35 69.500000000000014 2.656044721603394 2.1508138179779057 0.70828497409820568 2.0934249162673955 39.500000000000007 1.9458477497100832 1.176614582538605 1.5000000000000002 1.0000000180025095e-35 23.500000000000004 1.0688084959983828
decision_type=2 2 2 2 2 2 2 2 2 2 2 2 2
left_child=4 6 3 -3 -1 -6 11 -8 12 -10 -11 -2 -7
right_child=1 2 -4 -5 5 8 7 -9 9 10 -12 -13 -14
leaf_value=-0.049584923198040268 -0.048527434121723979 0.11616657249372252 0.21865720767305749 -0.01778490288244973 -0.04925094979023549 -0.048561320650222811 -0.048731321630309667 -0.048989958989753363 -0.048578984198609225 -0.048784485775068658 -0.048635796037817626 -0.04862519795393145 -0.048457572723353687
leaf_weight=1.2728963047266013 1.4192698299884798 1.4957263246178629 2.2190053164958954 1.5609007179737089 1.1327226758003233 1.0190724879503252 1.0479719489812853 1.3067396804690359 1.2270285561680796 1.0572173520922661 1.135507620871067 1.3396758586168287 1.0015231072902677
leaf_count=11 14 11 15 13 10 10 10 12 12 10 11 13 10
internal_value=-6.80116e-05 0.0367776 0.119643 0.0477628 -0.0488573 -0.0487164 -0.048713 -0.0488749 -0.0486051 -0.0486614 -0.0487075 -0.0485749 -0.0485099
internal_weight=18.2353 10.3893 5.27563 3.05663 7.84597 6.57307 5.11366 2.35471 5.44035 3.41975 2.19272 2.75895 2.0206
internal_count=162 88 39 24 74 63 49 22 53 33 21 27 20
is_linear=0
shrinkage=0.05


Tree=23
num_leaves=13
num_cat=0
split_feature=10 3 16 18 16 15 0 15 0 2 6 16
split_gain=19.681 17.1267 8.06637 10.5806 0.656919 0.000211474 1.7479e-05 2.044e-05 9.90902e-06 6.52886e-06 4.84536e-06 8.53393e-07
threshold=1.5000000000000002 1.0000000180025095e-35 2.9716937541961674 1.176614582538605 3.7838618755340581 2.1508138179779057 69.500000000000014 2.214196085929871 51.500000000000007 18.500000000000004 1.0000000180025095e-35 2.5883555412292485
decision_type=2 2 2 2 2 2 2 2 2 2 2 2
left_child=4 2 3 -2 6 -3 8 -8 9 -1 11 -9
right_child=1 5 -4 -5 -6 -7 7 10 -10 -11 -12 -13
leaf_value=-0.048777338928368608 0.15077417700951279 -0.048558312872296137 0.20869698704609832 -0.020212790469949081 -0.010878314493934714 -0.049499469593818089 -0.048425255369429543 -0.04864864876541497 -0.048836650236444124 -0.048615988496627072 -0.048729455312246858 -0.048587021843511997
leaf_weight=1.056057296693327 1.965265437960624 1.1207955181598666 1.5355174317955969 1.6765765100717542 1.3114976212382305 1.2768030837178228 1.1956951096653936 1.0347175598144533 1.7055098786950109 1.5429967641830442 1.5721104517579081 1.228980667889118
leaf_count=10 13 11 11 14 12 11 12 10 16 15 15 12
internal_value=-0.000185949 0.0614203 0.112583 0.0720578 -0.0440142 -0.0490595 -0.048669 -0.0486058 -0.048743 -0.0486815 -0.048662 -0.0486152
internal_weight=18.2225 7.57496 5.17736 3.64184 10.6476 2.3976 9.33607 5.0315 4.30456 2.59905 3.83581 2.2637
internal_count=162 60 38 27 102 22 90 49 41 25 37 22
is_linear=0
shrinkage=0.05


Tree=24
num_leaves=13
num_cat=0
split_feature=18 5 0 7 15 13 11 16 16 0 17 0
split_gain=10.6731 7.21403 4.82838 3.45411 5.63708 2.60806 1.11059 0.447511 0.411369 0.000268827 0.000147877 9.29375e-05
threshold=2.2745763063430791 2.5000000000000004 113.00000000000001 1.0000000180025095e-35 1.9207001328468325 1.5000000000000002 1.0000000180025095e-35 2.9716937541961674 2.832749724388123 69.500000000000014 2.1414104700088505 103.50000000000001
decision_type=2 2 2 2 2 2 2 2 2 2 2 2
left_child=2 3 7 4 -2 -4 -6 9 -7 -1 -11 -12
right_child=1 -3 5 -5 6 8 -8 -9 -10 10 11 -13
leaf_value=-0.052786314088636578 0.081176107704714937 -0.035884751409386607 0.062122933615819775 0.11182911529543677 -0.02959790127320109 0.0051089631207000595 0.023865665063381898 -0.024200323386761209 -0.028553850203409992 -0.051832779980062554 -0.052110895362267276 -0.052607114134055499
leaf_weight=1.9413436055183426 3.9570438861846906 2.8556944876909247 1.7011946737766255 2.0660084784030914 1.9970183670520782 1.7012697458267214 1.8912748843431473 1.7029397636651982 1.945256784558296 2.7030630111694336 2.3064519613981251 1.5969001650810239
leaf_count=12 19 17 9 10 11 10 10 10 11 18 15 10
internal_value=0.000234294 0.0341356 -0.0275133 0.0543101 0.0391629 0.011001 -0.0035931 -0.047606 -0.0128486 -0.0522691 -0.052117 -0.0523139
internal_weight=28.3655 12.767 15.5984 9.91135 7.84534 5.34772 3.88829 10.2507 3.64653 8.54776 6.60642 3.90335
internal_count=162 67 95 50 40 30 21 65 21 55 43 25
is_linear=0
shrinkage=0.05


Tree=25
num_leaves=12
num_cat=0
split_feature=0 5 11 0 8 10 16 0 3 0 0
split_gain=6.49933 5.31313 3.29961 3.18242 1.7037 4.36212 0.598129 0.000109036 0.000198698 9.25276e-05 6.51023e-05
threshold=39.500000000000007 1.0000000180025095e-35 1.0000000180025095e-35 17.500000000000004 1.0000000180025095e-35 1.5000000000000002 2.5909359455108647 135.50000000000003 1.0000000180025095e-35 69.500000000000014 103.50000000000001
decision_type=2 2 2 2 2 2 2 2 2 2 2
left_child=2 -2 3 -1 7 6 -6 8 -3 -10 -8
right_child=1 4 -4 -5 5 -7 10 -9 9 -11 -12
leaf_value=0.048818776100864741 0.049660072388883404 -0.050276521335384843 0.080899289749753411 -0.050871922628749122 -0.0092484010188780864 0.048827327799690332 -0.049620117272765191 -0.049316416922436407 -0.049923835032160004 -0.049372545322402622 -0.050069392913088567
leaf_weight=1.9818975999951391 2.4701479524373999 1.798412524163721 2.9959705173969269 1.3430457338690756 1.2285437211394308 1.9964445978403089 2.2586003839969639 1.1438439339399336 1.3604492992162707 1.7276917994022367 1.254010312259197
leaf_count=13 17 14 19 10 10 14 19 10 11 15 10
internal_value=0.000217169 -0.0174641 0.0428423 0.00855067 -0.0304502 -0.0131709 -0.0392777 -0.0497559 -0.0498587 -0.0496154 -0.0497805
internal_weight=21.5591 15.2381 6.32091 3.32494 12.768 6.7376 4.74115 6.0304 4.88655 3.08814 3.51261
internal_count=162 120 42 23 103 53 39 50 40 26 29
is_linear=0
shrinkage=0.05


Tree=26
num_leaves=13
num_cat=0
split_feature=15 10 17 16 8 17 17 18 17 15 8 1
split_gain=4.69199 7.13222 3.33598 3.5576 2.21757 0.99077 1.90514 1.38758 0.000893324 0.000196619 0.00011227 1.43714e-05
threshold=3.2690012454986577 1.5000000000000002 1.5474292635917666 2.8057963848114018 1.0000000180025095e-35 2.0940308570861821 2.3952752351760869 0.61364939808845531 2.7094663381576543 0.89357489347457897 1.0000000180025095e-35 5081.5000000000009
decision_type=2 2 2 2 2 2 2 2 2 2 2 2
left_child=2 -2 3 -1 -5 9 -7 -8 10 -4 -9 -11
right_child=1 -3 5 4 -6 6 7 8 -10 11 -12 -13
leaf_value=-0.049127847887243691 0.10969089860623837 -0.023032806592547795 -0.049369283027388543 0.10585762204411919 0.016138443639278202 0.025256973485023329 0.0029157732351257487 -0.04860281738464646 -0.050519697435270843 -0.048686925138674564 -0.049312647001955118 -0.048438888449358626
leaf_weight=1.0965410172939329 2.167768105864524 1.8988315388560293 1.1482291445136055 1.2713198512792587 1.502927839756012 1.9978459328413007 1.9149952754378317 1.2303156256675725 1.4387669712305067 1.246689669787884 1.0179442092776299 1.09862844645977
leaf_count=10 15 17 10 9 12 17 17 12 11 12 9 11
internal_value=9.3211e-05 0.0477178 -0.012849 0.0271167 0.0572529 -0.0267941 -0.0166631 -0.031613 -0.0495468 -0.0488332 -0.0489242 -0.0485707
internal_weight=19.0308 4.0666 14.9642 3.87079 2.77425 11.0934 7.59987 5.60202 3.68703 3.49355 2.24826 2.34532
internal_count=162 32 130 31 21 99 66 49 32 33 21 23
is_linear=0
shrinkage=0.05


Tree=27
num_leaves=15
num_cat=0
split_feature=0 15 15 17 18 18 18 0 15 0 6 17 15 6
split_gain=5.83552 13.4088 8.09489 5.84227 1.60816 5.76033 0.423559 0.000663786 0.000167926 5.78254e-05 3.37262e-05 2.40358e-05 2.06429e-05 5.07412e-06
threshold=42.500000000000007 1.882646977901459 1.6003455519676211 3.7178514003753667 0.80274459719657909 0.66878369450569164 2.0280886292457585 131.50000000000003 0.84794270992279064 80.500000000000014 1.0000000180025095e-35 1.7205169796943667 3.0992637872695927 1.0000000180025095e-35
decision_type=2 2 2 2 2 2 2 2 2 2 2 2 2 2
left_child=8 2 6 4 5 10 -2 9 -1 -6 -3 -10 -11 -13
right_child=1 3 -4 -5 7 -7 -8 -9 11 12 -12 13 -14 -15
leaf_value=-0.049150074700158752 0.020477895223536807 -0.0482549386902364 0.18535852932078301 0.095717886935653418 -0.048721793164410054 0.092977612995763348 0.059764127727749444 -0.049762920033247504 -0.048620105111296413 -0.048160517526512542 -0.048640616231644652 -0.048430111930784628 -0.048451883946370428 -0.048269400888366586
leaf_weight=1.2114249244332338 1.3901112303137773 1.2567650377750383 1.4670305773615835 1.0251241028308857 1.2552797198295595 1.0507449954748151 1.3546545654535291 1.2926561161875723 1.4340890049934389 1.234970308840275 1.0325466617941856 0.99624141305685021 1.1972110867500303 0.96872256696224213
leaf_count=11 10 13 9 8 12 9 10 11 14 13 10 10 12 10
internal_value=-5.18566e-05 0.0164735 0.090544 -0.0169091 -0.0307858 -0.00394396 0.0398673 -0.048788 -0.0486446 -0.0484462 -0.0484289 -0.0484645 -0.0483039 -0.0483509
internal_weight=18.1676 13.5571 4.2118 9.3453 8.32017 3.34006 2.74477 4.98012 4.61048 3.68746 2.28931 3.39905 2.43218 1.96496
internal_count=162 117 29 88 80 32 20 48 45 37 23 34 25 20
is_linear=0
shrinkage=0.05


Tree=28
num_leaves=13
num_cat=0
split_feature=17 5 7 4 0 0 15 15 15 18 10 6
split_gain=8.31053 8.73353 5.02006 2.5653 2.01529 0.795459 0.600456 0.000137855 2.75537e-05 2.35758e-05 3.50197e-05 1.17671e-05
threshold=1.9458477497100832 2.5000000000000004 1.0000000180025095e-35 1.0000000180025095e-35 136.50000000000003 11.500000000000002 1.9699486494064333 2.214196085929871 0.84794270992279064 1.1817220449447634 1.5000000000000002 1.0000000180025095e-35
decision_type=2 2 2 2 2 2 2 2 2 2 2 2
left_child=1 2 6 -2 5 -5 -1 8 -7 10 11 -9
right_child=3 -3 -4 4 -6 7 -8 9 -10 -11 -12 -13
leaf_value=-0.048564148296375315 0.049381585681512574 0.13702029370934218 0.069137962226209645 -0.0026810585352209267 0.021554452174451396 -0.048637795778568554 -0.0017653273888295091 -0.048307491557553019 -0.048981682350172223 -0.048514102513834138 -0.048117232361785729 -0.048544849588691596
leaf_weight=1.9320660680532484 1.0136994644999511 1.8254249989986417 2.0813290923833847 1.0798470675945226 1.4072374477982528 1.1355804800987246 1.0622511133551595 1.0732654184103012 1.1959459856152532 1.6155542582273481 1.697060748934746 1.016889400780201
leaf_count=19 9 10 15 10 12 11 10 11 11 16 18 10
internal_value=4.14548e-05 0.0432273 0.00949524 -0.0264852 -0.0340092 -0.0428803 -0.031962 -0.0484929 -0.0488142 -0.0483542 -0.048286 -0.048423
internal_weight=18.1362 6.90107 5.07565 11.2351 10.2214 8.81414 2.99432 7.7343 2.33153 5.40277 3.78722 2.09015
internal_count=162 54 44 108 99 87 29 77 22 55 39 21
is_linear=0
shrinkage=0.05


Tree=29
num_leaves=12
num_cat=0
split_feature=18 0 15 17 18 10 16 0 17 6 3
split_gain=14.5687 13.4722 8.89457 7.36893 3.09815e-05 2.9304e-05 1.0779e-05 8.04004e-06 6.69081e-06 4.44859e-06 4.38513e-06
threshold=1.7940607666969302 109.50000000000001 1.9699486494064333 2.4940803050994877 2.6728805303573613 1.5000000000000002 3.4455386400222783 80.500000000000014 1.5812206864356997 1.0000000180025095e-35 1.0000000180025095e-35
decision_type=2 2 2 2 2 2 2 2 2 2 2
left_child=1 2 -1 -4 8 -3 7 10 -2 -8 -6
right_child=4 5 3 -5 6 -7 9 -9 -10 -11 -12
leaf_value=-0.019239284551933494 -0.048476590827529642 -0.048514610383299087 0.17817706683120677 0.0575380449879083 -0.048384769404785741 -0.048188464673171588 -0.048312247532156724 -0.048294596627286267 -0.048635181024151021 -0.048175138637601658 -0.048532696969411232
leaf_weight=1.6918059140443817 1.6061105802655204 1.1115311682224274 2.3457368761301041 2.7495050132274628 0.98952855914831217 1.810582660138607 1.5609165355563166 1.1673729121685026 1.135095566511154 0.95268074423074711 1.0147273242473602
leaf_count=16 16 11 12 19 10 19 16 12 11 10 10
internal_value=-0.000300007 0.0414489 0.080095 0.113078 -0.0484042 -0.0483125 -0.0483376 -0.0483989 -0.0485423 -0.0482603 -0.0484597
internal_weight=18.1356 9.70916 6.78705 5.09524 8.42643 2.92211 5.68523 3.17163 2.74121 2.5136 2.00426
internal_count=162 77 47 31 85 30 58 32 27 26 20
is_linear=0
shrinkage=0.05


Tree=30
num_leaves=13
num_cat=0
split_feature=3 0 5 14 18 16 0 10 16 19 0 12
split_gain=12.0066 24.7211 5.05433 4.35487 0.000325311 0.000173214 6.15239e-05 2.96902e-05 1.54844e-05 1.35767e-05 9.42082e-06 4.94756e-06
threshold=1.0000000180025095e-35 69.500000000000014 2.5000000000000004 1.0000000180025095e-35 0.70828497409820568 2.0934249162673955 39.500000000000007 2.5000000000000004 2.9422447681427006 1.5000000000000002 117.50000000000001 1.5000000000000002
decision_type=2 2 2 2 2 2 2 2 2 2 2 2
left_child=4 6 3 -3 -1 -6 11 8 -7 -8 -9 -2
right_child=1 2 -4 -5 5 7 9 10 -10 -11 -12 -13
leaf_value=-0.049333096392815426 -0.048241016482040759 0.0084417376691281135 0.16093881458483464 0.1214451001393731 -0.04901504112493138 -0.048553055576185444 -0.048767542968529844 -0.048289328284743499 -0.048323801981605366 -0.048521746835586452 -0.048082020626687538 -0.048378831986486466
leaf_weight=1.2291827425360686 1.4462828561663628 1.6882753893733025 2.3390220925211906 1.7223671674728394 1.0945288017392156 1.3226253986358645 1.2623162344098091 1.0694033429026606 1.6622066274285314 1.0123660415410995 1.1240465715527532 1.1846571862697601
leaf_count=11 15 13 15 11 10 13 12 11 17 10 12 12
internal_value=-0.000133085 0.0339831 0.10433 0.0655082 -0.0485893 -0.0484436 -0.0484677 -0.0483228 -0.0484254 -0.0486581 -0.0481831 -0.0483031
internal_weight=18.1573 10.6553 5.74966 3.41064 7.50199 6.27281 4.90562 5.17828 2.98483 2.27468 2.19345 2.63094
internal_count=162 88 39 24 74 63 49 53 30 22 23 27
is_linear=0
shrinkage=0.05


Tree=31
num_leaves=13
num_cat=0
split_feature=10 3 16 18 0 15 0 0 6 0 18 15
split_gain=17.6308 13.9941 5.46766 8.32477 0.656839 0.000181082 3.62351e-05 3.76212e-05 1.75575e-05 1.14564e-05 1.60151e-05 2.55014e-06
threshold=1.5000000000000002 1.0000000180025095e-35 2.9716937541961674 1.176614582538605 17.500000000000004 2.1508138179779057 69.500000000000014 94.500000000000014 1.0000000180025095e-35 39.500000000000007 2.098969697952271 2.1874866485595708
decision_type=2 2 2 2 2 2 2 2 2 2 2 2
left_child=4 2 3 -2 -1 -3 9 11 -9 -6 -11 -8
right_child=1 5 -4 -5 6 -7 7 8 -10 10 -12 -13
leaf_value=-0.01031356672319921 0.12875684991822009 -0.048255117634291307 0.17056411414546277 -0.019844866255661002 -0.048413899806590971 -0.049148786997389664 -0.04810253112990933 -0.048322121537898728 -0.048573066239522698 -0.048428495643227154 -0.04868196080159351 -0.048215729025175492
leaf_weight=1.2948677465319658 2.1828830242156978 1.0627663135528567 1.7820437178015707 1.6585404723882673 1.4910401552915553 1.2147390022873876 1.0335520729422567 1.4670021384954453 1.3280007615685463 0.9963743090629581 1.6639879420399664 0.95936627686023701
leaf_count=12 13 11 11 14 15 11 11 15 13 10 16 10
internal_value=-0.000278693 0.0558303 0.0981779 0.0645978 -0.0435958 -0.0487318 -0.0484167 -0.048323 -0.0484414 -0.0485248 -0.048587 -0.048157
internal_weight=18.1352 7.90097 5.62347 3.84142 10.2342 2.27751 8.93932 4.78792 2.795 4.1514 2.66036 1.99292
internal_count=162 60 38 27 102 22 90 49 28 41 26 21
is_linear=0
shrinkage=0.05


Tree=32
num_leaves=13
num_cat=0
split_feature=18 5 0 7 15 16 13 18 16 15 0 16
split_gain=9.50467 6.3604 4.59102 2.88962 4.70527 2.44368 2.3025 0.480269 0.369955 0.000319741 0.000235715 6.35154e-05
threshold=2.2745763063430791 2.5000000000000004 113.00000000000001 1.0000000180025095e-35 1.9699486494064333 3.6751787662506108 1.5000000000000002 2.098969697952271 2.832749724388123 1.6003455519676211 103.50000000000001 2.6797018051147465
decision_type=2 2 2 2 2 2 2 2 2 2 2 2
left_child=2 3 7 4 5 -2 -4 9 -8 -1 11 -11
right_child=1 -3 6 -5 -6 -7 8 -9 -10 10 -12 -13
leaf_value=-0.052297845718820228 0.03065799563681116 -0.035210699878567037 0.057467841029999259 0.10085596583487706 -0.0096733170580892633 0.10259629172105188 0.0045670005262985792 -0.021327371987138709 -0.027490513418190102 -0.051175006412371972 -0.052013946989228399 -0.051542084958941525
leaf_weight=1.7144460380077378 2.2719206064939481 2.7959948182106009 1.7602664679288853 2.1864087879657736 3.3120702654123306 2.4573268592357635 1.7124065309762957 1.5455980300903309 1.8969188183546064 2.543124184012413 1.8243770599365232 2.1959951370954514
leaf_count=11 11 17 9 10 18 11 10 9 11 18 12 15
internal_value=0.00027547 0.0316185 -0.0265921 0.0498878 0.0360297 0.0680373 0.010584 -0.0469127 -0.0122812 -0.0516898 -0.051531 -0.0513451
internal_weight=28.2169 13.0237 15.1931 10.2277 8.04132 4.72925 5.36959 9.82354 3.60933 8.27794 6.5635 4.73912
internal_count=162 67 95 50 40 22 30 65 21 56 45 33
is_linear=0
shrinkage=0.05


Tree=33
num_leaves=14
num_cat=0
split_feature=0 0 8 16 14 16 16 19 12 10 0 0 13
split_gain=5.78592 5.20337 7.83739 8.64186 2.68411 4.78944 1.52721 1.13518 1.29551 0.000577633 0.000162748 5.76986e-05 6.09296e-05
threshold=39.500000000000007 109.50000000000001 1.0000000180025095e-35 2.8852970600128178 1.0000000180025095e-35 3.5552614927291875 3.7838618755340581 1.5000000000000002 1.5000000000000002 1.5000000000000002 67.500000000000014 83.500000000000014 1.5000000000000002
decision_type=2 2 2 2 2 2 2 2 2 2 2 2 2
left_child=4 7 -3 -4 5 -1 -6 8 -2 10 -9 -12 -13
right_child=1 2 3 -5 6 -7 -8 9 -10 -11 11 12 -14
leaf_value=0.068947515752854086 0.021922821822108033 -0.0497135475378081 0.14696611561837034 -0.017050662934661214 0.038578124742938508 -0.05133447375808603 0.10773454203542698 -0.049934912778052308 -0.049583386058027847 -0.050418332325029451 -0.048961301810198671 -0.049128848348895172 -0.049632384033154481
leaf_weight=1.6361549273133307 1.3864614441990835 2.2507543638348571 1.7521044388413431 1.4827352464199064 1.6348592191934588 1.6747196689248083 1.5601362586021421 1.2225987091660497 1.1662281081080437 2.2056333422660828 1.0818689391016962 1.1132017821073532 1.3051042407751083
leaf_count=10 11 19 11 11 10 12 10 10 10 17 10 10 11
internal_value=0.000288421 -0.0168237 0.0219348 0.0717867 0.0396547 0.008106 0.0723476 -0.0392487 -0.0107457 -0.0497503 -0.0494383 -0.0492648 -0.0494006
internal_weight=21.4726 14.9667 5.48559 3.23484 6.50587 3.31087 3.195 9.4811 2.55269 6.92841 4.72277 3.50017 2.41831
internal_count=162 120 41 22 42 22 20 79 21 58 41 31 21
is_linear=0
shrinkage=0.05


Tree=34
num_leaves=14
num_cat=0
split_feature=15 15 17 17 9 8 17 17 18 17 15 8 0
split_gain=4.12258 6.15956 3.03998 3.62554 2.47669 1.79185 0.969469 1.77597 1.34075 0.000772149 0.00024551 0.000102505 2.29592e-05
threshold=3.2690012454986577 3.4627532958984379 1.5474292635917666 0.79850897192955028 5.0000000000000009 1.0000000180025095e-35 2.0940308570861821 2.3952752351760869 0.61364939808845531 2.7094663381576543 0.89357489347457897 1.0000000180025095e-35 80.500000000000014
decision_type=2 2 2 2 2 2 2 2 2 2 2 2 2
left_child=2 -2 3 -1 -3 -5 10 -8 -9 11 -4 -10 -12
right_child=1 4 6 5 -6 -7 7 8 9 -11 12 -13 -14
leaf_value=-0.049421643286306133 0.131307670592263 -0.049282109827742414 -0.049147004547267961 0.097956349985201793 0.044342203937064506 0.01781072246325862 0.023805055650168782 0.0026460981568117319 -0.048334838579376371 -0.05016463549689118 -0.048386249581075735 -0.049028095434340759 -0.048063118899818076
leaf_weight=1.1526430323720007 1.359734758734702 1.2901128306984901 1.112338744103907 1.3309023082256317 1.5611490458250046 1.4651470854878426 2.0324754044413567 1.9225991517305372 1.1741037145257003 1.3811601921916006 1.1841274499893191 0.9768187329173087 1.0260494723916052
leaf_count=10 9 12 10 9 11 12 17 17 12 11 12 9 11
internal_value=0.000102999 0.04374 -0.0123479 0.0251983 0.00197993 0.0559595 -0.0260633 -0.0160884 -0.0309532 -0.0492421 -0.0485412 -0.0486497 -0.0482362
internal_weight=18.9694 4.211 14.7584 3.94869 2.85126 2.79605 10.8097 7.48716 5.45468 3.53208 3.32252 2.15092 2.21018
internal_count=162 32 130 31 23 21 99 66 49 32 33 21 23
is_linear=0
shrinkage=0.05


Tree=35
num_leaves=15
num_cat=0
split_feature=0 15 18 15 16 18 15 15 15 0 8 16 10 14
split_gain=5.40929 11.1697 6.13021 5.98908 1.94312 0.783836 0.664222 0.000901215 0.000152858 6.24456e-05 1.74042e-05 1.96881e-05 1.61603e-05 1.2061e-05
threshold=42.500000000000007 1.882646977901459 3.3002053499221806 1.6003455519676211 2.9278897047042851 2.098969697952271 2.214196085929871 3.2690012454986577 0.84794270992279064 106.50000000000001 1.0000000180025095e-35 3.7838618755340581 1.5000000000000002 1.0000000180025095e-35
decision_type=2 2 2 2 2 2 2 2 2 2 2 2 2 2
left_child=8 3 4 5 6 -2 -3 9 -1 13 -10 -12 -11 -8
right_child=1 2 -4 -5 -6 -7 7 -9 10 12 11 -13 -14 -15
leaf_value=-0.04886125668319094 0.012085772371439336 -0.0078864926260915017 0.10159354230661904 0.15520753647410107 0.024633151152434675 0.064712328903894237 -0.048093027244814207 -0.049680354653053371 -0.048041335075468594 -0.048503316167979274 -0.04811353468649307 -0.048425820914976825 -0.048229004909253588 -0.04785878848238475
leaf_weight=1.1574072986841226 1.5678100287914269 1.225630156695839 0.98426266014576036 1.6618921905755994 1.3381765112280843 1.2894870936870573 1.1250125244259834 1.268718436360359 1.2064327225089075 1.0082578361034396 0.9404334053397182 1.0893071517348287 1.1485017687082288 1.0743451863527298
leaf_count=11 11 12 8 9 11 9 12 11 13 10 10 11 12 12
internal_value=-9.57783e-05 0.0153941 -0.016304 0.0797338 -0.0304751 0.0358359 -0.04124 -0.0485076 -0.0483681 -0.0481661 -0.0481917 -0.0482811 -0.0483572 -0.0479786
internal_weight=18.0857 13.6921 9.17291 4.51919 8.18864 2.8573 6.85047 5.62484 4.39358 4.35612 3.23617 2.02974 2.15676 2.19936
internal_count=162 117 88 29 80 20 69 57 45 46 34 21 22 24
is_linear=0
shrinkage=0.05


Tree=36
num_leaves=13
num_cat=0
split_feature=17 5 7 4 1 16 18 15 18 10 17 6
split_gain=7.495 6.92681 4.45304 2.33695 1.94066 0.839316 0.614608 0.000201957 3.67186e-05 4.66675e-05 2.42871e-05 1.7338e-05
threshold=1.9458477497100832 2.5000000000000004 1.0000000180025095e-35 1.0000000180025095e-35 5137.5000000000009 3.6751787662506108 2.2745763063430791 2.214196085929871 1.1817220449447634 1.5000000000000002 2.2243175506591801 1.0000000180025095e-35
decision_type=2 2 2 2 2 2 2 2 2 2 2 2
left_child=1 2 6 -2 5 7 -1 10 9 11 -5 -9
right_child=3 -3 -4 4 -6 -7 -8 8 -10 -11 -12 -13
leaf_value=-0.00035273020716824273 0.044764069444552475 0.11929277278627362 0.06329514430720963 -0.048531681375776271 0.020659224927213046 -0.00012528791984403863 -0.048386151114106504 -0.048052404488043238 -0.04831450256940089 -0.047834770168449586 -0.048873559436590462 -0.048346483940598026
leaf_weight=1.0343749895691901 1.0596421435475356 1.9901799857616422 2.1782380193471909 1.0117793604731509 1.4233650192618377 1.0296470150351522 1.8698082491755483 1.0231580436229708 1.7534491866827009 1.6059157326817515 1.0676663294434545 0.98246429860591877
leaf_count=10 9 10 15 10 12 10 19 11 18 18 10 10
internal_value=9.29172e-05 0.0402183 0.00925429 -0.0258073 -0.0333628 -0.0424368 -0.0312782 -0.0482889 -0.0481268 -0.0480356 -0.0487072 -0.0481965
internal_weight=18.0297 7.0726 5.08242 10.9571 9.89744 8.47408 2.90418 7.44443 5.36499 3.61154 2.07945 2.00562
internal_count=162 54 44 108 99 87 29 77 57 39 20 21
is_linear=0
shrinkage=0.05


Tree=37
num_leaves=12
num_cat=0
split_feature=18 0 15 17 18 15 16 12 0 9 0
split_gain=13.4133 11.6756 7.09608 5.53221 4.76006e-05 3.98193e-05 1.69574e-05 1.45819e-05 1.03113e-05 5.24299e-06 1.17433e-06
threshold=1.7940607666969302 109.50000000000001 1.9699486494064333 2.4940803050994877 2.4540537595748906 3.2400556802749638 3.3660737276077275 1.5000000000000002 80.500000000000014 1.0000000180025095e-35 20.500000000000004
decision_type=2 2 2 2 2 2 2 2 2 2 2
left_child=1 2 -1 -4 7 -3 8 -2 -6 10 -8
right_child=4 5 3 -5 6 -7 9 -9 -10 -11 -12
leaf_value=-0.018303220254939894 -0.048514683788035501 -0.048291853772434265 0.15298882939555369 0.052268054354672494 -0.048259070118139763 -0.047908585478154457 -0.048107353420981783 -0.048249305654902923 -0.048066488455671116 -0.047930174910780131 -0.048029838318854302
leaf_weight=1.6481885239481942 1.0106890946626645 1.1615472733974459 2.5939663648605347 2.8736542314291 1.8359047025442126 1.626833878457546 0.93839123100042376 1.0610781162977219 1.1185243055224416 1.0901107937097547 1.019376255571842
leaf_count=16 10 12 12 19 19 18 10 11 12 12 11
internal_value=-0.000339125 0.0386552 0.0726384 0.100052 -0.0481721 -0.0480682 -0.0481008 -0.0483788 -0.0481862 -0.0480181 -0.048067
internal_weight=17.9783 9.90419 7.11581 5.46762 8.07407 2.78838 6.00231 2.07177 2.95443 3.04788 1.95777
internal_count=162 77 47 31 85 30 64 21 31 33 21
is_linear=0
shrinkage=0.05


Tree=38
num_leaves=14
num_cat=0
split_feature=0 0 16 2 13 15 18 0 18 5 0 16 9
split_gain=10.7753 16.887 4.46609 8.81058 5.5177 0.000979337 0.00014094 9.76043e-05 3.58952e-05 1.96271e-05 1.07321e-05 7.11203e-06 3.23169e-06
threshold=69.500000000000014 109.50000000000001 2.3921668529510502 18.500000000000004 1.5000000000000002 3.2400556802749638 1.7940607666969302 39.500000000000007 2.098969697952271 2.5000000000000004 51.500000000000007 3.87404477596283 1.0000000180025095e-35
decision_type=2 2 2 2 2 2 2 2 2 2 2 2 2
left_child=7 2 -2 4 -4 -3 -7 9 -9 11 -10 12 -1
right_child=1 5 3 -5 -6 6 -8 8 10 -11 -12 -13 -14
leaf_value=-0.048114732146581553 0.14868096955909713 -0.049837591486721761 0.15590770738610937 -0.048725791356247647 0.032728139844404494 -0.047909408494368325 -0.048636143980438529 -0.0481883362191593 -0.048425630755387028 -0.048250278066894609 -0.048650543693607037 -0.047888432328631193 -0.047982923340173372
leaf_weight=0.94213176518678998 1.7289783209562282 1.3833979889750478 1.9047878533601761 1.4466938972473142 1.7392103746533394 1.6270876452326777 1.1308086067438123 1.0497965663671496 0.99486313015222583 0.96481233090162266 1.1360604017972944 1.0814254954457281 0.91829089820384979
leaf_count=10 11 12 11 14 11 18 11 11 10 10 11 12 10
internal_value=-0.000177125 0.0308888 0.0792512 0.0556704 0.0971165 -0.048752 -0.0482074 -0.048222 -0.0484276 -0.0480546 -0.0485455 -0.0479904 -0.0480497
internal_weight=18.0483 10.961 6.81967 5.09069 3.644 4.14129 2.7579 7.08738 3.18072 3.90666 2.13092 2.94185 1.86042
internal_count=162 88 47 36 22 41 29 74 32 42 21 32 20
is_linear=0
shrinkage=0.05


Tree=39
num_leaves=13
num_cat=0
split_feature=10 3 8 18 16 15 0 0 6 0 18 15
split_gain=15.8484 11.6993 4.3027 7.18185 0.660034 0.0001452 5.22409e-05 5.90673e-05 2.94479e-05 2.29332e-05 2.32856e-05 3.25787e-06
threshold=1.5000000000000002 1.0000000180025095e-35 1.0000000180025095e-35 1.176614582538605 3.7838618755340581 2.1508138179779057 69.500000000000014 94.500000000000014 1.0000000180025095e-35 39.500000000000007 2.098969697952271 2.1874866485595708
decision_type=2 2 2 2 2 2 2 2 2 2 2 2
left_child=4 2 3 -2 6 -3 9 11 -9 -1 -11 -8
right_child=1 5 -4 -5 -6 -7 7 8 -10 10 -12 -13
leaf_value=-0.048147445556976004 0.1723544609001679 -0.048008874445585707 0.025803671420753085 0.037542220658711767 -0.0096088916814064673 -0.048828430587565828 -0.047782013257623934 -0.048052534405853914 -0.048384265766976964 -0.04820219997141189 -0.04851338025338417 -0.047913921583916212
leaf_weight=1.4200316891074201 2.3731472045183164 1.0147896558046343 1.9445207342505453 1.6924615651369093 1.2747119814157475 1.1561814695596693 0.96916156262159325 1.3951794356107712 1.2852963730692863 0.95673132687807116 1.6176666542887685 0.90536866337060928
leaf_count=15 11 11 14 13 12 11 11 15 13 10 16 10
internal_value=-0.000364848 0.05104 0.086976 0.116234 -0.0431725 -0.0484453 -0.0481768 -0.048061 -0.0482116 -0.0483088 -0.0483977 -0.0478457
internal_weight=18.0052 8.1811 6.01013 4.06561 9.82415 2.17097 8.54944 4.55501 2.68048 3.99443 2.5744 1.87453
internal_count=162 60 38 24 102 22 90 49 28 41 26 21
is_linear=0
shrinkage=0.05


Tree=40
num_leaves=14
num_cat=0
split_feature=18 5 0 7 15 15 11 18 18 15 17 0 8
split_gain=8.45448 5.6261 4.36889 2.45931 4.03329 2.34203 0.969611 0.466742 0.325229 0.000375287 0.000296351 0.00014584 7.18642e-05
threshold=2.2745763063430791 2.5000000000000004 113.00000000000001 1.0000000180025095e-35 1.9207001328468325 3.2400556802749638 1.0000000180025095e-35 2.098969697952271 1.0688084959983828 1.6003455519676211 2.1414104700088505 103.50000000000001 1.0000000180025095e-35
decision_type=2 2 2 2 2 2 2 2 2 2 2 2 2
left_child=2 3 7 4 -2 -4 -6 9 -7 -1 12 -12 -11
right_child=1 -3 5 -5 6 8 -8 -9 -10 10 11 -13 -14
leaf_value=-0.051830635843301644 0.066419162238750121 -0.03453752733453154 0.057612197166284101 0.091741507117145307 -0.028630004402421097 0.0027899992135963642 0.021280308350214605 -0.021027405095937462 -0.027191633159238483 -0.050881025872881284 -0.051007321853023063 -0.051676960105855742 -0.050385154962283477
leaf_weight=1.6486278474330918 4.32250067591667 2.7364692091941825 1.7576645761728276 2.2925629019737235 1.9517909288406372 1.7478086948394778 1.9406377375125885 1.5359566211700437 1.874717518687248 1.3723270446062088 1.8088992983102801 1.4769659042358396 1.5626547560095787
leaf_count=11 19 17 9 10 11 10 10 9 11 10 13 10 12
internal_value=0.000306483 0.029321 -0.0256828 0.0459517 0.0331731 0.0102529 -0.00374635 -0.0462391 -0.012726 -0.0511599 -0.0509822 -0.0513083 -0.050617
internal_weight=28.0296 13.244 14.7856 10.5075 8.21493 5.38019 3.89243 9.40543 3.62253 7.86947 6.22085 3.28587 2.93498
internal_count=162 67 95 50 40 30 21 65 21 56 45 23 22
is_linear=0
shrinkage=0.05


Tree=41
num_leaves=12
num_cat=0
split_feature=0 0 8 17 11 0 10 13 0 12 18
split_gain=5.11304 4.81355 6.77697 6.84321 2.57256 2.59034 1.06637 1.49524 0.000339539 0.000276646 3.44515e-05
threshold=39.500000000000007 109.50000000000001 1.0000000180025095e-35 3.3954523801803593 1.0000000180025095e-35 17.500000000000004 1.5000000000000002 1.5000000000000002 67.500000000000014 1.5000000000000002 1.0688084959983828
decision_type=2 2 2 2 2 2 2 2 2 2 2
left_child=4 6 -3 -4 5 -1 8 -8 9 -2 -10
right_child=1 2 3 -5 -6 -7 7 -9 10 -11 -12
leaf_value=0.039604887086401842 -0.050238664419454883 -0.049369267236721553 0.12586798850411535 -0.016921961112165783 0.068197597300589802 -0.050407385357575829 -0.050135574791929219 0.026460349656799394 -0.049071074895303109 -0.049200848838044486 -0.048776536982207963
leaf_weight=2.1534434705972703 1.1468237265944463 2.138093337416648 1.940348729491234 1.4784009009599683 3.2711154669523239 1.2710198163986204 1.2509273365139961 1.2985577806830406 1.9758507609367373 1.4591248407959938 1.9954819977283476
leaf_count=13 9 19 11 11 19 10 10 10 18 13 19
internal_value=0.000276156 -0.0162355 0.020453 0.06412 0.0364868 0.00619604 -0.0385734 -0.0111221 -0.0492141 -0.0496576 -0.0489231
internal_weight=21.3792 14.6836 5.55684 3.41875 6.69558 3.42446 9.12677 2.54949 6.57728 2.60595 3.97133
internal_count=162 120 41 22 42 23 79 20 59 22 37
is_linear=0
shrinkage=0.05


Tree=42
num_leaves=12
num_cat=0
split_feature=2 18 0 7 11 18 3 18 16 18 14
split_gain=5.27094 1.80312 3.24044 2.66021 3.81422 1.8934 3.22869 1.65074 0.00013397 8.1022e-05 2.74103e-05
threshold=22.500000000000004 1.9264482855796816 17.500000000000004 1.0000000180025095e-35 1.0000000180025095e-35 0.84928971529006969 1.0000000180025095e-35 2.8163880109786992 2.6797018051147465 3.657746553421021 1.0000000180025095e-35
decision_type=2 2 2 2 2 2 2 2 2 2 2
left_child=1 5 9 4 -4 6 -1 -6 10 -3 -7
right_child=-2 2 3 -5 7 8 -8 -9 -10 -11 -12
leaf_value=0.040858524950795901 0.080415752285533826 -0.048812511181796026 0.10888002993357336 -0.024419052492338257 -0.020603158706420981 -0.047824091905249139 -0.048456631698182269 0.051996522489430111 -0.048574029282907522 -0.048174502869082293 -0.04816559499265622
leaf_weight=2.1762338131666237 1.8448593467473973 1.0449043586850146 1.548022426664829 1.9851595759391782 1.6903185844421389 1.0647959411144257 1.8911459892988203 1.4586424902081487 1.9215643107891081 0.95005030930042256 1.3110348060727119
leaf_count=16 10 10 10 17 14 12 19 11 19 10 14
internal_value=0.0001348 -0.00855597 0.00741248 0.0241078 0.0446174 -0.0251207 -0.000668947 0.013026 -0.0482636 -0.0485087 -0.0480125
internal_weight=18.8867 17.0419 8.6771 6.68214 4.69698 8.36477 4.06738 3.14896 4.2974 1.99495 2.37583
internal_count=162 152 72 52 35 80 35 25 45 20 26
is_linear=0
shrinkage=0.05


Tree=43
num_leaves=13
num_cat=0
split_feature=12 10 15 18 15 17 0 15 15 15 17 17
split_gain=5.08689 6.06586 5.19267 7.78938 5.13547 3.33626 0.00085822 0.000596193 0.000123654 7.02259e-05 2.79753e-05 9.36857e-06
threshold=1.5000000000000002 2.5000000000000004 2.1508138179779057 2.211010336875916 0.76750376820564281 2.7622839212417607 113.00000000000001 1.882646977901459 3.0992637872695927 2.2638339996337895 2.656044721603394 2.6865651607513432
decision_type=2 2 2 2 2 2 2 2 2 2 2 2
left_child=4 2 3 -2 -1 -3 10 -6 9 -9 -4 -11
right_child=1 5 6 -5 7 -7 -8 8 -10 11 -12 -13
leaf_value=0.058087741103615642 0.094827107213942177 0.03749024257575146 -0.048415099165122183 -0.048608840734903604 -0.049209214001359941 0.14519138631355669 -0.049943754155397237 -0.04824524994386549 -0.048464650464980399 -0.047625762655259002 -0.048040530770567663 -0.047852334783172801
leaf_weight=1.3676894605159766 2.3488366529345517 1.6615610942244532 1.0831901654601104 1.5853743404150007 1.7762708738446233 1.2676191106438635 1.1760997697710989 1.1524719893932345 1.7928814515471456 0.85113369673490502 0.92346729338169087 0.98339022696018219
leaf_count=10 14 14 11 16 17 9 10 12 18 10 10 11
internal_value=-8.81781e-05 0.0235378 -0.00138757 0.0370265 -0.0300421 0.0840985 -0.0488713 -0.0484271 -0.0481364 -0.0479394 -0.0482427 -0.0477472
internal_weight=17.97 10.0461 7.11697 3.93421 7.92384 2.92918 3.18276 6.55615 4.77988 2.987 2.00666 1.83452
internal_count=162 84 61 30 78 23 31 68 51 33 21 21
is_linear=0
shrinkage=0.05


Tree=44
num_leaves=12
num_cat=0
split_feature=17 0 0 2 4 0 16 15 9 10 16
split_gain=6.80279 4.893 10.7031 4.90271 2.15501 1.87514 0.8356 0.000198868 2.77115e-05 5.18226e-05 1.67706e-05
threshold=1.9458477497100832 69.500000000000014 51.500000000000007 19.500000000000004 1.0000000180025095e-35 136.50000000000003 3.6751787662506108 2.214196085929871 1.0000000180025095e-35 1.5000000000000002 3.15290379524231
decision_type=2 2 2 2 2 2 2 2 2 2 2
left_child=1 2 3 -1 -2 6 7 10 9 -9 -6
right_child=4 -3 -4 -5 5 -7 -8 8 -10 -11 -12
leaf_value=0.084684795228534226 0.041256445945430702 -0.027719083813395121 0.14627199119088638 -0.04892715859814975 -0.048338892184510519 0.019954157384117575 0.00028015581541901614 -0.048004125310695395 -0.048060170859150271 -0.047611304344092831 -0.048628244121681687
leaf_weight=1.09526935219765 1.0969688668847091 2.0456880554556847 2.2283013090491295 1.8399383500218389 0.97832758724688984 1.4362742528319365 1.0218851566314695 1.7478847354650497 1.7628468349575994 1.6156898960471153 1.0258632898330686
leaf_count=8 9 15 13 18 10 12 10 19 19 19 10
internal_value=0.000191978 0.0377245 0.063652 0.000929987 -0.0251295 -0.0327242 -0.0420048 -0.0480647 -0.0478996 -0.0478154 -0.048487
internal_weight=17.8949 7.2092 5.16351 2.93521 10.6857 9.58877 8.1525 7.13061 5.12642 3.36357 2.00419
internal_count=162 54 39 26 108 99 87 77 57 38 20
is_linear=0
shrinkage=0.05


Tree=45
num_leaves=13
num_cat=0
split_feature=18 0 15 15 13 18 15 5 0 12 17 2
split_gain=12.3783 10.1916 5.45911 2.74408 1.40609 5.54707e-05 5.42308e-05 1.98548e-05 2.47765e-05 1.62538e-05 9.38072e-06 1.8161e-06
threshold=1.7940607666969302 109.50000000000001 2.5167064666748051 1.9699486494064333 1.5000000000000002 2.4540537595748906 3.2400556802749638 2.5000000000000004 26.500000000000004 1.5000000000000002 2.372158527374268 19.500000000000004
decision_type=2 2 2 2 2 2 2 2 2 2 2 2
left_child=1 2 3 -1 -5 9 -3 8 11 -2 -10 -7
right_child=5 6 -4 4 -6 7 -8 -9 10 -11 -12 -13
leaf_value=-0.017234713651595887 -0.048323967788231899 -0.048094067472772992 0.12875573447030009 0.030606353256657906 0.094762066103750459 -0.047633490913574106 -0.047636446755287908 -0.048030021621624591 -0.048011796774635088 -0.048038656238697838 -0.047803224358180331 -0.047730050518817083
leaf_weight=1.6006324887275711 0.97756429016589996 1.1188900917768481 2.3786145597696304 1.7399889379739761 1.6773477047681808 0.8540826067328452 1.5363558083772657 1.4805107191205022 1.3819704726338389 1.0200609862804413 0.88388545811176289 1.1328436508774755
leaf_count=16 10 12 11 10 10 10 18 16 15 11 10 13
internal_value=-0.000384036 0.0362003 0.0663654 0.0367912 0.0620962 -0.0479514 -0.0478293 -0.0478723 -0.0478174 -0.0481783 -0.0479304 -0.0476885
internal_weight=17.7827 10.0518 7.39658 5.01797 3.41734 7.73092 2.65525 5.73329 4.25278 1.99763 2.26586 1.98693
internal_count=162 77 47 36 20 85 30 64 48 21 25 23
is_linear=0
shrinkage=0.05


Tree=46
num_leaves=13
num_cat=0
split_feature=3 0 17 16 18 16 0 10 17 16 2 17
split_gain=10.3526 18.5802 7.81368 3.35014 0.000665057 0.000188153 8.72078e-05 4.29074e-05 2.30731e-05 1.77083e-05 7.99401e-06 7.1004e-06
threshold=1.0000000180025095e-35 69.500000000000014 2.1764981746673588 2.7890514135360722 0.70828497409820568 2.4904092550277714 39.500000000000007 2.5000000000000004 1.9458477497100832 2.9422447681427006 19.500000000000004 3.2183351516723637
decision_type=2 2 2 2 2 2 2 2 2 2 2 2
left_child=4 6 -3 -4 -1 -6 10 9 -8 -7 -2 -9
right_child=1 2 3 -5 5 7 8 11 -10 -11 -12 -13
leaf_value=-0.049261072799278077 -0.047921151245442106 -0.016185507508121838 0.1634743472848163 0.080121545956394535 -0.048515803650304917 -0.048081336712873596 -0.048067122370720333 -0.047716904754925425 -0.048399519875499397 -0.047824743954862782 -0.047735759567003905 -0.047517194858883234
leaf_weight=1.1916588023304946 0.99662259966135058 1.4943728744983671 2.0369900912046432 2.9531553238630295 1.2119000032544134 1.2128578945994379 0.93140312284231219 0.95492666214704491 1.1879415139555929 1.5089523643255232 1.3958639875054357 0.83356843888759613
leaf_count=11 11 13 10 16 12 13 10 11 12 17 16 10
internal_value=-0.000245254 0.0298974 0.0841111 0.114146 -0.0481865 -0.0479627 -0.0480199 -0.0478141 -0.0482534 -0.0479391 -0.047813 -0.0476238
internal_weight=17.9102 10.9963 6.48452 4.99015 6.91386 5.72221 4.51183 4.51031 2.11934 2.72181 2.39249 1.7885
internal_count=162 88 39 26 74 63 49 51 22 30 27 21
is_linear=0
shrinkage=0.05


Tree=47
num_leaves=13
num_cat=0
split_feature=10 17 17 12 0 10 0 0 6 0 16 17
split_gain=14.3343 10.5622 5.46796 9.97842 0.66708 0.000107625 6.78463e-05 5.97838e-05 3.50022e-05 2.8267e-05 2.26684e-05 5.12269e-06
threshold=1.5000000000000002 2.5877959728240971 2.7094663381576543 1.5000000000000002 17.500000000000004 2.5000000000000004 67.500000000000014 94.500000000000014 1.0000000180025095e-35 39.500000000000007 2.6797018051147465 1.9458477497100832
decision_type=2 2 2 2 2 2 2 2 2 2 2 2
left_child=4 5 -3 -4 -1 -2 9 10 -9 -6 -8 -11
right_child=1 2 3 -5 6 -7 7 8 -10 11 -12 -13
leaf_value=-0.0087370164520636281 -0.047803909745541079 0.14992970398877467 0.10711476649952201 -0.050721605496251904 -0.047940210433727586 -0.048513664897354335 -0.047480730843406108 -0.047810673955194588 -0.048180109050801341 -0.048160099837709004 -0.047808159083549809 -0.048316231861972446
leaf_weight=1.2504717707633997 0.96920487284660173 1.9347807392477987 2.7055563405156136 1.5897291973233221 1.3628071844577774 1.189795233309269 1.1553545296192171 1.3294520303606987 1.2383723631501198 1.1367888674139979 0.97442277520894993 0.97675605863332737
leaf_count=12 11 11 14 12 15 12 14 15 13 12 11 10
internal_value=-0.000430552 0.0471089 0.080136 0.0486979 -0.0427473 -0.048195 -0.0479503 -0.0478264 -0.0479888 -0.0481178 -0.0476305 -0.0482323
internal_weight=17.8135 8.38907 6.23007 4.29529 9.42443 2.159 8.17395 4.6976 2.56782 3.47635 2.12978 2.11354
internal_count=162 60 37 26 102 23 90 53 28 37 25 22
is_linear=0
shrinkage=0.05


Tree=48
num_leaves=13
num_cat=0
split_feature=18 5 0 7 9 13 17 18 16 16 17 13
split_gain=7.64689 4.95234 4.1542 2.02886 3.47728 1.84914 1.72998 0.452213 0.384747 0.000273589 9.77789e-05 8.77151e-05
threshold=2.2745763063430791 2.5000000000000004 113.00000000000001 1.0000000180025095e-35 5.0000000000000009 1.5000000000000002 1.7205169796943667 2.098969697952271 2.832749724388123 2.7909940481185918 1.9458477497100832 1.5000000000000002
decision_type=2 2 2 2 2 2 2 2 2 2 2 2
left_child=2 3 7 4 6 -4 -2 9 -7 10 -1 -11
right_child=1 -3 5 -5 -6 8 -8 -9 -10 11 -12 -13
leaf_value=-0.050165165163896366 0.029889720609136857 -0.033575398357936957 0.050242502919733367 0.083269331117403422 -0.016914817907211981 0.0060591419761504006 0.08569540880170097 -0.020848217661033938 -0.026955518655782485 -0.050720823097077129 -0.050642852352231094 -0.051251292294075691
leaf_weight=2.0280138626694697 3.3835659623146039 2.6526914387941352 1.856665402650832 2.3959888368844977 2.5991052091121674 1.6721048653125765 2.3555770963430405 1.5297864973545072 1.8687005639076231 1.3447763696312904 2.2707637324929237 1.8531696200370789
leaf_count=16 16 17 9 10 14 10 10 9 11 10 17 13
internal_value=0.000385123 0.0276 -0.0248731 0.042718 0.0310656 0.00982743 0.0527946 -0.0456226 -0.0113647 -0.050678 -0.0504175 -0.0510282
internal_weight=27.8109 13.3869 14.424 10.7342 8.33825 5.39747 5.73914 9.02651 3.54081 7.49672 4.29878 3.19795
internal_count=162 67 95 50 40 30 26 65 21 56 33 23
is_linear=0
shrinkage=0.05


Tree=49
num_leaves=14
num_cat=0
split_feature=0 0 8 16 12 18 9 19 0 10 18 0 13
split_gain=4.61113 4.46098 5.93242 5.61509 2.51655 3.83359 3.48327 1.14675 0.0173977 0.000553338 0.000251994 4.58114e-05 4.69363e-05
threshold=39.500000000000007 109.50000000000001 1.0000000180025095e-35 2.8852970600128178 1.5000000000000002 3.657746553421021 1.0000000180025095e-35 1.5000000000000002 56.500000000000007 1.5000000000000002 2.098969697952271 83.500000000000014 1.5000000000000002
decision_type=2 2 2 2 2 2 2 2 2 2 2 2 2
left_child=4 7 -3 -4 6 -6 -1 8 -2 10 11 -9 -13
right_child=1 2 3 -5 5 -7 -8 9 -10 -11 -12 12 -14
leaf_value=0.010864401419288509 -0.012681682216380439 -0.049043567763993094 0.11038957356955477 -0.016866795764272881 0.051764154607858416 -0.054042346107073563 0.11264862155703728 -0.048330658298269207 -0.0042112303442233198 -0.049812694640476184 -0.049492917449875537 -0.04847818521578437 -0.048942797108279271
leaf_weight=1.5838215500116377 1.3381401225924476 2.0342686846852294 2.101561233401299 1.4754000604152677 1.9042825922369959 1.5552957057952879 1.7911309897899625 1.0726142302155497 1.1082736626267431 2.0491056144237518 1.0377057343721388 1.0048436000943184 1.184194028377533
leaf_count=11 11 19 11 11 12 9 10 11 10 17 9 10 11
internal_value=0.000341624 -0.0157045 0.019129 0.0578998 0.0341644 0.00419755 0.0648826 -0.0379287 -0.0088444 -0.0491365 -0.0488143 -0.0485984 -0.0487295
internal_weight=21.2406 14.4061 5.61123 3.57696 6.83453 3.45958 3.37495 8.79488 2.44641 6.34846 4.29936 3.26165 2.18904
internal_count=162 120 41 22 42 21 21 79 21 58 41 32 21
is_linear=0
shrinkage=0.05


Tree=50
num_leaves=12
num_cat=0
split_feature=2 18 0 7 11 18 3 18 16 18 9
split_gain=4.47176 1.67284 2.97989 2.34604 3.08858 1.84329 2.93374 1.46858 0.000120992 8.01651e-05 3.32778e-05
threshold=22.500000000000004 1.9264482855796816 17.500000000000004 1.0000000180025095e-35 1.0000000180025095e-35 0.84928971529006969 1.0000000180025095e-35 2.8163880109786992 2.6797018051147465 3.657746553421021 1.0000000180025095e-35
decision_type=2 2 2 2 2 2 2 2 2 2 2
left_child=1 5 9 4 -4 6 -1 -6 10 -3 -7
right_child=-2 2 3 -5 7 8 -8 -9 -10 -11 -12
leaf_value=0.037647020662421371 0.071868481204700962 -0.04855075444642102 0.096408036320164703 -0.023750997433040346 -0.020045578708766609 -0.047590042183541403 -0.048151388345719248 0.048033753921704454 -0.048319542613500577 -0.047900003437849586 -0.047973937262866917
leaf_weight=2.2454914674162918 1.9498812556266774 0.99670566618442336 1.6656698435544965 1.9449281617999075 1.6650165468454363 1.1817592829465866 1.7910025268793104 1.5110529437661169 1.8381551653146742 0.90113057196140289 1.0807747468352318
leaf_count=16 10 10 10 17 14 14 19 11 19 10 12
internal_value=0.000189879 -0.00811873 0.0071438 0.0226319 0.0412639 -0.0244078 -0.000421949 0.012344 -0.0480182 -0.0482418 -0.0477734
internal_weight=18.7716 16.8217 8.6845 6.78667 4.84174 8.13718 4.03649 3.17607 4.10069 1.89784 2.26253
internal_count=162 152 72 52 35 80 35 25 45 20 26
is_linear=0
shrinkage=0.05


Tree=51
num_leaves=13
num_cat=0
split_feature=1 15 6 18 16 18 15 3 18 5 15 16
split_gain=4.84647 8.40268 5.13491 4.92697 1.84952 2.94764 0.000266431 0.000129262 9.19371e-05 2.88198e-05 3.23734e-05 1.53492e-05
threshold=5043.5000000000009 1.882646977901459 1.0000000180025095e-35 3.3002053499221806 2.8057963848114018 0.80274459719657909 0.84794270992279064 1.0000000180025095e-35 1.7652287483215334 2.5000000000000004 1.6003455519676211 2.6461011171340947
decision_type=2 2 2 2 2 2 2 2 2 2 2 2
left_child=6 2 -2 4 7 -6 -1 8 -3 10 -8 -9
right_child=1 3 -4 -5 5 -7 9 11 -10 -11 -12 -13
leaf_value=-0.04868093152391572 0.026885626102632395 -0.047895561541034852 0.13219470239816986 0.084026044242005937 0.052022818314750099 -0.049738837077696121 -0.047446187350569935 -0.047511848345227349 -0.048513872520548972 -0.048021051377661599 -0.047839845069927278 -0.047767940069594679
leaf_weight=1.1035284698009515 3.1010669395327559 1.5258463472127899 1.8469923287630079 1.0961789414286611 1.4707676842808726 1.3786771968007085 0.90116365253925401 1.3257565945386889 0.99208905547857273 0.83198320865631092 1.2421405166387556 1.0473399162292478
leaf_count=11 19 17 10 8 13 12 11 16 10 9 14 12
internal_value=-0.000139943 0.0140267 0.066195 -0.0151848 -0.0292346 0.0027864 -0.0480174 -0.0478896 -0.0481392 -0.0477713 -0.0476743 -0.0476249
internal_weight=17.8635 13.7847 4.94806 8.83666 7.74048 2.84944 4.07882 4.89103 2.51794 2.97529 2.1433 2.3731
internal_count=162 117 29 88 80 25 45 55 27 34 25 28
is_linear=0
shrinkage=0.05


Tree=52
num_leaves=13
num_cat=0
split_feature=17 5 7 4 0 0 0 18 0 10 15 6
split_gain=6.02779 4.96991 3.67121 2.01947 1.77069 0.844829 0.673677 0.000183789 0.000132158 6.66375e-05 4.21129e-05 3.03566e-05
threshold=1.9458477497100832 2.5000000000000004 1.0000000180025095e-35 1.0000000180025095e-35 136.50000000000003 11.500000000000002 63.500000000000007 1.1817220449447634 26.500000000000004 1.5000000000000002 2.214196085929871 1.0000000180025095e-35
decision_type=2 2 2 2 2 2 2 2 2 2 2 2
left_child=1 2 6 -2 5 -5 8 9 -1 11 -9 -7
right_child=3 -3 -4 4 -6 7 -8 10 -10 -11 -12 -13
leaf_value=-0.047703678251605486 0.038964882918247665 0.097262347740199748 0.054015241103970893 0.0013538624782954583 0.018371990919985339 -0.047580134103824584 0.0035507360771521775 -0.048261978300523291 -0.048547995065787414 -0.047319966668665205 -0.04790019125947529 -0.047960569683977286
leaf_weight=0.86320516467094721 1.1225018128752715 2.2206549197435379 2.3448896259069443 1.0015799924731217 1.4660388603806493 1.0963575020432472 0.95142393559217442 1.8309395313262942 1.0008474066853521 1.4337624460458758 1.4345932453870771 1.0050539150834084
leaf_count=10 9 10 15 10 12 13 9 19 10 18 16 11
internal_value=0.000168227 0.0347184 0.00780387 -0.0243741 -0.0320452 -0.0415185 -0.0306836 -0.0478326 -0.048157 -0.0475828 -0.048103 -0.0477621
internal_weight=17.7718 7.38102 5.16037 10.3908 9.26833 7.80229 2.81548 6.80071 1.86405 3.53517 3.26553 2.10141
internal_count=162 54 44 108 99 87 29 77 20 42 35 24
is_linear=0
shrinkage=0.05


Tree=53
num_leaves=13
num_cat=0
split_feature=18 0 15 15 13 18 10 16 12 0 10 6
split_gain=11.3193 8.87307 4.3082 2.32711 1.15961 6.18943e-05 4.92797e-05 2.72464e-05 2.39074e-05 1.51074e-05 1.34299e-05 3.487e-06
threshold=1.7940607666969302 109.50000000000001 2.5167064666748051 1.9699486494064333 1.5000000000000002 2.4540537595748906 1.5000000000000002 3.3750400543212895 1.5000000000000002 80.500000000000014 1.5000000000000002 1.0000000180025095e-35
decision_type=2 2 2 2 2 2 2 2 2 2 2 2
left_child=1 2 3 -1 -5 8 -3 9 -2 10 -7 -9
right_child=5 6 -4 4 -6 7 -8 11 -10 -11 -12 -13
leaf_value=-0.016630690758535089 -0.048147264463435681 -0.047885773484772243 0.11353839211817059 0.027845897033066221 0.084892474654271854 -0.047925155373432636 -0.047433515787940889 -0.047562097382504331 -0.047794061588395442 -0.047579074986534797 -0.047665287947247795 -0.047439564151019464
leaf_weight=1.5749373883008972 0.94553522020578273 0.98793681710958492 2.5444444268941879 1.782647579908371 1.7806625962257385 1.1790485903620727 1.5432051569223404 1.4237489849328997 0.97119729220867157 1.0096617266535757 0.85968412458896626 0.98043134808540333
leaf_count=16 10 11 11 10 10 13 19 17 11 12 10 12
internal_value=-0.000494549 0.0335815 0.060331 0.0339828 0.0563533 -0.0477239 -0.04761 -0.047638 -0.0479683 -0.0477372 -0.0478156 -0.0475121
internal_weight=17.5831 10.2138 7.68269 5.13825 3.56331 7.36931 2.53114 5.45257 1.91673 3.04839 2.03873 2.40418
internal_count=162 77 47 36 20 85 30 64 21 35 23 29
is_linear=0
shrinkage=0.05


Tree=54
num_leaves=13
num_cat=0
split_feature=3 0 5 15 18 16 0 10 19 16 15 16
split_gain=9.5497 16.2026 2.79377 2.67631 0.000562817 0.000168286 9.64206e-05 4.55973e-05 1.79732e-05 1.52046e-05 6.42751e-06 3.45986e-08
threshold=1.0000000180025095e-35 69.500000000000014 2.5000000000000004 2.3190262317657475 0.70828497409820568 2.4904092550277714 39.500000000000007 2.5000000000000004 1.5000000000000002 2.9422447681427006 1.0260719060897829 2.9278897047042851
decision_type=2 2 2 2 2 2 2 2 2 2 2 2
left_child=4 6 3 -3 -1 -6 10 9 -8 -7 -2 -9
right_child=1 2 -4 -5 5 7 8 11 -10 -11 -12 -13
leaf_value=-0.048957808981748306 -0.047468237647186218 0.002724533548742449 0.11293061567221448 0.086097275657286518 -0.048268193615518921 -0.047855678560761145 -0.048184885717722684 -0.0473801803286788 -0.047885866375314744 -0.047612497784484425 -0.047643088730770826 -0.047394484622488436
leaf_weight=1.134303122758866 0.82404917478561435 1.7633078396320345 2.9265238493680954 2.1196420416235924 1.1598286554217336 1.1602432057261469 1.141223266720772 0.80583703517913796 0.89794068038463581 1.4411753118038175 1.4511535093188284 0.88919287919998169
leaf_count=11 10 11 15 13 12 13 12 10 10 17 17 11
internal_value=-0.000250067 0.0280076 0.0760402 0.0482364 -0.0479444 -0.0477337 -0.0478035 -0.0475895 -0.0480532 -0.047721 -0.0475798 -0.0473877
internal_weight=17.7144 11.1238 6.80947 3.88295 6.59058 5.45628 4.31437 4.29645 2.03916 2.60142 2.2752 1.69503
internal_count=162 88 39 24 74 63 49 51 22 30 27 21
is_linear=0
shrinkage=0.05


Tree=55
num_leaves=13
num_cat=0
split_feature=10 17 17 0 16 0 10 3 14 0 16 18
split_gain=12.99 9.11045 4.13623 3.84693 1.07703 0.000123046 8.95095e-05 6.19761e-05 3.85775e-05 4.16196e-05 1.97748e-05 1.71718e-05
threshold=1.5000000000000002 2.5877959728240971 2.7094663381576543 135.50000000000003 3.9900543689727788 67.500000000000014 2.5000000000000004 1.0000000180025095e-35 1.0000000180025095e-35 42.500000000000007 2.7775532007217412 0.94778442382812511
decision_type=2 2 2 2 2 2 2 2 2 2 2 2
left_child=4 6 -3 -4 5 8 -2 11 9 -1 -9 -7
right_child=1 2 3 -5 -6 7 -8 10 -10 -11 -12 -13
leaf_value=-0.047612714174104065 -0.047593241334144998 0.13013476983887448 -0.0039892427597636023 0.089724206200242185 0.012315998852676846 -0.047963097156193575 -0.048255554300328241 -0.047299929485118117 -0.048228135966313923 -0.048029949665072444 -0.047585888835143732 -0.047670827973754659
leaf_weight=0.93320238590240512 0.92574496567249132 2.1129671707749367 2.0952833741903305 2.294084258377552 0.82009932398796159 0.91317091137170825 1.1362798735499382 1.3449738994240763 1.1470073461532595 1.6624284535646436 1.0982113033533094 1.1176633685827253
leaf_count=11 11 11 15 11 8 10 12 17 12 18 13 13
internal_value=-0.000505396 0.0436175 0.072658 0.0449897 -0.0423217 -0.0477751 -0.0479582 -0.0475981 -0.0479867 -0.0478799 -0.0474285 -0.0478022
internal_weight=17.6011 8.56436 6.50233 4.38937 9.03676 8.21666 2.06202 4.47402 3.74264 2.59563 2.44319 2.03083
internal_count=162 60 37 26 102 94 23 53 41 29 30 23
is_linear=0
shrinkage=0.05


Tree=56
num_leaves=12
num_cat=0
split_feature=18 5 0 16 0 16 6 16 0 17 0
split_gain=6.91374 4.4086 3.93793 1.783 4.21708 3.38823 1.64998 0.439739 0.000822014 0.00022532 6.41863e-05
threshold=2.2745763063430791 2.5000000000000004 113.00000000000001 2.6461011171340947 36.500000000000007 3.87404477596283 1.0000000180025095e-35 2.9716937541961674 69.500000000000014 1.9458477497100832 103.50000000000001
decision_type=2 2 2 2 2 2 2 2 2 2 2
left_child=2 3 7 -2 5 -5 -4 8 -1 -10 -11
right_child=1 -3 6 4 -6 -7 -8 -9 9 10 -12
leaf_value=-0.051327970151745797 -0.0040573505575289114 -0.032773022044363567 0.037739926114001024 -0.003944357062878971 0.10577000644778334 0.068001195813578663 -0.017479773502873601 -0.021231134476989946 -0.049579136411542442 -0.050102929413536793 -0.050523018669833386
leaf_weight=1.6965891942381874 1.9077468514442433 2.5831815749406806 2.6295388936996451 3.62850473821163 2.4097336828708649 2.9807965308427811 2.7861617058515549 1.5852620750665662 1.6498763412237165 2.144162349402905 1.5788192525506017
leaf_count=12 10 17 13 17 11 12 17 10 14 17 12
internal_value=0.000423013 0.0259708 -0.0241071 0.0398583 0.0491475 0.0285031 0.0093316 -0.0450315 -0.0503685 -0.0500655 -0.0502811
internal_weight=27.5804 13.51 14.0704 10.9268 9.01903 6.6093 5.4157 8.65471 7.06945 5.37286 3.72298
internal_count=162 67 95 50 40 29 30 65 55 43 29
is_linear=0
shrinkage=0.05


Tree=57
num_leaves=13
num_cat=0
split_feature=0 0 17 12 16 18 19 4 0 10 18 18
split_gain=4.13668 4.12799 5.06734 2.1306 1.69559 1.50934 1.12937 0.487573 0.0196276 0.00040798 0.00027999 4.61532e-05
threshold=39.500000000000007 109.50000000000001 3.3954523801803593 1.5000000000000002 3.7838618755340581 3.5664497613906865 1.5000000000000002 1.5000000000000002 56.500000000000007 1.5000000000000002 2.098969697952271 1.0688084959983828
decision_type=2 2 2 2 2 2 2 2 2 2 2 2
left_child=3 6 -3 4 -1 -5 8 -4 -2 10 11 -8
right_child=1 2 7 5 -6 -7 9 -9 -10 -11 -12 -13
leaf_value=0.096363509040128414 -0.012513497997233336 0.063501987544266975 -0.0055542860290470689 0.039365362564644513 0.026742620241258449 -0.026786734268797553 -0.048475701456694803 -0.048696412158877544 -0.0034714703373839011 -0.04942524395736466 -0.049272284610940804 -0.048084909029774026
leaf_weight=1.6423573940992384 1.3326374590396866 2.9314392134547225 1.0991259813308716 1.614420220255852 1.8706505596637724 1.8507408276200292 1.796444818377495 1.6203969419002533 1.0919461622834203 1.94645619392395 1.0033637359738348 1.3039077445864675
leaf_count=9 11 17 8 10 12 11 18 16 10 17 9 14
internal_value=0.000356109 -0.0152028 0.0178978 0.0318517 0.0592909 0.00403356 -0.0372743 -0.03126 -0.00844129 -0.0488291 -0.0485463 -0.0483113
internal_weight=21.1039 14.1257 5.65096 6.97817 3.51301 3.46516 8.47476 2.71952 2.42458 6.05017 4.10372 3.10035
internal_count=162 120 41 42 21 21 79 24 21 58 41 32
is_linear=0
shrinkage=0.05


Tree=58
num_leaves=12
num_cat=0
split_feature=15 14 17 11 17 17 18 17 15 8 0
split_gain=3.20734 4.79299 2.55651 1.62421 0.907656 1.58224 1.34536 0.00178509 0.000676718 0.000216494 1.4332e-05
threshold=3.2690012454986577 1.0000000180025095e-35 1.5474292635917666 1.0000000180025095e-35 2.0940308570861821 2.3952752351760869 0.61364939808845531 2.7094663381576543 0.89357489347457897 1.0000000180025095e-35 80.500000000000014
decision_type=2 2 2 2 2 2 2 2 2 2 2
left_child=2 -2 3 -1 8 -6 -7 9 -4 -8 -10
right_child=1 -3 4 -5 5 6 7 -9 10 -11 -12
leaf_value=0.0580957922578198 0.081903587464538297 -0.023462708814064002 -0.049015914808733393 -0.0058179889523546427 0.021887451977711511 0.0040068918816376399 -0.047566822104016367 -0.050425161027629742 -0.047571518466925491 -0.048634635057733036 -0.047294314797241693
leaf_weight=1.779195755720141 2.5570587217807761 1.8675858750939367 1.0765429511666282 2.2524203136563301 2.0644684359431267 1.8695808276534078 1.0011848434805872 1.3997817188501356 1.0067726895213125 0.90261812508106221 0.86854853481054295
leaf_count=12 16 16 10 19 17 17 12 11 12 9 11
internal_value=0.000252352 0.0374298 -0.0113148 0.0223879 -0.0246497 -0.0151194 -0.0298878 -0.0490697 -0.0480167 -0.0480731 -0.0474431
internal_weight=18.6458 4.42464 14.2211 4.03162 10.1895 7.23763 5.17317 3.30358 2.95186 1.9038 1.87532
internal_count=162 32 130 31 99 66 49 32 33 21 23
is_linear=0
shrinkage=0.05


Tree=59
num_leaves=14
num_cat=0
split_feature=0 15 0 6 18 15 15 15 0 5 15 16 5
split_gain=4.49671 7.13212 4.77771 4.19464 1.00798 0.817542 0.000429463 0.000175016 7.03814e-05 3.30382e-05 3.36161e-05 2.63899e-05 2.62664e-05
threshold=42.500000000000007 1.882646977901459 129.50000000000003 1.0000000180025095e-35 1.0992609858512881 2.1874866485595708 3.2690012454986577 0.84794270992279064 106.50000000000001 2.5000000000000004 1.6003455519676211 2.7909940481185918 2.5000000000000004
decision_type=2 2 2 2 2 2 2 2 2 2 2 2 2
left_child=7 3 5 -2 -4 -3 8 -1 12 10 -9 -10 -7
right_child=1 2 4 -5 -6 6 -8 9 11 -11 -12 -13 -14
leaf_value=-0.048323217288440544 0.024056857122014146 0.0019477882751142131 0.01408577273490387 0.11657258017057662 0.075763785935165848 -0.047589145992494836 -0.048886674844517933 -0.047218120489339627 -0.047653577382785028 -0.047836451586807494 -0.04762956382565138 -0.048023691679760359 -0.047233413691314168
leaf_weight=1.0372336655855208 3.193769820034503 0.98763380199670603 1.5461184307932856 1.9877164065837858 1.1589624211192129 1.3240019902586939 0.83793982863426197 0.85299344360828477 0.85217940807342518 0.8013625219464301 1.1876512244343755 1.1075954139232633 0.85337375849485386
leaf_count=11 19 10 13 10 8 16 8 11 10 9 14 12 11
internal_value=-0.00018763 0.0131396 -0.0146024 0.0595476 0.040511 -0.0396055 -0.0478544 -0.0477673 -0.0476454 -0.0475644 -0.0474576 -0.0478628 -0.0474497
internal_weight=17.7285 13.8493 8.66781 5.18149 2.70508 5.96272 4.97509 3.87924 4.13715 2.84201 2.04064 1.95977 2.17738
internal_count=162 117 88 29 21 67 57 45 49 34 25 22 27
is_linear=0
shrinkage=0.05


Tree=60
num_leaves=12
num_cat=0
split_feature=15 0 18 11 0 13 17 12 2 15 6
split_gain=5.51156 3.88643 11.5341 3.32609 2.00697 1.33886 0.628377 0.00140107 0.000492479 0.000329108 3.83778e-05
threshold=2.3190262317657475 51.500000000000007 1.363626301288605 1.0000000180025095e-35 136.50000000000003 1.5000000000000002 2.2243175506591801 1.5000000000000002 18.500000000000004 3.0390372276306157 1.0000000180025095e-35
decision_type=2 2 2 2 2 2 2 2 2 2 2
left_child=1 3 6 5 8 -1 -3 -5 10 -10 -2
right_child=4 2 -4 7 -6 -7 -8 -9 9 -11 -12
leaf_value=-0.0056968153872080391 -0.047215024957553697 -0.051943957227940624 0.11420881877584328 -0.047852333925740287 0.01757856217528201 0.06925306338354395 -0.00092962965067750587 -0.050205271124645928 -0.048872159739301139 -0.047857981792891122 -0.047624052493706215
leaf_weight=1.1498822793364543 1.3177356719970694 1.3986823931336405 3.1838869526982307 1.4208129867911339 1.4813102856278417 1.2366451770067215 1.0619475692510603 1.1405420005321503 1.5479032769799235 1.6554103270173071 1.0153579860925674
leaf_count=11 17 11 17 16 12 10 12 10 15 19 12
internal_value=0.000251047 0.0230191 0.0513751 -0.00932917 -0.0341147 0.0331405 -0.0299274 -0.0489001 -0.0479456 -0.0483481 -0.047393
internal_weight=17.6101 10.5924 5.64452 4.94788 7.01772 2.38653 2.46063 2.56135 5.53641 3.20331 2.33309
internal_count=162 87 40 47 75 21 23 26 63 34 29
is_linear=0
shrinkage=0.05


Tree=61
num_leaves=12
num_cat=0
split_feature=16 0 0 8 11 0 16 0 16 15 17
split_gain=8.94901 6.53908 9.84218 5.08132 0.523274 0.198426 0.705168 0.00011805 6.07441e-05 1.50516e-05 8.30396e-06
threshold=2.7979040145874028 86.500000000000014 97.500000000000014 1.0000000180025095e-35 1.0000000180025095e-35 69.500000000000014 2.9422447681427006 39.500000000000007 2.5334283113479619 0.89357489347457897 2.2243175506591801
decision_type=2 2 2 2 2 2 2 2 2 2 2
left_child=1 4 -3 -4 -1 7 -7 9 -6 -2 -11
right_child=5 2 3 -5 8 6 -8 -9 -10 10 -12
leaf_value=-0.0030331602881340284 -0.047162929627235839 0.13784789038547191 -0.049954352379814201 0.05830969889013804 -0.047570131579893704 -0.049394279489189563 0.0032577460237600319 -0.047870108105655514 -0.048142005163835322 -0.047322883320836243 -0.047511632464948758
leaf_weight=0.99457354098558615 0.84192965179681722 2.452425628900528 1.8598614335060117 2.5973511338233948 0.84008450061082851 1.7937062084674837 0.9852011203765868 1.6044850870966909 1.0382060036063192 1.271965876221657 1.0753559619188306
leaf_count=8 11 10 18 17 10 18 12 18 11 16 13
internal_value=-0.000550022 0.0310394 0.0573987 0.0131343 -0.0323583 -0.041358 -0.0307276 -0.0475203 -0.0478862 -0.0473443 -0.0474094
internal_weight=17.3551 9.7825 6.90964 4.45721 2.87286 7.57264 2.77891 4.79374 1.87829 3.18925 2.34732
internal_count=162 74 45 35 29 88 30 58 21 40 29
is_linear=0
shrinkage=0.05


Tree=62
num_leaves=13
num_cat=0
split_feature=0 0 17 13 18 16 0 18 5 10 2 12
split_gain=8.58749 11.8978 7.69845 3.21692 0.00167655 0.000289114 0.000122935 6.08873e-05 4.19573e-05 3.8966e-05 1.25537e-05 8.51539e-06
threshold=69.500000000000014 109.50000000000001 2.1764981746673588 1.5000000000000002 0.70828497409820568 2.4904092550277714 39.500000000000007 2.098969697952271 2.5000000000000004 2.5000000000000004 20.500000000000004 1.5000000000000002
decision_type=2 2 2 2 2 2 2 2 2 2 2 2
left_child=6 2 -2 -4 -3 -6 8 -8 10 -7 -1 -9
right_child=1 4 3 -5 5 9 7 11 -10 -11 -12 -13
leaf_value=-0.047166214798596257 -0.023867775899448228 -0.05009104645766406 0.12674132953295755 0.051401716230851047 -0.048367160297442514 -0.047533561327370216 -0.047480245287956815 -0.048075493396626166 -0.047672482822829342 -0.047058459921516693 -0.047390963258704968 -0.047864396584575516
leaf_weight=1.3788890019059215 1.9757542610168437 0.97861721366643939 2.9635008573532104 2.714906819164753 0.96707215905189547 0.83345855772495248 0.90708605200052295 1.0271893814206121 0.85816914588212956 0.89502175897359848 1.1309045329689977 0.89308860152959813
leaf_count=18 19 9 14 14 10 10 11 11 10 12 14 10
internal_value=-0.000244194 0.0256403 0.0611422 0.0907207 -0.0483184 -0.0476749 -0.0475748 -0.0478178 -0.0473707 -0.0472875 -0.0472675 -0.0479773
internal_weight=17.5237 11.3283 7.65416 5.67841 3.67417 2.69555 6.19533 2.82736 3.36796 1.72848 2.50979 1.92028
internal_count=162 88 47 28 41 32 74 32 42 22 32 21
is_linear=0
shrinkage=0.05


Tree=63
num_leaves=13
num_cat=0
split_feature=3 10 8 18 18 18 0 0 0 17 17 15
split_gain=11.8278 8.29807 2.92253 2.62336 0.77174 0.000299858 0.000342984 9.05011e-05 8.23428e-05 2.48619e-05 1.69344e-05 1.67874e-05
threshold=1.0000000180025095e-35 1.5000000000000002 1.0000000180025095e-35 1.0992609858512881 2.8163880109786992 0.70828497409820568 17.500000000000004 69.500000000000014 29.500000000000004 1.7205169796943667 1.9458477497100832 1.9207001328468325
decision_type=2 2 2 2 2 2 2 2 2 2 2 2
left_child=1 4 3 -3 11 -2 -7 8 -8 -10 -9 -1
right_child=5 2 -4 -5 -6 6 7 10 9 -11 -12 -13
leaf_value=-0.047473569465375932 -0.048443774377178145 0.13220054324186545 0.018041947365704213 0.056067900779622232 0.0070784800847229551 -0.048535864455960864 -0.047206166913283498 -0.047010109960321456 -0.047594892479628337 -0.047910726889153911 -0.047319794659810406 -0.047758183629516851
leaf_weight=0.82200609892606991 1.40358306467533 1.998412102460861 2.1101866662502289 2.6083685010671616 0.90675110369920719 0.8989707976579665 0.85065539181232486 0.73283048719167698 1.0955465063452723 1.4448767080903051 1.1101928129792211 1.4013370275497434
leaf_count=10 15 8 14 16 10 9 11 10 13 16 14 16
internal_value=-0.000641812 0.0354398 0.0667725 0.0890941 -0.0317979 -0.0477845 -0.0476336 -0.0474787 -0.047632 -0.0477745 -0.0471967 -0.047653
internal_weight=17.3837 9.84706 6.71697 4.60678 3.13009 7.53666 6.13307 5.2341 3.39108 2.54042 1.84302 2.22334
internal_count=162 74 38 24 36 88 73 64 40 29 24 26
is_linear=0
shrinkage=0.05


Tree=64
num_leaves=14
num_cat=0
split_feature=0 18 0 5 18 13 17 18 0 2 18 3 14
split_gain=6.19213 4.09561 3.7751 2.98839 3.09347 1.48424 1.02264 0.435217 0.39759 0.000190193 0.000141651 0.000144726 1.15167e-05
threshold=3.5000000000000004 2.2745763063430791 113.00000000000001 2.5000000000000004 3.3338748216629033 1.5000000000000002 1.5812206864356997 2.098969697952271 127.50000000000001 20.500000000000004 1.2378565669059756 1.0000000180025095e-35 1.0000000180025095e-35
decision_type=2 2 2 2 2 2 2 2 2 2 2 2 2
left_child=-1 2 7 4 6 -4 -3 9 -7 10 11 -2 -13
right_child=1 3 5 -5 -6 8 -8 -9 -10 -11 -12 12 -14
leaf_value=0.11879967990387207 -0.05024527643006689 0.07843237737622559 0.04430623392722613 -0.032220541409001442 -0.0066866624426504678 0.0080308725466937368 0.035680092452892574 -0.020105894095132717 -0.025950036905188358 -0.04932398547710079 -0.050391869826831914 -0.049699368576130637 -0.049489101652884754
leaf_weight=1.0627295970916772 1.2775632217526456 2.131097272038458 1.9392502903938282 2.5362862944602957 3.8503220528364182 1.5938911437988283 4.0704218000173569 1.5050364732742307 1.8715892136096952 1.4741632416844366 1.4272563382983205 1.3195430487394333 1.2857718095183372
leaf_count=4 10 9 9 17 19 9 18 9 12 13 11 11 11
internal_value=0.000476197 -0.00430825 -0.0232323 0.0162783 0.0285156 0.00927954 0.0503715 -0.0444303 -0.0103211 -0.0498264 -0.0499659 -0.0498094 -0.0495956
internal_weight=27.3449 26.2822 13.6941 12.5881 10.0518 5.40473 6.20152 8.28933 3.46548 6.7843 5.31013 3.88288 2.60531
internal_count=162 158 95 63 46 30 27 65 21 56 43 32 22
is_linear=0
shrinkage=0.05


Tree=65
num_leaves=13
num_cat=0
split_feature=14 10 0 0 18 18 16 18 0 19 18 13
split_gain=3.81593 4.0648 3.52621 4.82046 1.93654 1.67509 4.05387 0.693229 0.00217265 0.000368288 5.6085e-05 1.93523e-05
threshold=1.0000000180025095e-35 2.5000000000000004 109.50000000000001 53.500000000000007 2.8698089122772221 2.5642329454422002 3.4455386400222783 0.70828497409820568 113.00000000000001 1.5000000000000002 1.176614582538605 1.5000000000000002
decision_type=2 2 2 2 2 2 2 2 2 2 2 2
left_child=5 2 3 -2 10 7 -7 -1 9 -9 -3 -11
right_child=1 4 -4 -5 -6 6 -8 8 -10 11 -12 -13
leaf_value=-0.0042381777327775124 0.054903258622307084 -0.049159010697734359 0.093132672368612515 -0.048821766914143833 0.027707826020476264 0.041898614288320507 -0.051573582755022246 -0.049336447295025981 -0.050949762437013928 -0.048012405289407069 -0.04965069672426476 -0.048325873102908055
leaf_weight=1.0579689294099806 3.1902490481734276 1.0668941885232932 2.3326348960399628 1.7261821851134298 1.2481909021735189 2.5991381630301476 2.0948908105492592 1.0174051672220232 1.4018149524927137 1.0110475271940229 1.2707994654774664 0.95974695682525624
leaf_count=9 19 10 13 17 9 17 15 9 12 11 11 10
internal_value=0.000333705 0.020966 0.0425054 0.0184849 -0.0225771 -0.0217082 0.000183054 -0.04057 -0.0493257 -0.0485639 -0.0494263 -0.0481651
internal_weight=20.977 10.835 7.24907 4.91643 3.58588 10.142 4.69403 5.44798 4.39001 2.9882 2.33769 1.97079
internal_count=162 79 49 36 30 83 32 51 42 30 21 21
is_linear=0
shrinkage=0.05


Tree=66
num_leaves=14
num_cat=0
split_feature=2 18 0 14 17 16 8 18 15 16 17 17 0
split_gain=3.46804 1.51524 2.824 2.49169 1.8115 1.74965 3.73154 1.36655 0.926322 0.000290264 0.00010425 0.000136744 7.12301e-05
threshold=22.500000000000004 1.9264482855796816 44.000000000000007 1.0000000180025095e-35 2.7622839212417607 3.5552614927291875 1.0000000180025095e-35 0.84928971529006969 3.0992637872695927 3.3192203044891362 2.1414104700088505 2.5877959728240971 80.500000000000014
decision_type=2 2 2 2 2 2 2 2 2 2 2 2 2
left_child=1 4 5 -4 10 9 -7 8 -6 -3 12 -12 -1
right_child=-2 2 3 -5 7 6 -8 -9 -10 -11 11 -13 -14
leaf_value=-0.047679943963370774 0.060946556745500063 -0.049530621186179555 -0.00051359701220634192 0.079784443073036351 -0.011949098133699909 0.076067938772294993 -0.048909761121184565 -0.047902361806524581 0.04503327647018493 -0.048426598773290509 -0.048299561561603886 -0.047458759496654616 -0.047069143390475715
leaf_weight=1.0214025601744716 2.0946374684572211 1.2215527445077881 1.9723836854100227 1.8936434164643288 1.3344662785530097 1.1568256393074989 1.2347496002912521 1.0615868195891378 1.5320101454854009 1.1613972932100294 1.0542022138833997 0.89336863160133351 0.89605012536048878
leaf_count=12 10 11 15 14 12 8 12 12 10 12 11 11 12
internal_value=0.000355744 -0.00736718 0.00705158 0.0388177 -0.0233539 -0.0186701 0.011543 0.000558355 0.0185056 -0.0489925 -0.0476562 -0.0479139 -0.0473945
internal_weight=18.5283 16.4336 8.64055 3.86603 7.79309 4.77453 2.39158 3.92806 2.86648 2.38295 3.86502 1.94757 1.91745
internal_count=162 152 72 29 80 43 20 34 22 23 46 22 24
is_linear=0
shrinkage=0.05


Tree=67
num_leaves=13
num_cat=0
split_feature=0 12 18 6 5 0 0 7 0 4 14 8
split_gain=4.21992 4.45597 5.69917 4.75406 8.45765 3.22613 0.004732 0.00300854 0.000190669 0.000110475 1.70618e-05 1.18849e-05
threshold=42.500000000000007 1.5000000000000002 2.2487506866455083 1.0000000180025095e-35 1.5000000000000002 106.50000000000001 83.500000000000014 1.0000000180025095e-35 117.50000000000001 1.5000000000000002 1.0000000180025095e-35 1.0000000180025095e-35
decision_type=2 2 2 2 2 2 2 2 2 2 2 2
left_child=9 2 6 4 -3 -5 -2 -6 10 -1 -8 -11
right_child=1 3 -4 5 7 -7 8 -9 -10 11 -12 -13
leaf_value=-0.047893664880496643 -0.051113427642571013 0.10492302549040949 0.075590675594237225 0.11236752765938816 -0.049318048096684108 0.024980187669851005 -0.047371929963757692 -0.052588680605271526 -0.04801090049935635 -0.047209814590023089 -0.04704500569700909 -0.047442584537757855
