{"learner":{"attributes":{"best_iteration":"36","best_score":"0.24790204944046834"},"feature_names":[],"feature_types":[],"gradient_booster":{"model":{"gbtree_model_param":{"num_parallel_tree":"1","num_trees":"87"},"iteration_indptr":[0,1,2,3,4,5,6,7,8,9,10,11,12,13,14,15,16,17,18,19,20,21,22,23,24,25,26,27,28,29,30,31,32,33,34,35,36,37,38,39,40,41,42,43,44,45,46,47,48,49,50,51,52,53,54,55,56,57,58,59,60,61,62,63,64,65,66,67,68,69,70,71,72,73,74,75,76,77,78,79,80,81,82,83,84,85,86,87],"tree_info":[0,0,0,0,0,0,0,0,0,0,0,0,0,0,0,0,0,0,0,0,0,0,0,0,0,0,0,0,0,0,0,0,0,0,0,0,0,0,0,0,0,0,0,0,0,0,0,0,0,0,0,0,0,0,0,0,0,0,0,0,0,0,0,0,0,0,0,0,0,0,0,0,0,0,0,0,0,0,0,0,0,0,0,0,0,0,0],"trees":[{"base_weights":[5.5879354E-9,-8.15973E-1,8.742568E-1,-6.564289E-2,-2.1537354E-2,2.643184E-1,8.1885025E-2,6.6915494E-3,2.6348252E-2],"categories":[],"categories_nodes":[],"categories_segments":[],"categories_sizes":[],"default_left":[0,0,0,0,0,0,0,0,0],"id":0,"left_children":[1,3,5,-1,-1,7,-1,-1,-1],"loss_changes":[2.0687729E1,2.1876335E-1,1.5690517E0,0E0,0E0,4.4816077E-2,0E0,0E0,0E0],"parents":[2147483647,0,0,1,1,2,2,5,5],"right_children":[2,4,6,-1,-1,8,-1,-1,-1],"split_conditions":[5.3E0,4.9E0,7.1E0,-6.564289E-2,-2.1537354E-2,6E0,8.1885025E-2,6.6915494E-3,2.6348252E-2],"split_indices":[0,0,0,0,0,0,0,0,0],"split_type":[0,0,0,0,0,0,0,0,0],"sum_hessian":[2.7E1,1.4E1,1.3E1,1.2E1,2E0,4E0,9E0,2E0,2E0],"tree_param":{"num_deleted":"0","num_feature":"1","num_nodes":"9","size_leaf_vector":"1"}},{"base_weights":[9.908833E-4,-7.6058704E-1,8.168965E-1,-7.809551E-2,-4.2289354E-2,3.169788E-1,7.945565E-2,6.356972E-3,3.0892389E-2],"categories":[],"categories_nodes":[],"categories_segments":[],"categories_sizes":[],"default_left":[0,0,0,0,0,0,0,0,0],"id":1,"left_children":[1,3,5,-1,-1,7,-1,-1,-1],"loss_changes":[1.801984E1,2.4115753E-1,1.361496E0,0E0,0E0,9.734064E-2,0E0,0E0,0E0],"parents":[2147483647,0,0,1,1,2,2,5,5],"right_children":[2,4,6,-1,-1,8,-1,-1,-1],"split_conditions":[5.3E0,2.9E0,7.9E0,-7.809551E-2,-4.2289354E-2,6E0,7.945565E-2,6.356972E-3,3.0892389E-2],"split_indices":[0,0,0,0,0,0,0,0,0],"split_type":[0,0,0,0,0,0,0,0,0],"sum_hessian":[2.7E1,1.4E1,1.3E1,4E0,1E1,5E0,8E0,2E0,3E0],"tree_param":{"num_deleted":"0","num_feature":"1","num_nodes":"9","size_leaf_vector":"1"}},{"base_weights":[7.85131E-4,-7.1156865E-1,7.6396525E-1,-7.340978E-2,-3.9405987E-2,2.9941362E-1,7.41586E-2,6.039123E-3,2.9154692E-2],"categories":[],"categories_nodes":[],"categories_segments":[],"categories_sizes":[],"default_left":[0,0,0,0,0,0,0,0,0],"id":2,"left_children":[1,3,5,-1,-1,7,-1,-1,-1],"loss_changes":[1.5765933E1,2.3191738E-1,1.1660881E0,0E0,0E0,8.6001694E-2,0E0,0E0,0E0],"parents":[2147483647,0,0,1,1,2,2,5,5],"right_children":[2,4,6,-1,-1,8,-1,-1,-1],"split_conditions":[5.3E0,2.9E0,7.9E0,-7.340978E-2,-3.9405987E-2,6E0,7.41586E-2,6.039123E-3,2.9154692E-2],"split_indices":[0,0,0,0,0,0,0,0,0],"split_type":[0,0,0,0,0,0,0,0,0],"sum_hessian":[2.7E1,1.4E1,1.3E1,4E0,1E1,5E0,8E0,2E0,3E0],"tree_param":{"num_deleted":"0","num_feature":"1","num_nodes":"9","size_leaf_vector":"1"}},{"base_weights":[6.025623E-4,-6.657221E-1,7.144788E-1,-6.900519E-2,-3.6719218E-2,3.2884037E-1,7.2195195E-2,5.737167E-3,3.108594E-2],"categories":[],"categories_nodes":[],"categories_segments":[],"categories_sizes":[],"default_left":[0,0,0,0,0,0,0,0,0],"id":3,"left_children":[1,3,5,-1,-1,7,-1,-1,-1],"loss_changes":[1.37944975E1,2.2152567E-1,1.0230622E0,0E0,0E0,1.1956781E-1,0E0,0E0,0E0],"parents":[2147483647,0,0,1,1,2,2,5,5],"right_children":[2,4,6,-1,-1,8,-1,-1,-1],"split_conditions":[5.3E0,2.9E0,8.2E0,-6.900519E-2,-3.6719218E-2,6E0,7.2195195E-2,5.737167E-3,3.108594E-2],"split_indices":[0,0,0,0,0,0,0,0,0],"split_type":[0,0,0,0,0,0,0,0,0],"sum_hessian":[2.7E1,1.4E1,1.3E1,4E0,1E1,6E0,7E0,2E0,4E0],"tree_param":{"num_deleted":"0","num_feature":"1","num_nodes":"9","size_leaf_vector":"1"}},{"base_weights":[6.750018E-4,-6.2284124E-1,6.686799E-1,-6.486488E-2,-4.5620847E-1,2.0739597E-1,6.243404E-2,-3.6972526E-2,-1.4539759E-2,5.450309E-3,2.047419E-2],"categories":[],"categories_nodes":[],"categories_segments":[],"categories_sizes":[],"default_left":[0,0,0,0,0,0,0,0,0,0,0],"id":4,"left_children":[1,3,5,-1,7,9,-1,-1,-1,-1,-1],"loss_changes":[1.20788145E1,2.103777E-1,8.850012E-1,0E0,1.0509491E-2,2.4346948E-2,0E0,0E0,0E0,0E0,0E0],"parents":[2147483647,0,0,1,1,2,2,4,4,5,5],"right_children":[2,4,6,-1,8,10,-1,-1,-1,-1,-1],"split_conditions":[5.3E0,2.9E0,7.1E0,-6.486488E-2,4.9E0,6E0,6.243404E-2,-3.6972526E-2,-1.4539759E-2,5.450309E-3,2.047419E-2],"split_indices":[0,0,0,0,0,0,0,0,0,0,0],"split_type":[0,0,0,0,0,0,0,0,0,0,0],"sum_hessian":[2.7E1,1.4E1,1.3E1,4E0,1E1,4E0,9E0,8E0,2E0,2E0,2E0],"tree_param":{"num_deleted":"0","num_feature":"1","num_nodes":"11","size_leaf_vector":"1"}},{"base_weights":[-3.762905E-4,-5.838866E-1,6.248402E-1,-6.097299E-2,-4.2667577E-1,2.841925E-1,6.336015E-2,-3.4507688E-2,-1.3812771E-2,5.1777936E-3,2.6733538E-2],"categories":[],"categories_nodes":[],"categories_segments":[],"categories_sizes":[],"default_left":[0,0,0,0,0,0,0,0,0,0,0],"id":5,"left_children":[1,3,5,-1,7,9,-1,-1,-1,-1,-1],"loss_changes":[1.0579803E1,1.9334793E-1,8.089261E-1,0E0,4.430771E-3,8.4213674E-2,0E0,0E0,0E0,0E0,0E0],"parents":[2147483647,0,0,1,1,2,2,4,4,5,5],"right_children":[2,4,6,-1,8,10,-1,-1,-1,-1,-1],"split_conditions":[5.3E0,2.9E0,8.2E0,-6.097299E-2,4.9E0,6E0,6.336015E-2,-3.4507688E-2,-1.3812771E-2,5.1777936E-3,2.6733538E-2],"split_indices":[0,0,0,0,0,0,0,0,0,0,0],"split_type":[0,0,0,0,0,0,0,0,0,0,0],"sum_hessian":[2.7E1,1.4E1,1.3E1,4E0,1E1,6E0,7E0,8E0,2E0,2E0,4E0],"tree_param":{"num_deleted":"0","num_feature":"1","num_nodes":"11","size_leaf_vector":"1"}},{"base_weights":[-8.48858E-4,-5.4738134E-1,5.847823E-1,-5.731461E-2,-2.9930087E-2,2.6743683E-1,5.9202135E-2,4.918904E-3,2.5129525E-2],"categories":[],"categories_nodes":[],"categories_segments":[],"categories_sizes":[],"default_left":[0,0,0,0,0,0,0,0,0],"id":6,"left_children":[1,3,5,-1,-1,7,-1,-1,-1],"loss_changes":[9.28196E0,1.7737961E-1,6.9780827E-1,0E0,0E0,7.3574245E-2,0E0,0E0,0E0],"parents":[2147483647,0,0,1,1,2,2,5,5],"right_children":[2,4,6,-1,-1,8,-1,-1,-1],"split_conditions":[5.3E0,2.9E0,8.2E0,-5.731461E-2,-2.9930087E-2,6E0,5.9202135E-2,4.918904E-3,2.5129525E-2],"split_indices":[0,0,0,0,0,0,0,0,0],"split_type":[0,0,0,0,0,0,0,0,0],"sum_hessian":[2.7E1,1.4E1,1.3E1,4E0,1E1,6E0,7E0,2E0,4E0],"tree_param":{"num_deleted":"0","num_feature":"1","num_nodes":"9","size_leaf_vector":"1"}},{"base_weights":[-7.135416E-4,-5.12144E-1,5.4729867E-1,-5.387573E-2,-3.7185866E-1,2.516717E-1,5.5316996E-2,-3.0211836E-2,-1.1625627E-2,4.6729585E-3,2.3621753E-2],"categories":[],"categories_nodes":[],"categories_segments":[],"categories_sizes":[],"default_left":[0,0,0,0,0,0,0,0,0,0,0],"id":7,"left_children":[1,3,5,-1,7,9,-1,-1,-1,-1,-1],"loss_changes":[8.12786E0,1.6677833E-1,6.018262E-1,0E0,1.142323E-2,6.426433E-2,0E0,0E0,0E0,0E0,0E0],"parents":[2147483647,0,0,1,1,2,2,4,4,5,5],"right_children":[2,4,6,-1,8,10,-1,-1,-1,-1,-1],"split_conditions":[5.3E0,2.9E0,8.2E0,-5.387573E-2,4.9E0,6E0,5.5316996E-2,-3.0211836E-2,-1.1625627E-2,4.6729585E-3,2.3621753E-2],"split_indices":[0,0,0,0,0,0,0,0,0,0,0],"split_type":[0,0,0,0,0,0,0,0,0,0,0],"sum_hessian":[2.7E1,1.4E1,1.3E1,4E0,1E1,6E0,7E0,8E0,2E0,2E0,4E0],"tree_param":{"num_deleted":"0","num_feature":"1","num_nodes":"11","size_leaf_vector":"1"}},{"base_weights":[-1.0922402E-3,-4.8011413E-1,5.122235E-1,-5.0643187E-2,-3.4777266E-1,2.3683842E-1,5.168682E-2,-2.8197713E-2,-1.1044347E-2,4.4393106E-3,2.220445E-2],"categories":[],"categories_nodes":[],"categories_segments":[],"categories_sizes":[],"default_left":[0,0,0,0,0,0,0,0,0,0,0],"id":8,"left_children":[1,3,5,-1,7,9,-1,-1,-1,-1,-1],"loss_changes":[7.1308317E0,1.5252233E-1,5.189309E-1,0E0,6.8280697E-3,5.6119174E-2,0E0,0E0,0E0,0E0,0E0],"parents":[2147483647,0,0,1,1,2,2,4,4,5,5],"right_children":[2,4,6,-1,8,10,-1,-1,-1,-1,-1],"split_conditions":[5.3E0,2.9E0,8.2E0,-5.0643187E-2,4.9E0,6E0,5.168682E-2,-2.8197713E-2,-1.1044347E-2,4.4393106E-3,2.220445E-2],"split_indices":[0,0,0,0,0,0,0,0,0,0,0],"split_type":[0,0,0,0,0,0,0,0,0,0,0],"sum_hessian":[2.7E1,1.4E1,1.3E1,4E0,1E1,6E0,7E0,8E0,2E0,2E0,4E0],"tree_param":{"num_deleted":"0","num_feature":"1","num_nodes":"11","size_leaf_vector":"1"}},{"base_weights":[-1.4229922E-3,-4.5009792E-1,4.794018E-1,-4.554461E-2,-2.3309253E-2,1.5026689E-1,4.470218E-2,4.217345E-3,1.4566016E-2],"categories":[],"categories_nodes":[],"categories_segments":[],"categories_sizes":[],"default_left":[0,0,0,0,0,0,0,0,0],"id":9,"left_children":[1,3,5,-1,-1,7,-1,-1,-1],"loss_changes":[6.25633E0,1.396811E-1,4.4784188E-1,0E0,0E0,9.741887E-3,0E0,0E0,0E0],"parents":[2147483647,0,0,1,1,2,2,5,5],"right_children":[2,4,6,-1,-1,8,-1,-1,-1],"split_conditions":[5.3E0,3E0,7.1E0,-4.554461E-2,-2.3309253E-2,6E0,4.470218E-2,4.217345E-3,1.4566016E-2],"split_indices":[0,0,0,0,0,0,0,0,0],"split_type":[0,0,0,0,0,0,0,0,0],"sum_hessian":[2.7E1,1.4E1,1.3E1,5E0,9E0,4E0,9E0,2E0,2E0],"tree_param":{"num_deleted":"0","num_feature":"1","num_nodes":"9","size_leaf_vector":"1"}},{"base_weights":[-1.5079854E-3,-4.2093083E-1,4.4798133E-1,-4.487192E-2,-3.0204555E-1,2.0474306E-1,4.5361288E-2,-2.4578622E-2,-9.326667E-3,4.006478E-3,1.9094136E-2],"categories":[],"categories_nodes":[],"categories_segments":[],"categories_sizes":[],"default_left":[0,0,0,0,0,0,0,0,0,0,0],"id":10,"left_children":[1,3,5,-1,7,9,-1,-1,-1,-1,-1],"loss_changes":[5.4672995E0,1.3557339E-1,4.102466E-1,0E0,9.420037E-3,3.9199382E-2,0E0,0E0,0E0,0E0,0E0],"parents":[2147483647,0,0,1,1,2,2,4,4,5,5],"right_children":[2,4,6,-1,8,10,-1,-1,-1,-1,-1],"split_conditions":[5.3E0,2.9E0,8.2E0,-4.487192E-2,4.9E0,6E0,4.5361288E-2,-2.4578622E-2,-9.326667E-3,4.006478E-3,1.9094136E-2],"split_indices":[0,0,0,0,0,0,0,0,0,0,0],"split_type":[0,0,0,0,0,0,0,0,0,0,0],"sum_hessian":[2.7E1,1.4E1,1.3E1,4E0,1E1,6E0,7E0,8E0,2E0,2E0,4E0],"tree_param":{"num_deleted":"0","num_feature":"1","num_nodes":"11","size_leaf_vector":"1"}},{"base_weights":[-1.7632853E-3,-3.9461282E-1,4.1927287E-1,-4.2179603E-2,-2.8247443E-1,1.9268742E-1,4.2384457E-2,-2.2940047E-2,-8.860333E-3,3.806154E-3,1.7948488E-2],"categories":[],"categories_nodes":[],"categories_segments":[],"categories_sizes":[],"default_left":[0,0,0,0,0,0,0,0,0,0,0],"id":11,"left_children":[1,3,5,-1,7,9,-1,-1,-1,-1,-1],"loss_changes":[4.796758E0,1.2335968E-1,3.5378242E-1,0E0,6.1528683E-3,3.4181118E-2,0E0,0E0,0E0,0E0,0E0],"parents":[2147483647,0,0,1,1,2,2,4,4,5,5],"right_children":[2,4,6,-1,8,10,-1,-1,-1,-1,-1],"split_conditions":[5.3E0,2.9E0,8.2E0,-4.2179603E-2,4.9E0,6E0,4.2384457E-2,-2.2940047E-2,-8.860333E-3,3.806154E-3,1.7948488E-2],"split_indices":[0,0,0,0,0,0,0,0,0,0,0],"split_type":[0,0,0,0,0,0,0,0,0,0,0],"sum_hessian":[2.7E1,1.4E1,1.3E1,4E0,1E1,6E0,7E0,8E0,2E0,2E0,4E0],"tree_param":{"num_deleted":"0","num_feature":"1","num_nodes":"11","size_leaf_vector":"1"}},{"base_weights":[-1.9825012E-3,-3.6994886E-1,3.924088E-1,-3.9648827E-2,-2.641798E-1,1.8134367E-1,3.9602973E-2,-2.141071E-2,-8.417317E-3,3.6158462E-3,1.6871579E-2],"categories":[],"categories_nodes":[],"categories_segments":[],"categories_sizes":[],"default_left":[0,0,0,0,0,0,0,0,0,0,0],"id":12,"left_children":[1,3,5,-1,7,9,-1,-1,-1,-1,-1],"loss_changes":[4.208607E0,1.1212802E-1,3.0502057E-1,0E0,3.5563111E-3,2.9796615E-2,0E0,0E0,0E0,0E0,0E0],"parents":[2147483647,0,0,1,1,2,2,4,4,5,5],"right_children":[2,4,6,-1,8,10,-1,-1,-1,-1,-1],"split_conditions":[5.3E0,2.9E0,8.2E0,-3.9648827E-2,4.9E0,6E0,3.9602973E-2,-2.141071E-2,-8.417317E-3,3.6158462E-3,1.6871579E-2],"split_indices":[0,0,0,0,0,0,0,0,0,0,0],"split_type":[0,0,0,0,0,0,0,0,0,0,0],"sum_hessian":[2.7E1,1.4E1,1.3E1,4E0,1E1,6E0,7E0,8E0,2E0,2E0,4E0],"tree_param":{"num_deleted":"0","num_feature":"1","num_nodes":"11","size_leaf_vector":"1"}},{"base_weights":[-2.1690503E-3,-3.4683448E-1,3.672703E-1,-3.7269898E-2,-2.4707796E-1,1.7066967E-1,3.700403E-2,-1.9983329E-2,-7.996452E-3,3.4350539E-3,1.5859285E-2],"categories":[],"categories_nodes":[],"categories_segments":[],"categories_sizes":[],"default_left":[0,0,0,0,0,0,0,0,0,0,0],"id":13,"left_children":[1,3,5,-1,7,9,-1,-1,-1,-1,-1],"loss_changes":[3.6927052E0,1.0181701E-1,2.629186E-1,0E0,1.5138388E-3,2.5966704E-2,0E0,0E0,0E0,0E0,0E0],"parents":[2147483647,0,0,1,1,2,2,4,4,5,5],"right_children":[2,4,6,-1,8,10,-1,-1,-1,-1,-1],"split_conditions":[5.3E0,2.9E0,8.2E0,-3.7269898E-2,4.9E0,6E0,3.700403E-2,-1.9983329E-2,-7.996452E-3,3.4350539E-3,1.5859285E-2],"split_indices":[0,0,0,0,0,0,0,0,0,0,0],"split_type":[0,0,0,0,0,0,0,0,0,0,0],"sum_hessian":[2.7E1,1.4E1,1.3E1,4E0,1E1,6E0,7E0,8E0,2E0,2E0,4E0],"tree_param":{"num_deleted":"0","num_feature":"1","num_nodes":"11","size_leaf_vector":"1"}},{"base_weights":[-2.3260717E-3,-3.251719E-1,3.437463E-1,-3.5033707E-2,-1.7331807E-2,2.1424825E-1,4.0049486E-2,3.263301E-3,1.8862037E-2],"categories":[],"categories_nodes":[],"categories_segments":[],"categories_sizes":[],"default_left":[0,0,0,0,0,0,0,0,0],"id":14,"left_children":[1,3,5,-1,-1,7,-1,-1,-1],"loss_changes":[3.2401614E0,9.236765E-2,2.3050523E-1,0E0,0E0,5.2649498E-2,0E0,0E0,0E0],"parents":[2147483647,0,0,1,1,2,2,5,5],"right_children":[2,4,6,-1,-1,8,-1,-1,-1],"split_conditions":[5.3E0,2.9E0,9.5E0,-3.5033707E-2,-1.7331807E-2,6E0,4.0049486E-2,3.263301E-3,1.8862037E-2],"split_indices":[0,0,0,0,0,0,0,0,0],"split_type":[0,0,0,0,0,0,0,0,0],"sum_hessian":[2.7E1,1.4E1,1.3E1,4E0,1E1,9E0,4E0,2E0,7E0],"tree_param":{"num_deleted":"0","num_feature":"1","num_nodes":"9","size_leaf_vector":"1"}},{"base_weights":[-1.8012801E-3,-3.0427504E-1,3.224064E-1,-3.293168E-2,-2.1533455E-1,1.4891511E-1,3.2543287E-2,-1.7495655E-2,-6.7300387E-3,3.100136E-3,1.3776005E-2],"categories":[],"categories_nodes":[],"categories_segments":[],"categories_sizes":[],"default_left":[0,0,0,0,0,0,0,0,0,0,0],"id":15,"left_children":[1,3,5,-1,7,9,-1,-1,-1,-1,-1],"loss_changes":[2.843901E0,8.530533E-2,2.0621395E-1,0E0,3.8545132E-3,1.8587649E-2,0E0,0E0,0E0,0E0,0E0],"parents":[2147483647,0,0,1,1,2,2,4,4,5,5],"right_children":[2,4,6,-1,8,10,-1,-1,-1,-1,-1],"split_conditions":[5.3E0,2.9E0,8.2E0,-3.293168E-2,4.9E0,6E0,3.2543287E-2,-1.7495655E-2,-6.7300387E-3,3.100136E-3,1.3776005E-2],"split_indices":[0,0,0,0,0,0,0,0,0,0,0],"split_type":[0,0,0,0,0,0,0,0,0,0,0],"sum_hessian":[2.7E1,1.4E1,1.3E1,4E0,1E1,6E0,7E0,8E0,2E0,2E0,4E0],"tree_param":{"num_deleted":"0","num_feature":"1","num_nodes":"11","size_leaf_vector":"1"}},{"base_weights":[-1.9425404E-3,-2.8526488E-1,3.0175588E-1,-2.9554533E-2,-1.9146107E-1,1.8449876E-1,3.569392E-2,-7.559613E-2,-2.109778E-1,2.9451293E-3,1.6192337E-2,-7.2352355E-3,-1.2693298E-3,-1.9121064E-2,-7.745339E-3],"categories":[],"categories_nodes":[],"categories_segments":[],"categories_sizes":[],"default_left":[0,0,0,0,0,0,0,0,0,0,0,0,0,0,0],"id":16,"left_children":[1,3,5,-1,7,9,-1,11,13,-1,-1,-1,-1,-1,-1],"loss_changes":[2.4953277E0,7.7634454E-2,1.980995E-1,0E0,6.6639483E-3,3.7122995E-2,0E0,2.0413902E-3,1.1557907E-2,0E0,0E0,0E0,0E0,0E0,0E0],"parents":[2147483647,0,0,1,1,2,2,4,4,5,5,7,7,8,8],"right_children":[2,4,6,-1,8,10,-1,12,14,-1,-1,-1,-1,-1,-1],"split_conditions":[5.3E0,3E0,9.5E0,-2.9554533E-2,3.7E0,6E0,3.569392E-2,3.2E0,4.5E0,2.9451293E-3,1.6192337E-2,-7.2352355E-3,-1.2693298E-3,-1.9121064E-2,-7.745339E-3],"split_indices":[0,0,0,0,0,0,0,0,0,0,0,0,0,0,0],"split_type":[0,0,0,0,0,0,0,0,0,0,0,0,0,0,0],"sum_hessian":[2.7E1,1.4E1,1.3E1,5E0,9E0,9E0,4E0,2E0,7E0,2E0,7E0,1E0,1E0,4E0,3E0],"tree_param":{"num_deleted":"0","num_feature":"1","num_nodes":"15","size_leaf_vector":"1"}},{"base_weights":[-2.1573529E-3,-2.6819837E-1,2.830407E-1,-2.9182509E-2,-1.8886138E-1,1.725751E-1,3.3552285E-2,-1.5310204E-2,-6.00627E-3,2.7978728E-3,1.5129714E-2],"categories":[],"categories_nodes":[],"categories_segments":[],"categories_sizes":[],"default_left":[0,0,0,0,0,0,0,0,0,0,0],"id":17,"left_children":[1,3,5,-1,7,9,-1,-1,-1,-1,-1],"loss_changes":[2.2003937E0,7.039368E-2,1.769247E-1,0E0,1.9290447E-3,3.19117E-2,0E0,0E0,0E0,0E0,0E0],"parents":[2147483647,0,0,1,1,2,2,4,4,5,5],"right_children":[2,4,6,-1,8,10,-1,-1,-1,-1,-1],"split_conditions":[5.3E0,2.9E0,9.5E0,-2.9182509E-2,4.9E0,6E0,3.3552285E-2,-1.5310204E-2,-6.00627E-3,2.7978728E-3,1.5129714E-2],"split_indices":[0,0,0,0,0,0,0,0,0,0,0],"split_type":[0,0,0,0,0,0,0,0,0,0,0],"sum_hessian":[2.7E1,1.4E1,1.3E1,4E0,1E1,9E0,4E0,8E0,2E0,2E0,7E0],"tree_param":{"num_deleted":"0","num_feature":"1","num_nodes":"11","size_leaf_vector":"1"}},{"base_weights":[-1.9605148E-3,-2.514501E-1,2.654898E-1,-2.7431559E-2,-1.7663464E-1,1.6142474E-1,3.1539146E-2,-1.4816766E-2,-6.7973635E-3,3.543972E-2,1.8849103E-1,3.1915274E-3,7.954413E-4,1.5004581E-2,4.031282E-3],"categories":[],"categories_nodes":[],"categories_segments":[],"categories_sizes":[],"default_left":[0,0,0,0,0,0,0,0,0,0,0,0,0,0,0],"id":18,"left_children":[1,3,5,-1,7,9,-1,-1,-1,11,13,-1,-1,-1,-1],"loss_changes":[1.9350873E0,6.3670754E-2,1.5798527E-1,0E0,1.8882751E-3,2.7419388E-2,0E0,0E0,0E0,7.8682555E-5,1.7182529E-3,0E0,0E0,0E0,0E0],"parents":[2147483647,0,0,1,1,2,2,4,4,5,5,9,9,10,10],"right_children":[2,4,6,-1,8,10,-1,-1,-1,12,14,-1,-1,-1,-1],"split_conditions":[5.3E0,2.9E0,9.5E0,-2.7431559E-2,4.5E0,6E0,3.1539146E-2,-1.4816766E-2,-6.7973635E-3,5.9E0,9E0,3.1915274E-3,7.954413E-4,1.5004581E-2,4.031282E-3],"split_indices":[0,0,0,0,0,0,0,0,0,0,0,0,0,0,0],"split_type":[0,0,0,0,0,0,0,0,0,0,0,0,0,0,0],"sum_hessian":[2.7E1,1.4E1,1.3E1,4E0,1E1,9E0,4E0,7E0,3E0,2E0,7E0,1E0,1E0,6E0,1E0],"tree_param":{"num_deleted":"0","num_feature":"1","num_nodes":"15","size_leaf_vector":"1"}},{"base_weights":[-1.6164668E-3,-2.3586106E-1,2.4947535E-1,-2.5785666E-2,-1.6535196E-1,1.5162018E-1,2.9646797E-2,-1.3844416E-2,-6.415011E-3,3.411073E-2,1.7673369E-1,3.071845E-3,7.656123E-4,1.404E-2,3.8801082E-3],"categories":[],"categories_nodes":[],"categories_segments":[],"categories_sizes":[],"default_left":[0,0,0,0,0,0,0,0,0,0,0,0,0,0,0],"id":19,"left_children":[1,3,5,-1,7,9,-1,-1,-1,11,13,-1,-1,-1,-1],"loss_changes":[1.7057146E0,5.732006E-2,1.3982892E-1,0E0,1.1042058E-3,2.3482233E-2,0E0,0E0,0E0,7.2891824E-5,7.814467E-4,0E0,0E0,0E0,0E0],"parents":[2147483647,0,0,1,1,2,2,4,4,5,5,9,9,10,10],"right_children":[2,4,6,-1,8,10,-1,-1,-1,12,14,-1,-1,-1,-1],"split_conditions":[5.3E0,2.9E0,9.5E0,-2.5785666E-2,4.5E0,6E0,2.9646797E-2,-1.3844416E-2,-6.415011E-3,5.9E0,9E0,3.071845E-3,7.656123E-4,1.404E-2,3.8801082E-3],"split_indices":[0,0,0,0,0,0,0,0,0,0,0,0,0,0,0],"split_type":[0,0,0,0,0,0,0,0,0,0,0,0,0,0,0],"sum_hessian":[2.7E1,1.4E1,1.3E1,4E0,1E1,9E0,4E0,7E0,3E0,2E0,7E0,1E0,1E0,6E0,1E0],"tree_param":{"num_deleted":"0","num_feature":"1","num_nodes":"15","size_leaf_vector":"1"}},{"base_weights":[-1.3038146E-3,-2.2124113E-1,2.3443645E-1,-2.4238525E-2,-1.5479232E-1,8.567847E-2,3.0755994E-1,-1.7247832E-1,-6.0541667E-3,3.2831576E-2,7.792053E-3,1.8203467E-1,2.7867991E-2,-8.936477E-2,-1.5335514E-2,2.956651E-3,7.3690177E-4,1.5198449E-2,3.7346052E-3,-9.221275E-3,4.271977E-4],"categories":[],"categories_nodes":[],"categories_segments":[],"categories_sizes":[],"default_left":[0,0,0,0,0,0,0,0,0,0,0,0,0,0,0,0,0,0,0,0,0],"id":20,"left_children":[1,3,5,-1,7,9,11,13,-1,15,-1,17,-1,19,-1,-1,-1,-1,-1,-1,-1],"loss_changes":[1.5036134E0,5.158025E-2,1.2593651E-1,0E0,4.8720837E-4,2.3648106E-3,4.678309E-3,3.0011386E-3,0E0,6.752764E-5,0E0,3.537491E-3,0E0,1.3470996E-2,0E0,0E0,0E0,0E0,0E0,0E0,0E0],"parents":[2147483647,0,0,1,1,2,2,4,4,5,5,6,6,7,7,9,9,11,11,13,13],"right_children":[2,4,6,-1,8,10,12,14,-1,16,-1,18,-1,20,-1,-1,-1,-1,-1,-1,-1],"split_conditions":[5.3E0,2.9E0,7.9E0,-2.4238525E-2,4.5E0,6E0,9.5E0,3.7E0,-6.0541667E-3,5.9E0,7.792053E-3,9E0,2.7867991E-2,3.2E0,-1.5335514E-2,2.956651E-3,7.3690177E-4,1.5198449E-2,3.7346052E-3,-9.221275E-3,4.271977E-4],"split_indices":[0,0,0,0,0,0,0,0,0,0,0,0,0,0,0,0,0,0,0,0,0],"split_type":[0,0,0,0,0,0,0,0,0,0,0,0,0,0,0,0,0,0,0,0,0],"sum_hessian":[2.7E1,1.4E1,1.3E1,4E0,1E1,5E0,8E0,7E0,3E0,2E0,3E0,4E0,4E0,3E0,4E0,1E0,1E0,3E0,1E0,2E0,1E0],"tree_param":{"num_deleted":"0","num_feature":"1","num_nodes":"21","size_leaf_vector":"1"}},{"base_weights":[-1.0680261E-3,-2.0827621E-1,2.2101703E-1,-2.2784213E-2,-1.4592688E-1,4.6075415E-3,2.787069E-1,-1.1795755E-2,-4.742629E-3,1.7344585E-1,2.619591E-2,1.41723035E-2,3.594558E-3],"categories":[],"categories_nodes":[],"categories_segments":[],"categories_sizes":[],"default_left":[0,0,0,0,0,0,0,0,0,0,0,0,0],"id":21,"left_children":[1,3,5,-1,7,-1,9,-1,-1,11,-1,-1,-1],"loss_changes":[1.334532E0,4.4996798E-2,1.1176658E-1,0E0,3.785342E-4,0E0,1.37037635E-2,0E0,0E0,2.6303232E-3,0E0,0E0,0E0],"parents":[2147483647,0,0,1,1,2,2,4,4,6,6,9,9],"right_children":[2,4,6,-1,8,-1,10,-1,-1,12,-1,-1,-1],"split_conditions":[5.3E0,2.9E0,7.1E0,-2.2784213E-2,4.9E0,4.6075415E-3,9.5E0,-1.1795755E-2,-4.742629E-3,9E0,2.619591E-2,1.41723035E-2,3.594558E-3],"split_indices":[0,0,0,0,0,0,0,0,0,0,0,0,0],"split_type":[0,0,0,0,0,0,0,0,0,0,0,0,0],"sum_hessian":[2.7E1,1.4E1,1.3E1,4E0,1E1,4E0,9E0,8E0,2E0,5E0,4E0,4E0,1E0],"tree_param":{"num_deleted":"0","num_feature":"1","num_nodes":"13","size_leaf_vector":"1"}},{"base_weights":[-6.576428E-4,-1.9527699E-1,2.0791006E-1,-2.0423897E-2,-1.2952434E-1,9.018309E-2,2.136993E-2,-3.2651823E-2,-1.4966099E-1,2.8528698E-2,8.185433E-3,-4.5268494E-3,8.535192E-4,-1.3707638E-2,-5.314601E-3,2.6729936E-3,5.364851E-4],"categories":[],"categories_nodes":[],"categories_segments":[],"categories_sizes":[],"default_left":[0,0,0,0,0,0,0,0,0,0,0,0,0,0,0,0,0],"id":22,"left_children":[1,3,5,-1,7,9,-1,11,13,15,-1,-1,-1,-1,-1,-1,-1],"loss_changes":[1.1771567E0,4.071343E-2,1.0125041E-1,0E0,1.4620185E-2,5.067449E-3,0E0,4.3467693E-3,7.919654E-3,2.0108139E-4,0E0,0E0,0E0,0E0,0E0,0E0,0E0],"parents":[2147483647,0,0,1,1,2,2,4,4,5,5,7,7,8,8,9,9],"right_children":[2,4,6,-1,8,10,-1,12,14,16,-1,-1,-1,-1,-1,-1,-1],"split_conditions":[5.3E0,3E0,8.2E0,-2.0423897E-2,3.7E0,6E0,2.136993E-2,3.2E0,4.5E0,5.9E0,8.185433E-3,-4.5268494E-3,8.535192E-4,-1.3707638E-2,-5.314601E-3,2.6729936E-3,5.364851E-4],"split_indices":[0,0,0,0,0,0,0,0,0,0,0,0,0,0,0,0,0],"split_type":[0,0,0,0,0,0,0,0,0,0,0,0,0,0,0,0,0],"sum_hessian":[2.7E1,1.4E1,1.3E1,5E0,9E0,6E0,7E0,2E0,7E0,2E0,4E0,1E0,1E0,4E0,3E0,1E0,1E0],"tree_param":{"num_deleted":"0","num_feature":"1","num_nodes":"17","size_leaf_vector":"1"}},{"base_weights":[-9.78133E-4,-1.8350585E-1,1.9465715E-1,-2.0191725E-2,-1.2786117E-1,1.1690695E-1,2.3341961E-2,-1.423714E-1,-5.0156554E-3,2.745887E-2,1.358366E-1,-6.9989815E-2,-1.2885179E-2,2.5727563E-3,5.163669E-4,1.4511465E-1,2.6583888E-3,-7.5466563E-3,8.215115E-4,4.669557E-3,1.2435304E-2],"categories":[],"categories_nodes":[],"categories_segments":[],"categories_sizes":[],"default_left":[0,0,0,0,0,0,0,0,0,0,0,0,0,0,0,0,0,0,0,0,0],"id":23,"left_children":[1,3,5,-1,7,9,-1,11,-1,13,15,17,-1,-1,-1,19,-1,-1,-1,-1,-1],"loss_changes":[1.0355688E0,3.712237E-2,9.050119E-2,0E0,2.129376E-4,1.320228E-2,0E0,5.017668E-3,0E0,1.8628337E-4,2.307862E-3,1.1020068E-2,0E0,0E0,0E0,1.6763061E-3,0E0,0E0,0E0,0E0,0E0],"parents":[2147483647,0,0,1,1,2,2,4,4,5,5,7,7,9,9,10,10,11,11,15,15],"right_children":[2,4,6,-1,8,10,-1,12,-1,14,16,18,-1,-1,-1,20,-1,-1,-1,-1,-1],"split_conditions":[5.3E0,2.9E0,9.5E0,-2.0191725E-2,4.5E0,6E0,2.3341961E-2,3.7E0,-5.0156554E-3,5.9E0,9E0,3.2E0,-1.2885179E-2,2.5727563E-3,5.163669E-4,7.1E0,2.6583888E-3,-7.5466563E-3,8.215115E-4,4.669557E-3,1.2435304E-2],"split_indices":[0,0,0,0,0,0,0,0,0,0,0,0,0,0,0,0,0,0,0,0,0],"split_type":[0,0,0,0,0,0,0,0,0,0,0,0,0,0,0,0,0,0,0,0,0],"sum_hessian":[2.7E1,1.4E1,1.3E1,4E0,1E1,9E0,4E0,7E0,3E0,2E0,7E0,3E0,4E0,1E0,1E0,6E0,1E0,2E0,1E0,2E0,4E0],"tree_param":{"num_deleted":"0","num_feature":"1","num_nodes":"21","size_leaf_vector":"1"}},{"base_weights":[-8.556281E-4,-1.7273079E-1,1.8335745E-1,-1.8980226E-2,-1.2051032E-1,1.1042416E-1,2.194144E-2,-1.3414484E-1,-4.733525E-3,2.6429163E-2,1.2811926E-1,-6.642187E-2,-1.2112071E-2,2.476278E-3,4.97003E-4,1.3667458E-1,2.5587E-3,-7.169323E-3,7.907041E-4,4.43608E-3,1.1689184E-2],"categories":[],"categories_nodes":[],"categories_segments":[],"categories_sizes":[],"default_left":[0,0,0,0,0,0,0,0,0,0,0,0,0,0,0,0,0,0,0,0,0],"id":24,"left_children":[1,3,5,-1,7,9,-1,11,-1,13,15,17,-1,-1,-1,19,-1,-1,-1,-1,-1],"loss_changes":[9.1819763E-1,3.2432497E-2,7.919052E-2,0E0,1.4197826E-4,1.1476919E-2,0E0,4.0907264E-3,0E0,1.7257407E-4,1.7710328E-3,9.987738E-3,0E0,0E0,0E0,1.1909008E-3,0E0,0E0,0E0,0E0,0E0],"parents":[2147483647,0,0,1,1,2,2,4,4,5,5,7,7,9,9,10,10,11,11,15,15],"right_children":[2,4,6,-1,8,10,-1,12,-1,14,16,18,-1,-1,-1,20,-1,-1,-1,-1,-1],"split_conditions":[5.3E0,2.9E0,9.5E0,-1.8980226E-2,4.5E0,6E0,2.194144E-2,3.7E0,-4.733525E-3,5.9E0,9E0,3.2E0,-1.2112071E-2,2.476278E-3,4.97003E-4,7.1E0,2.5587E-3,-7.169323E-3,7.907041E-4,4.43608E-3,1.1689184E-2],"split_indices":[0,0,0,0,0,0,0,0,0,0,0,0,0,0,0,0,0,0,0,0,0],"split_type":[0,0,0,0,0,0,0,0,0,0,0,0,0,0,0,0,0,0,0,0,0],"sum_hessian":[2.7E1,1.4E1,1.3E1,4E0,1E1,9E0,4E0,7E0,3E0,2E0,7E0,3E0,4E0,1E0,1E0,6E0,1E0,2E0,1E0,2E0,4E0],"tree_param":{"num_deleted":"0","num_feature":"1","num_nodes":"21","size_leaf_vector":"1"}},{"base_weights":[-7.416542E-4,-1.625896E-1,1.7271984E-1,-1.784141E-2,-1.13583334E-1,7.468681E-2,2.3690873E-1,-1.2639531E-1,-4.4672647E-3,2.543807E-2,6.6974023E-3,1.17035E-2,2.397475E-2,-6.303489E-2,-1.1385345E-2,2.3834177E-3,4.7836528E-4,-6.8108574E-3,7.6105224E-4],"categories":[],"categories_nodes":[],"categories_segments":[],"categories_sizes":[],"default_left":[0,0,0,0,0,0,0,0,0,0,0,0,0,0,0,0,0,0,0],"id":25,"left_children":[1,3,5,-1,7,9,11,13,-1,15,-1,-1,-1,17,-1,-1,-1,-1,-1],"loss_changes":[8.1416523E-1,2.83297E-2,7.040292E-2,0E0,8.454919E-5,2.7657263E-3,3.6512613E-3,3.3105612E-3,0E0,1.5987374E-4,0E0,0E0,0E0,9.052495E-3,0E0,0E0,0E0,0E0,0E0],"parents":[2147483647,0,0,1,1,2,2,4,4,5,5,6,6,7,7,9,9,13,13],"right_children":[2,4,6,-1,8,10,12,14,-1,16,-1,-1,-1,18,-1,-1,-1,-1,-1],"split_conditions":[5.3E0,2.9E0,8.2E0,-1.784141E-2,4.5E0,6E0,1.03E1,3.7E0,-4.4672647E-3,5.9E0,6.6974023E-3,1.17035E-2,2.397475E-2,3.2E0,-1.1385345E-2,2.3834177E-3,4.7836528E-4,-6.8108574E-3,7.6105224E-4],"split_indices":[0,0,0,0,0,0,0,0,0,0,0,0,0,0,0,0,0,0,0],"split_type":[0,0,0,0,0,0,0,0,0,0,0,0,0,0,0,0,0,0,0],"sum_hessian":[2.7E1,1.4E1,1.3E1,4E0,1E1,6E0,7E0,7E0,3E0,2E0,4E0,5E0,2E0,3E0,4E0,1E0,1E0,2E0,1E0],"tree_param":{"num_deleted":"0","num_feature":"1","num_nodes":"19","size_leaf_vector":"1"}},{"base_weights":[-4.898283E-4,-1.5304495E-1,1.6299708E-1,-1.6027646E-2,-1.0134626E-1,9.783188E-2,1.9554606E-2,-2.5042871E-2,-1.1729175E-1,2.4484143E-2,1.1310829E-1,-3.5498368E-3,7.3251355E-4,-1.0702226E-2,-4.215981E-3,2.2940396E-3,4.604266E-4,1.21556655E-1,2.0238676E-3,3.879405E-3,1.0435807E-2],"categories":[],"categories_nodes":[],"categories_segments":[],"categories_sizes":[],"default_left":[0,0,0,0,0,0,0,0,0,0,0,0,0,0,0,0,0,0,0,0,0],"id":26,"left_children":[1,3,5,-1,7,9,-1,11,13,15,17,-1,-1,-1,-1,-1,-1,19,-1,-1,-1],"loss_changes":[7.232873E-1,2.5380433E-2,6.365374E-2,0E0,9.22963E-3,8.435547E-3,0E0,2.7898224E-3,4.392028E-3,1.4810811E-4,2.5406107E-3,0E0,0E0,0E0,0E0,0E0,0E0,1.3997853E-3,0E0,0E0,0E0],"parents":[2147483647,0,0,1,1,2,2,4,4,5,5,7,7,8,8,9,9,10,10,17,17],"right_children":[2,4,6,-1,8,10,-1,12,14,16,18,-1,-1,-1,-1,-1,-1,20,-1,-1,-1],"split_conditions":[5.3E0,3E0,9.5E0,-1.6027646E-2,3.7E0,6E0,1.9554606E-2,3.2E0,4.5E0,5.9E0,9E0,-3.5498368E-3,7.3251355E-4,-1.0702226E-2,-4.215981E-3,2.2940396E-3,4.604266E-4,7.1E0,2.0238676E-3,3.879405E-3,1.0435807E-2],"split_indices":[0,0,0,0,0,0,0,0,0,0,0,0,0,0,0,0,0,0,0,0,0],"split_type":[0,0,0,0,0,0,0,0,0,0,0,0,0,0,0,0,0,0,0,0,0],"sum_hessian":[2.7E1,1.4E1,1.3E1,5E0,9E0,9E0,4E0,2E0,7E0,2E0,7E0,1E0,1E0,4E0,3E0,1E0,1E0,6E0,1E0,2E0,4E0],"tree_param":{"num_deleted":"0","num_feature":"1","num_nodes":"21","size_leaf_vector":"1"}},{"base_weights":[-2.7862404E-4,-1.4381745E-1,1.5353288E-1,-1.580926E-2,-7.5225756E-3,1.0646076E-1,2.179828E-2,3.2717304E-3,9.932004E-3],"categories":[],"categories_nodes":[],"categories_segments":[],"categories_sizes":[],"default_left":[0,0,0,0,0,0,0,0,0],"id":27,"left_children":[1,3,5,-1,-1,7,-1,-1,-1],"loss_changes":[6.4026254E-1,2.257377E-2,5.941522E-2,0E0,0E0,1.3802841E-2,0E0,0E0,0E0],"parents":[2147483647,0,0,1,1,2,2,5,5],"right_children":[2,4,6,-1,-1,8,-1,-1,-1],"split_conditions":[5.3E0,2.9E0,1.03E1,-1.580926E-2,-7.5225756E-3,7.1E0,2.179828E-2,3.2717304E-3,9.932004E-3],"split_indices":[0,0,0,0,0,0,0,0,0],"split_type":[0,0,0,0,0,0,0,0,0],"sum_hessian":[2.7E1,1.4E1,1.3E1,4E0,1E1,1.1E1,2E0,4E0,7E0],"tree_param":{"num_deleted":"0","num_feature":"1","num_nodes":"9","size_leaf_vector":"1"}},{"base_weights":[1.5907202E-4,-1.3458659E-1,1.4451805E-1,-1.4860703E-2,-9.3462296E-2,9.95765E-2,2.070837E-2,-1.0480608E-1,-3.5556867E-3,3.075427E-3,9.280216E-3,-4.9466565E-2,-9.608736E-3,-5.6047505E-3,9.871401E-4],"categories":[],"categories_nodes":[],"categories_segments":[],"categories_sizes":[],"default_left":[0,0,0,0,0,0,0,0,0,0,0,0,0,0,0],"id":28,"left_children":[1,3,5,-1,7,9,-1,11,-1,-1,-1,13,-1,-1,-1],"loss_changes":[5.640991E-1,2.0686626E-2,5.5301994E-2,0E0,7.7781826E-4,1.19067505E-2,0E0,3.98241E-3,0E0,0E0,0E0,7.3124226E-3,0E0,0E0,0E0],"parents":[2147483647,0,0,1,1,2,2,4,4,5,5,7,7,11,11],"right_children":[2,4,6,-1,8,10,-1,12,-1,-1,-1,14,-1,-1,-1],"split_conditions":[5.3E0,2.9E0,1.03E1,-1.4860703E-2,4.5E0,7.1E0,2.070837E-2,3.7E0,-3.5556867E-3,3.075427E-3,9.280216E-3,3.2E0,-9.608736E-3,-5.6047505E-3,9.871401E-4],"split_indices":[0,0,0,0,0,0,0,0,0,0,0,0,0,0,0],"split_type":[0,0,0,0,0,0,0,0,0,0,0,0,0,0,0],"sum_hessian":[2.7E1,1.4E1,1.3E1,4E0,1E1,1.1E1,2E0,7E0,3E0,4E0,7E0,3E0,4E0,2E0,1E0],"tree_param":{"num_deleted":"0","num_feature":"1","num_nodes":"15","size_leaf_vector":"1"}},{"base_weights":[1.6220286E-4,-1.2666875E-1,1.3604093E-1,-1.3328323E-2,-8.337655E-2,9.313791E-2,1.967295E-2,-1.7549515E-2,-9.763962E-2,2.8909012E-3,8.671202E-3,-2.924444E-3,9.501234E-4,-9.032211E-3,-3.3556789E-3],"categories":[],"categories_nodes":[],"categories_segments":[],"categories_sizes":[],"default_left":[0,0,0,0,0,0,0,0,0,0,0,0,0,0,0],"id":29,"left_children":[1,3,5,-1,7,9,-1,11,13,-1,-1,-1,-1,-1,-1],"loss_changes":[4.997737E-1,1.8329054E-2,5.1409513E-2,0E0,7.675424E-3,1.0269195E-2,0E0,2.4378588E-3,4.2558685E-3,0E0,0E0,0E0,0E0,0E0,0E0],"parents":[2147483647,0,0,1,1,2,2,4,4,5,5,7,7,8,8],"right_children":[2,4,6,-1,8,10,-1,12,14,-1,-1,-1,-1,-1,-1],"split_conditions":[5.3E0,3E0,1.03E1,-1.3328323E-2,3.7E0,7.1E0,1.967295E-2,3.2E0,4.5E0,2.8909012E-3,8.671202E-3,-2.924444E-3,9.501234E-4,-9.032211E-3,-3.3556789E-3],"split_indices":[0,0,0,0,0,0,0,0,0,0,0,0,0,0,0],"split_type":[0,0,0,0,0,0,0,0,0,0,0,0,0,0,0],"sum_hessian":[2.7E1,1.4E1,1.3E1,5E0,9E0,1.1E1,2E0,2E0,7E0,4E0,7E0,1E0,1E0,4E0,3E0],"tree_param":{"num_deleted":"0","num_feature":"1","num_nodes":"15","size_leaf_vector":"1"}},{"base_weights":[2.7662356E-4,-1.19014636E-1,1.2806892E-1,-1.31693585E-2,-8.24784E-2,8.711608E-2,1.8689303E-2,-8.926716E-2,-3.461932E-2,2.717447E-3,8.102155E-3,-4.3085307E-2,-7.88829E-3,-6.215025E-4,-3.2731714E-3,-4.9181944E-3,9.1449474E-4],"categories":[],"categories_nodes":[],"categories_segments":[],"categories_sizes":[],"default_left":[0,0,0,0,0,0,0,0,0,0,0,0,0,0,0,0,0],"id":30,"left_children":[1,3,5,-1,7,9,-1,11,13,-1,-1,15,-1,-1,-1,-1,-1],"loss_changes":[4.4208822E-1,1.6524076E-2,4.7735423E-2,0E0,4.8357248E-4,8.855127E-3,0E0,2.0812005E-3,3.5114423E-4,0E0,0E0,5.77258E-3,0E0,0E0,0E0,0E0,0E0],"parents":[2147483647,0,0,1,1,2,2,4,4,5,5,7,7,8,8,11,11],"right_children":[2,4,6,-1,8,10,-1,12,14,-1,-1,16,-1,-1,-1,-1,-1],"split_conditions":[5.3E0,2.9E0,1.03E1,-1.31693585E-2,4.9E0,7.1E0,1.8689303E-2,3.7E0,5.1E0,2.717447E-3,8.102155E-3,3.2E0,-7.88829E-3,-6.215025E-4,-3.2731714E-3,-4.9181944E-3,9.1449474E-4],"split_indices":[0,0,0,0,0,0,0,0,0,0,0,0,0,0,0,0,0],"split_type":[0,0,0,0,0,0,0,0,0,0,0,0,0,0,0,0,0],"sum_hessian":[2.7E1,1.4E1,1.3E1,4E0,1E1,1.1E1,2E0,8E0,2E0,4E0,7E0,3E0,5E0,1E0,1E0,2E0,1E0],"tree_param":{"num_deleted":"0","num_feature":"1","num_nodes":"17","size_leaf_vector":"1"}},{"base_weights":[2.7563158E-4,-1.1201892E-1,1.2057153E-1,-1.2379195E-2,-7.772765E-2,8.1484E-2,1.7754838E-2,-8.7235585E-2,-2.945991E-3,1.5595649E-2,6.9826576E-3,-4.0854827E-2,-8.016981E-3,1.7596815E-3,-5.170796E-6,-4.6722833E-3,8.802005E-4],"categories":[],"categories_nodes":[],"categories_segments":[],"categories_sizes":[],"default_left":[0,0,0,0,0,0,0,0,0,0,0,0,0,0,0,0,0],"id":31,"left_children":[1,3,5,-1,7,9,-1,11,-1,13,-1,15,-1,-1,-1,-1,-1],"loss_changes":[3.9174637E-1,1.4451176E-2,4.4275686E-2,0E0,5.9454143E-4,7.733986E-3,0E0,2.926737E-3,0E0,3.713069E-4,0E0,5.2417875E-3,0E0,0E0,0E0,0E0,0E0],"parents":[2147483647,0,0,1,1,2,2,4,4,5,5,7,7,9,9,11,11],"right_children":[2,4,6,-1,8,10,-1,12,-1,14,-1,16,-1,-1,-1,-1,-1],"split_conditions":[5.3E0,2.9E0,1.03E1,-1.2379195E-2,4.5E0,6E0,1.7754838E-2,3.7E0,-2.945991E-3,5.9E0,6.9826576E-3,3.2E0,-8.016981E-3,1.7596815E-3,-5.170796E-6,-4.6722833E-3,8.802005E-4],"split_indices":[0,0,0,0,0,0,0,0,0,0,0,0,0,0,0,0,0],"split_type":[0,0,0,0,0,0,0,0,0,0,0,0,0,0,0,0,0],"sum_hessian":[2.7E1,1.4E1,1.3E1,4E0,1E1,1.1E1,2E0,7E0,3E0,2E0,9E0,3E0,4E0,1E0,1E0,2E0,1E0],"tree_param":{"num_deleted":"0","num_feature":"1","num_nodes":"17","size_leaf_vector":"1"}},{"base_weights":[2.3202065E-4,-1.05426446E-1,1.1342095E-1,-1.1097994E-2,-6.9355726E-2,7.610078E-2,1.68671E-2,-1.4292796E-2,-8.133486E-2,3.0914705E-2,9.482948E-2,-2.4551332E-3,8.4719365E-4,-7.5359605E-3,-2.7802784E-3,3.5146266E-2,5.2456744E-4,7.5549264E-3,2.0066008E-3,1.5010814E-2,3.5832236E-3,1.6936936E-3,-4.976895E-6],"categories":[],"categories_nodes":[],"categories_segments":[],"categories_sizes":[],"default_left":[0,0,0,0,0,0,0,0,0,0,0,0,0,0,0,0,0,0,0,0,0,0,0],"id":32,"left_children":[1,3,5,-1,7,9,-1,11,13,15,17,-1,-1,-1,-1,19,-1,-1,-1,21,-1,-1,-1],"loss_changes":[3.4681988E-1,1.2757599E-2,4.1128397E-2,0E0,5.4335594E-3,7.2236955E-3,0E0,1.7855181E-3,3.0546002E-3,2.602837E-4,5.196333E-4,0E0,0E0,0E0,0E0,3.0008517E-4,0E0,0E0,0E0,3.4398102E-4,0E0,0E0,0E0],"parents":[2147483647,0,0,1,1,2,2,4,4,5,5,7,7,8,8,9,9,10,10,15,15,19,19],"right_children":[2,4,6,-1,8,10,-1,12,14,16,18,-1,-1,-1,-1,20,-1,-1,-1,22,-1,-1,-1],"split_conditions":[5.3E0,3E0,1.03E1,-1.1097994E-2,3.7E0,7.1E0,1.68671E-2,3.2E0,4.5E0,6.8E0,9.6E0,-2.4551332E-3,8.4719365E-4,-7.5359605E-3,-2.7802784E-3,6E0,5.2456744E-4,7.5549264E-3,2.0066008E-3,5.9E0,3.5832236E-3,1.6936936E-3,-4.976895E-6],"split_indices":[0,0,0,0,0,0,0,0,0,0,0,0,0,0,0,0,0,0,0,0,0,0,0],"split_type":[0,0,0,0,0,0,0,0,0,0,0,0,0,0,0,0,0,0,0,0,0,0,0],"sum_hessian":[2.7E1,1.4E1,1.3E1,5E0,9E0,1.1E1,2E0,2E0,7E0,4E0,7E0,1E0,1E0,4E0,3E0,3E0,1E0,6E0,1E0,2E0,1E0,1E0,1E0],"tree_param":{"num_deleted":"0","num_feature":"1","num_nodes":"23","size_leaf_vector":"1"}},{"base_weights":[5.432985E-4,-9.905428E-2,1.0721618E-1,-1.0970563E-2,-6.858576E-2,7.167306E-2,1.6023746E-2,-7.681283E-2,-2.6238877E-3,2.9755402E-2,8.891246E-2,-3.5562262E-2,-7.083805E-3,3.382828E-2,5.048957E-4,7.0692534E-3,1.9313515E-3,-4.0998417E-3,8.1542286E-4,1.4447908E-2,3.4488526E-3,1.6301799E-3,-4.7902577E-6],"categories":[],"categories_nodes":[],"categories_segments":[],"categories_sizes":[],"default_left":[0,0,0,0,0,0,0,0,0,0,0,0,0,0,0,0,0,0,0,0,0,0,0],"id":33,"left_children":[1,3,5,-1,7,9,-1,11,-1,13,15,17,-1,19,-1,-1,-1,-1,-1,21,-1,-1,-1],"loss_changes":[3.0810234E-1,1.15484595E-2,3.7648886E-2,0E0,3.5346672E-4,6.0260035E-3,0E0,2.4617054E-3,0E0,2.4112873E-4,2.731532E-4,4.1423566E-3,0E0,2.7800072E-4,0E0,0E0,0E0,0E0,0E0,3.1866605E-4,0E0,0E0,0E0],"parents":[2147483647,0,0,1,1,2,2,4,4,5,5,7,7,9,9,10,10,11,11,13,13,19,19],"right_children":[2,4,6,-1,8,10,-1,12,-1,14,16,18,-1,20,-1,-1,-1,-1,-1,22,-1,-1,-1],"split_conditions":[5.3E0,2.9E0,1.03E1,-1.0970563E-2,4.5E0,7.1E0,1.6023746E-2,3.7E0,-2.6238877E-3,6.8E0,9.6E0,3.2E0,-7.083805E-3,6E0,5.048957E-4,7.0692534E-3,1.9313515E-3,-4.0998417E-3,8.1542286E-4,5.9E0,3.4488526E-3,1.6301799E-3,-4.7902577E-6],"split_indices":[0,0,0,0,0,0,0,0,0,0,0,0,0,0,0,0,0,0,0,0,0,0,0],"split_type":[0,0,0,0,0,0,0,0,0,0,0,0,0,0,0,0,0,0,0,0,0,0,0],"sum_hessian":[2.7E1,1.4E1,1.3E1,4E0,1E1,1.1E1,2E0,7E0,3E0,4E0,7E0,3E0,4E0,3E0,1E0,6E0,1E0,2E0,1E0,2E0,1E0,1E0,1E0],"tree_param":{"num_deleted":"0","num_feature":"1","num_nodes":"23","size_leaf_vector":"1"}},{"base_weights":[7.397362E-4,-9.32227E-2,1.0136094E-1,-1.0312327E-2,-6.462292E-2,5.6115873E-2,1.28684165E-2,-7.234789E-2,-2.4762936E-3,6.2978365E-2,-2.11747E-4,-3.37162E-2,-6.658775E-3,3.3636946E-2,6.843443E-3,-3.8948492E-3,7.8484346E-4,1.3906111E-2,3.0019379E-3,1.5690482E-3,-4.6106056E-6],"categories":[],"categories_nodes":[],"categories_segments":[],"categories_sizes":[],"default_left":[0,0,0,0,0,0,0,0,0,0,0,0,0,0,0,0,0,0,0,0,0],"id":34,"left_children":[1,3,5,-1,7,9,-1,11,-1,13,-1,15,-1,17,-1,-1,-1,19,-1,-1,-1],"loss_changes":[2.7417833E-1,1.0108322E-2,3.4849927E-2,0E0,2.9695034E-4,4.222501E-3,0E0,2.0860843E-3,0E0,4.3954514E-3,0E0,3.762472E-3,0E0,1.9974541E-4,0E0,0E0,0E0,2.9521424E-4,0E0,0E0,0E0],"parents":[2147483647,0,0,1,1,2,2,4,4,5,5,7,7,9,9,11,11,13,13,17,17],"right_children":[2,4,6,-1,8,10,-1,12,-1,14,-1,16,-1,18,-1,-1,-1,20,-1,-1,-1],"split_conditions":[5.3E0,2.9E0,9.5E0,-1.0312327E-2,4.5E0,9E0,1.28684165E-2,3.7E0,-2.4762936E-3,7.9E0,-2.11747E-4,3.2E0,-6.658775E-3,6E0,6.843443E-3,-3.8948492E-3,7.8484346E-4,5.9E0,3.0019379E-3,1.5690482E-3,-4.6106056E-6],"split_indices":[0,0,0,0,0,0,0,0,0,0,0,0,0,0,0,0,0,0,0,0,0],"split_type":[0,0,0,0,0,0,0,0,0,0,0,0,0,0,0,0,0,0,0,0,0],"sum_hessian":[2.7E1,1.4E1,1.3E1,4E0,1E1,9E0,4E0,7E0,3E0,8E0,1E0,3E0,4E0,5E0,3E0,2E0,1E0,2E0,3E0,1E0,1E0],"tree_param":{"num_deleted":"0","num_feature":"1","num_nodes":"21","size_leaf_vector":"1"}},{"base_weights":[7.3815696E-4,-8.773482E-2,9.547791E-2,-1.0354538E-2,-6.364835E-2,6.279376E-2,1.4579139E-2,-5.3261677E-3,-2.3370022E-3,1.3384633E-2,7.1337126E-2,1.5102089E-3,-4.4376593E-6,7.518536E-2,1.3763622E-3,3.2115213E-3,6.9385027E-3],"categories":[],"categories_nodes":[],"categories_segments":[],"categories_sizes":[],"default_left":[0,0,0,0,0,0,0,0,0,0,0,0,0,0,0,0,0],"id":35,"left_children":[1,3,5,-1,7,9,-1,-1,-1,11,13,-1,-1,15,-1,-1,-1],"loss_changes":[2.4307014E-1,9.395197E-3,3.3052936E-2,0E0,6.593354E-4,4.1106194E-3,0E0,0E0,0E0,2.734883E-4,6.59246E-4,0E0,0E0,1.0859556E-3,0E0,0E0,0E0],"parents":[2147483647,0,0,1,1,2,2,4,4,5,5,9,9,10,10,13,13],"right_children":[2,4,6,-1,8,10,-1,-1,-1,12,14,-1,-1,16,-1,-1,-1],"split_conditions":[5.3E0,2E0,1.03E1,-1.0354538E-2,4.5E0,6E0,1.4579139E-2,-5.3261677E-3,-2.3370022E-3,5.9E0,9.6E0,1.5102089E-3,-4.4376593E-6,8.2E0,1.3763622E-3,3.2115213E-3,6.9385027E-3],"split_indices":[0,0,0,0,0,0,0,0,0,0,0,0,0,0,0,0,0],"split_type":[0,0,0,0,0,0,0,0,0,0,0,0,0,0,0,0,0],"sum_hessian":[2.7E1,1.4E1,1.3E1,3E0,1.1E1,1.1E1,2E0,8E0,3E0,2E0,9E0,1E0,1E0,8E0,1E0,4E0,4E0],"tree_param":{"num_deleted":"0","num_feature":"1","num_nodes":"17","size_leaf_vector":"1"}},{"base_weights":[1.0254205E-3,-8.23559E-2,9.028931E-2,-9.772097E-3,-5.9513334E-2,5.917026E-2,1.385018E-2,-4.971091E-3,-2.205546E-3,2.5540156E-2,7.279279E-2,3.0238809E-2,2.5295804E-4,5.860883E-3,1.3247476E-3,1.2882712E-2,3.0865164E-3,1.4535763E-3,-4.2711386E-6],"categories":[],"categories_nodes":[],"categories_segments":[],"categories_sizes":[],"default_left":[0,0,0,0,0,0,0,0,0,0,0,0,0,0,0,0,0,0,0],"id":36,"left_children":[1,3,5,-1,7,9,-1,-1,-1,11,13,15,-1,-1,-1,17,-1,-1,-1],"loss_changes":[2.158382E-1,8.671388E-3,3.019119E-2,0E0,4.9589574E-4,3.6383867E-3,0E0,0E0,0E0,4.1879574E-4,9.802617E-4,2.2757961E-4,0E0,0E0,0E0,2.533613E-4,0E0,0E0,0E0],"parents":[2147483647,0,0,1,1,2,2,4,4,5,5,9,9,10,10,11,11,15,15],"right_children":[2,4,6,-1,8,10,-1,-1,-1,12,14,16,-1,-1,-1,18,-1,-1,-1],"split_conditions":[5.3E0,2E0,1.03E1,-9.772097E-3,4.5E0,7.1E0,1.385018E-2,-4.971091E-3,-2.205546E-3,6.8E0,9.6E0,6E0,2.5295804E-4,5.860883E-3,1.3247476E-3,5.9E0,3.0865164E-3,1.4535763E-3,-4.2711386E-6],"split_indices":[0,0,0,0,0,0,0,0,0,0,0,0,0,0,0,0,0,0,0],"split_type":[0,0,0,0,0,0,0,0,0,0,0,0,0,0,0,0,0,0,0],"sum_hessian":[2.7E1,1.4E1,1.3E1,3E0,1.1E1,1.1E1,2E0,8E0,3E0,4E0,7E0,3E0,1E0,6E0,1E0,2E0,1E0,1E0,1E0],"tree_param":{"num_deleted":"0","num_feature":"1","num_nodes":"19","size_leaf_vector":"1"}},{"base_weights":[1.2654987E-3,-7.7309124E-2,8.53622E-2,-9.222418E-3,-5.5647884E-2,5.5730343E-2,1.3157669E-2,-6.186246E-2,-2.0814836E-3,2.8243585E-2,7.1328945E-2,-3.61336E-2,-5.641413E-3,1.2399609E-2,2.4799253E-3,5.8162604E-3,1.2750686E-3,-3.958305E-3,1.1415593E-3,1.3990671E-3,-4.1110443E-6],"categories":[],"categories_nodes":[],"categories_segments":[],"categories_sizes":[],"default_left":[0,0,0,0,0,0,0,0,0,0,0,0,0,0,0,0,0,0,0,0,0],"id":37,"left_children":[1,3,5,-1,7,9,-1,11,-1,13,15,17,-1,19,-1,-1,-1,-1,-1,-1,-1],"loss_changes":[1.9161956E-1,7.991858E-3,2.75895E-2,0E0,3.63376E-4,3.1304806E-3,0E0,3.748685E-4,0E0,4.840456E-5,1.047466E-3,5.0769732E-3,0E0,2.3471547E-4,0E0,0E0,0E0,0E0,0E0,0E0,0E0],"parents":[2147483647,0,0,1,1,2,2,4,4,5,5,7,7,9,9,10,10,11,11,13,13],"right_children":[2,4,6,-1,8,10,-1,12,-1,14,16,18,-1,20,-1,-1,-1,-1,-1,-1,-1],"split_conditions":[5.3E0,2E0,1.03E1,-9.222418E-3,4.5E0,7.9E0,1.3157669E-2,3.7E0,-2.0814836E-3,6E0,9.6E0,3.2E0,-5.641413E-3,5.9E0,2.4799253E-3,5.8162604E-3,1.2750686E-3,-3.958305E-3,1.1415593E-3,1.3990671E-3,-4.1110443E-6],"split_indices":[0,0,0,0,0,0,0,0,0,0,0,0,0,0,0,0,0,0,0,0,0],"split_type":[0,0,0,0,0,0,0,0,0,0,0,0,0,0,0,0,0,0,0,0,0],"sum_hessian":[2.7E1,1.4E1,1.3E1,3E0,1.1E1,1.1E1,2E0,8E0,3E0,5E0,6E0,4E0,4E0,2E0,3E0,5E0,1E0,3E0,1E0,1E0,1E0],"tree_param":{"num_deleted":"0","num_feature":"1","num_nodes":"21","size_leaf_vector":"1"}},{"base_weights":[1.3263625E-3,-7.282843E-2,8.068318E-2,-8.703659E-3,-5.2352604E-2,4.2890977E-2,1.0509822E-2,-5.8162577E-2,-1.9644008E-3,5.0328914E-2,-9.0189284E-4,-3.3986926E-2,-5.3029284E-3,2.9820288E-2,8.140608E-2,-3.73565E-3,1.0987513E-3,1.1934623E-2,2.5940724E-3,7.6217744E-3,1.5364096E-3,1.346602E-3,-3.956817E-6],"categories":[],"categories_nodes":[],"categories_segments":[],"categories_sizes":[],"default_left":[0,0,0,0,0,0,0,0,0,0,0,0,0,0,0,0,0,0,0,0,0,0,0],"id":38,"left_children":[1,3,5,-1,7,9,-1,11,-1,13,-1,15,-1,17,19,-1,-1,21,-1,-1,-1,-1,-1],"loss_changes":[1.706473E-1,7.199131E-3,2.5442913E-2,0E0,3.0051172E-4,4.68985E-3,0E0,3.2607652E-4,0E0,3.308598E-3,0E0,4.577303E-3,0E0,1.840787E-4,1.6131941E-3,0E0,0E0,2.1744182E-4,0E0,0E0,0E0,0E0,0E0],"parents":[2147483647,0,0,1,1,2,2,4,4,5,5,7,7,9,9,11,11,13,13,14,14,17,17],"right_children":[2,4,6,-1,8,10,-1,12,-1,14,-1,16,-1,18,20,-1,-1,22,-1,-1,-1,-1,-1],"split_conditions":[5.3E0,2E0,9.5E0,-8.703659E-3,4.5E0,9E0,1.0509822E-2,3.7E0,-1.9644008E-3,8.2E0,-9.0189284E-4,3.2E0,-5.3029284E-3,6E0,8.7E0,-3.73565E-3,1.0987513E-3,5.9E0,2.5940724E-3,7.6217744E-3,1.5364096E-3,1.346602E-3,-3.956817E-6],"split_indices":[0,0,0,0,0,0,0,0,0,0,0,0,0,0,0,0,0,0,0,0,0,0,0],"split_type":[0,0,0,0,0,0,0,0,0,0,0,0,0,0,0,0,0,0,0,0,0,0,0],"sum_hessian":[2.7E1,1.4E1,1.3E1,3E0,1.1E1,9E0,4E0,8E0,3E0,8E0,1E0,4E0,4E0,6E0,2E0,3E0,1E0,2E0,4E0,1E0,1E0,1E0,1E0],"tree_param":{"num_deleted":"0","num_feature":"1","num_nodes":"23","size_leaf_vector":"1"}},{"base_weights":[1.3731354E-3,-6.8606816E-2,7.625357E-2,-7.3635313E-3,-4.4001974E-2,4.90482E-2,1.197429E-2,-2.9426415E-3,-5.3898975E-2,1.8937745E-3,6.2439494E-2,-1.3885953E-3,1.0575481E-3,-4.984754E-3,-2.4718717E-2,5.1857447E-3,8.331344E-4,-1.1426121E-2,-2.422369E-3,-1.4153011E-3,1.2986251E-4],"categories":[],"categories_nodes":[],"categories_segments":[],"categories_sizes":[],"default_left":[0,0,0,0,0,0,0,0,0,0,0,0,0,0,0,0,0,0,0,0,0],"id":39,"left_children":[1,3,5,-1,7,9,-1,11,13,-1,15,-1,-1,-1,17,-1,-1,19,-1,-1,-1],"loss_changes":[1.5195513E-1,6.5946802E-3,2.3935474E-2,0E0,3.9050374E-3,2.2475943E-3,0E0,1.0572599E-3,1.2901742E-3,0E0,1.6406998E-3,0E0,0E0,0E0,3.3963006E-5,0E0,0E0,3.2653273E-4,0E0,0E0,0E0],"parents":[2147483647,0,0,1,1,2,2,4,4,5,5,7,7,8,8,10,10,14,14,17,17],"right_children":[2,4,6,-1,8,10,-1,12,14,-1,16,-1,-1,-1,18,-1,-1,20,-1,-1,-1],"split_conditions":[5.3E0,3E0,1.03E1,-7.3635313E-3,3.7E0,7.9E0,1.197429E-2,3.2E0,4.5E0,1.8937745E-3,9.6E0,-1.3885953E-3,1.0575481E-3,-4.984754E-3,5.1E0,5.1857447E-3,8.331344E-4,4.9E0,-2.422369E-3,-1.4153011E-3,1.2986251E-4],"split_indices":[0,0,0,0,0,0,0,0,0,0,0,0,0,0,0,0,0,0,0,0,0],"split_type":[0,0,0,0,0,0,0,0,0,0,0,0,0,0,0,0,0,0,0,0,0],"sum_hessian":[2.7E1,1.4E1,1.3E1,5E0,9E0,1.1E1,2E0,2E0,7E0,5E0,6E0,1E0,1E0,4E0,3E0,5E0,1E0,2E0,1E0,1E0,1E0],"tree_param":{"num_deleted":"0","num_feature":"1","num_nodes":"21","size_leaf_vector":"1"}},{"base_weights":[1.3951454E-3,-6.4553775E-2,7.195505E-2,-7.7998755E-3,-4.6026107E-2,4.602898E-2,1.1375574E-2,-4.934723E-2,-1.9613663E-2,2.605264E-2,6.166321E-2,-2.8953647E-2,-4.3588006E-3,1.2499318E-4,-2.3315304E-3,1.0224558E-2,2.2754222E-3,7.1414937E-3,3.5907887E-2,-3.2233493E-3,1.0178895E-3,1.2250878E-3,-7.482497E-5,1.971523E-3,5.787496E-2,1.2843311E-3,-1.0625347E-3,5.709042E-3,8.0189115E-4],"categories":[],"categories_nodes":[],"categories_segments":[],"categories_sizes":[],"default_left":[0,0,0,0,0,0,0,0,0,0,0,0,0,0,0,0,0,0,0,0,0,0,0,0,0,0,0,0,0],"id":40,"left_children":[1,3,5,-1,7,9,-1,11,13,15,17,19,-1,-1,-1,21,-1,-1,23,-1,-1,-1,-1,25,27,-1,-1,-1,-1],"loss_changes":[1.3493876E-1,6.1756E-3,2.1953888E-2,0E0,8.474663E-5,2.1412876E-3,0E0,1.0583177E-4,7.8427955E-4,1.6470719E-4,1.7664358E-3,3.5652523E-3,0E0,0E0,0E0,2.21998E-4,0E0,0E0,3.6133109E-3,0E0,0E0,0E0,0E0,9.7624556E-4,1.7687781E-3,0E0,0E0,0E0,0E0],"parents":[2147483647,0,0,1,1,2,2,4,4,5,5,7,7,8,8,9,9,10,10,11,11,15,15,18,18,23,23,24,24],"right_children":[2,4,6,-1,8,10,-1,12,14,16,18,20,-1,-1,-1,22,-1,-1,24,-1,-1,-1,-1,26,28,-1,-1,-1,-1],"split_conditions":[5.3E0,2E0,1.03E1,-7.7998755E-3,4.9E0,8.2E0,1.1375574E-2,3.7E0,5.1E0,6E0,8.7E0,3.2E0,-4.3588006E-3,1.2499318E-4,-2.3315304E-3,5.9E0,2.2754222E-3,7.1414937E-3,9.5E0,-3.2233493E-3,1.0178895E-3,1.2250878E-3,-7.482497E-5,9E0,9.6E0,1.2843311E-3,-1.0625347E-3,5.709042E-3,8.0189115E-4],"split_indices":[0,0,0,0,0,0,0,0,0,0,0,0,0,0,0,0,0,0,0,0,0,0,0,0,0,0,0,0,0],"split_type":[0,0,0,0,0,0,0,0,0,0,0,0,0,0,0,0,0,0,0,0,0,0,0,0,0,0,0,0,0],"sum_hessian":[2.7E1,1.4E1,1.3E1,3E0,1.1E1,1.1E1,2E0,9E0,2E0,6E0,5E0,4E0,5E0,1E0,1E0,2E0,4E0,1E0,4E0,3E0,1E0,1E0,1E0,2E0,2E0,1E0,1E0,1E0,1E0],"tree_param":{"num_deleted":"0","num_feature":"1","num_nodes":"29","size_leaf_vector":"1"}},{"base_weights":[1.7228292E-3,-6.0816947E-2,6.8606675E-2,-9.8148435E-2,-4.3305036E-2,4.4018462E-2,1.0806796E-2,-4.57325E-2,-9.57736E-3,-4.7895417E-2,-2.215042E-2,2.4588084E-2,5.935083E-2,-7.3382338E-3,2.1933273E-3,-2.7223218E-2,-4.4241403E-3,-9.586354E-3,-2.244098E-3,9.841139E-3,2.1388978E-3,6.873688E-3,3.4561325E-2,-3.0420364E-3,9.797193E-4,-1.198771E-3,1.2030602E-4,1.1791472E-3,-7.201899E-5,1.8975735E-3,5.5704635E-2,1.2361676E-3,-1.0226906E-3,5.494952E-3,7.718191E-4],"categories":[],"categories_nodes":[],"categories_segments":[],"categories_sizes":[],"default_left":[0,0,0,0,0,0,0,0,0,0,0,0,0,0,0,0,0,0,0,0,0,0,0,0,0,0,0,0,0,0,0,0,0,0,0],"id":41,"left_children":[1,3,5,7,9,11,-1,13,-1,15,17,19,21,-1,-1,23,-1,25,-1,27,-1,-1,29,-1,-1,-1,-1,-1,-1,31,33,-1,-1,-1,-1],"loss_changes":[1.2129366E-1,5.5558644E-3,1.9641556E-2,3.555417E-4,1.04390085E-4,2.115639E-3,0E0,1.458263E-2,0E0,4.5801513E-4,1.0369951E-4,1.2508966E-4,1.6364437E-3,0E0,0E0,3.2163733E-3,0E0,2.4040326E-4,0E0,2.056603E-4,0E0,0E0,3.347396E-3,0E0,0E0,0E0,0E0,0E0,0E0,9.0439984E-4,1.638609E-3,0E0,0E0,0E0,0E0],"parents":[2147483647,0,0,1,1,2,2,3,3,4,4,5,5,7,7,9,9,10,10,11,11,12,12,15,15,17,17,19,19,22,22,29,29,30,30],"right_children":[2,4,6,8,10,12,-1,14,-1,16,18,20,22,-1,-1,24,-1,26,-1,28,-1,-1,30,-1,-1,-1,-1,-1,-1,32,34,-1,-1,-1,-1],"split_conditions":[5.3E0,2E0,1.03E1,1.5E0,4.5E0,8.2E0,1.0806796E-2,1.3E0,-9.57736E-3,3.7E0,5.1E0,6E0,8.7E0,-7.3382338E-3,2.1933273E-3,3.2E0,-4.4241403E-3,4.9E0,-2.244098E-3,5.9E0,2.1388978E-3,6.873688E-3,9.5E0,-3.0420364E-3,9.797193E-4,-1.198771E-3,1.2030602E-4,1.1791472E-3,-7.201899E-5,9E0,9.6E0,1.2361676E-3,-1.0226906E-3,5.494952E-3,7.718191E-4],"split_indices":[0,0,0,0,0,0,0,0,0,0,0,0,0,0,0,0,0,0,0,0,0,0,0,0,0,0,0,0,0,0,0,0,0,0,0],"split_type":[0,0,0,0,0,0,0,0,0,0,0,0,0,0,0,0,0,0,0,0,0,0,0,0,0,0,0,0,0,0,0,0,0,0,0],"sum_hessian":[2.7E1,1.4E1,1.3E1,3E0,1.1E1,1.1E1,2E0,2E0,1E0,8E0,3E0,6E0,5E0,1E0,1E0,4E0,4E0,2E0,1E0,2E0,4E0,1E0,4E0,3E0,1E0,1E0,1E0,1E0,1E0,2E0,2E0,1E0,1E0,1E0,1E0],"tree_param":{"num_deleted":"0","num_feature":"1","num_nodes":"35","size_leaf_vector":"1"}},{"base_weights":[1.6963126E-3,-5.789109E-2,6.5418795E-2,-9.446785E-2,-4.0874578E-2,4.2100403E-2,1.0266456E-2,-4.4017512E-2,-9.218208E-3,-4.5023978E-2,-2.1319784E-2,2.3207689E-2,5.712517E-2,-7.063048E-3,2.1110773E-3,-2.5593948E-2,-4.158691E-3,-9.226869E-3,-2.159945E-3,9.472097E-3,2.010563E-3,6.6159237E-3,3.326528E-2,-2.8709227E-3,9.4297976E-4,-1.153817E-3,1.1579432E-4,1.1349292E-3,-6.931834E-5,1.8264055E-3,5.361573E-2,1.1898101E-3,-9.843395E-4,5.2888915E-3,7.4287807E-4],"categories":[],"categories_nodes":[],"categories_segments":[],"categories_sizes":[],"default_left":[0,0,0,0,0,0,0,0,0,0,0,0,0,0,0,0,0,0,0,0,0,0,0,0,0,0,0,0,0,0,0,0,0,0,0],"id":42,"left_children":[1,3,5,7,9,11,-1,13,-1,15,17,19,21,-1,-1,23,-1,25,-1,27,-1,-1,29,-1,-1,-1,-1,-1,-1,31,33,-1,-1,-1,-1],"loss_changes":[1.10104755E-1,5.4747947E-3,1.7568074E-2,3.2938272E-4,1.3787299E-5,2.0805597E-3,0E0,1.3509434E-2,0E0,4.038997E-4,9.60679E-5,9.219581E-5,1.5160087E-3,0E0,0E0,2.9020305E-3,0E0,2.2271101E-4,0E0,1.9052505E-4,0E0,0E0,3.1010513E-3,0E0,0E0,0E0,0E0,0E0,0E0,8.3784055E-4,1.518013E-3,0E0,0E0,0E0,0E0],"parents":[2147483647,0,0,1,1,2,2,3,3,4,4,5,5,7,7,9,9,10,10,11,11,12,12,15,15,17,17,19,19,22,22,29,29,30,30],"right_children":[2,4,6,8,10,12,-1,14,-1,16,18,20,22,-1,-1,24,-1,26,-1,28,-1,-1,30,-1,-1,-1,-1,-1,-1,32,34,-1,-1,-1,-1],"split_conditions":[5.3E0,2E0,1.03E1,1.5E0,4.5E0,8.2E0,1.0266456E-2,1.3E0,-9.218208E-3,3.7E0,5.1E0,6E0,8.7E0,-7.063048E-3,2.1110773E-3,3.2E0,-4.158691E-3,4.9E0,-2.159945E-3,5.9E0,2.010563E-3,6.6159237E-3,9.5E0,-2.8709227E-3,9.4297976E-4,-1.153817E-3,1.1579432E-4,1.1349292E-3,-6.931834E-5,9E0,9.6E0,1.1898101E-3,-9.843395E-4,5.2888915E-3,7.4287807E-4],"split_indices":[0,0,0,0,0,0,0,0,0,0,0,0,0,0,0,0,0,0,0,0,0,0,0,0,0,0,0,0,0,0,0,0,0,0,0],"split_type":[0,0,0,0,0,0,0,0,0,0,0,0,0,0,0,0,0,0,0,0,0,0,0,0,0,0,0,0,0,0,0,0,0,0,0],"sum_hessian":[2.7E1,1.4E1,1.3E1,3E0,1.1E1,1.1E1,2E0,2E0,1E0,8E0,3E0,6E0,5E0,1E0,1E0,4E0,4E0,2E0,1E0,2E0,4E0,1E0,4E0,3E0,1E0,1E0,1E0,1E0,1E0,2E0,2E0,1E0,1E0,1E0,1E0],"tree_param":{"num_deleted":"0","num_feature":"1","num_nodes":"35","size_leaf_vector":"1"}},{"base_weights":[1.6669807E-3,-5.5112913E-2,6.2383514E-2,-9.0925306E-2,-2.8937033E-3,4.0270314E-2,9.753135E-3,-4.2366862E-2,-8.872524E-3,2.1906557E-2,5.498298E-2,-6.798184E-3,2.031912E-3,9.116893E-3,1.8899284E-3,6.367828E-3,3.2017827E-2,1.0923693E-3,-6.6718836E-5,1.7578999E-3,5.1605146E-2,1.1451915E-3,-9.4742776E-4,5.0905603E-3,7.1501883E-4],"categories":[],"categories_nodes":[],"categories_segments":[],"categories_sizes":[],"default_left":[0,0,0,0,0,0,0,0,0,0,0,0,0,0,0,0,0,0,0,0,0,0,0,0,0],"id":43,"left_children":[1,3,5,7,-1,9,-1,11,-1,13,15,-1,-1,17,-1,-1,19,-1,-1,21,23,-1,-1,-1,-1],"loss_changes":[9.996753E-2,5.371645E-3,1.570915E-2,3.0514225E-4,0E0,2.0376705E-3,0E0,1.25152245E-2,0E0,6.503193E-5,1.4044438E-3,0E0,0E0,1.7650353E-4,0E0,0E0,2.8728377E-3,0E0,0E0,7.7618106E-4,1.4063008E-3,0E0,0E0,0E0,0E0],"parents":[2147483647,0,0,1,1,2,2,3,3,5,5,7,7,9,9,10,10,13,13,16,16,19,19,20,20],"right_children":[2,4,6,8,-1,10,-1,12,-1,14,16,-1,-1,18,-1,-1,20,-1,-1,22,24,-1,-1,-1,-1],"split_conditions":[5.3E0,2E0,1.03E1,1.5E0,-2.8937033E-3,8.2E0,9.753135E-3,1.3E0,-8.872524E-3,6E0,8.7E0,-6.798184E-3,2.031912E-3,5.9E0,1.8899284E-3,6.367828E-3,9.5E0,1.0923693E-3,-6.6718836E-5,9E0,9.6E0,1.1451915E-3,-9.4742776E-4,5.0905603E-3,7.1501883E-4],"split_indices":[0,0,0,0,0,0,0,0,0,0,0,0,0,0,0,0,0,0,0,0,0,0,0,0,0],"split_type":[0,0,0,0,0,0,0,0,0,0,0,0,0,0,0,0,0,0,0,0,0,0,0,0,0],"sum_hessian":[2.7E1,1.4E1,1.3E1,3E0,1.1E1,1.1E1,2E0,2E0,1E0,6E0,5E0,1E0,1E0,2E0,4E0,1E0,4E0,1E0,1E0,2E0,2E0,1E0,1E0,1E0,1E0],"tree_param":{"num_deleted":"0","num_feature":"1","num_nodes":"25","size_leaf_vector":"1"}},{"base_weights":[1.8457858E-3,-5.2081626E-2,5.949331E-2,-8.751562E-2,-3.5930157E-2,3.1327736E-2,7.7944356E-3,-4.077812E-2,-8.539805E-3,-3.9751317E-2,-1.8350005E-2,3.7510514E-2,-9.1189746E-4,-6.5432535E-3,1.955715E-3,-2.174505E-2,-3.7355493E-3,-6.9517195E-3,-1.9704325E-3,2.0680072E-2,6.4278044E-2,-2.5466636E-3,1.0161303E-3,-1.0020353E-3,2.1996685E-4,8.775008E-3,1.7765322E-3,6.1290357E-3,1.102245E-3,1.0514053E-3,-6.421684E-5],"categories":[],"categories_nodes":[],"categories_segments":[],"categories_sizes":[],"default_left":[0,0,0,0,0,0,0,0,0,0,0,0,0,0,0,0,0,0,0,0,0,0,0,0,0,0,0,0,0,0,0],"id":44,"left_children":[1,3,5,7,9,11,-1,13,-1,15,17,19,-1,-1,-1,21,-1,23,-1,25,27,-1,-1,-1,-1,29,-1,-1,-1,-1,-1],"loss_changes":[9.0144396E-2,5.4402165E-3,1.426477E-2,2.8268062E-4,7.668324E-5,3.144742E-3,0E0,1.1594184E-2,0E0,5.4657646E-4,1.7856981E-4,2.7253106E-3,0E0,0E0,0E0,2.6147906E-3,0E0,2.2922886E-4,0E0,4.2736996E-5,1.3934486E-3,0E0,0E0,0E0,0E0,1.6351392E-4,0E0,0E0,0E0,0E0,0E0],"parents":[2147483647,0,0,1,1,2,2,3,3,4,4,5,5,7,7,9,9,10,10,11,11,15,15,17,17,19,19,20,20,25,25],"right_children":[2,4,6,8,10,12,-1,14,-1,16,18,20,-1,-1,-1,22,-1,24,-1,26,28,-1,-1,-1,-1,30,-1,-1,-1,-1,-1],"split_conditions":[5.3E0,2E0,9.5E0,1.5E0,4.5E0,9E0,7.7944356E-3,1.3E0,-8.539805E-3,3.7E0,5.1E0,8.2E0,-9.1189746E-4,-6.5432535E-3,1.955715E-3,3.2E0,-3.7355493E-3,4.9E0,-1.9704325E-3,6E0,8.7E0,-2.5466636E-3,1.0161303E-3,-1.0020353E-3,2.1996685E-4,5.9E0,1.7765322E-3,6.1290357E-3,1.102245E-3,1.0514053E-3,-6.421684E-5],"split_indices":[0,0,0,0,0,0,0,0,0,0,0,0,0,0,0,0,0,0,0,0,0,0,0,0,0,0,0,0,0,0,0],"split_type":[0,0,0,0,0,0,0,0,0,0,0,0,0,0,0,0,0,0,0,0,0,0,0,0,0,0,0,0,0,0,0],"sum_hessian":[2.7E1,1.4E1,1.3E1,3E0,1.1E1,9E0,4E0,2E0,1E0,8E0,3E0,8E0,1E0,1E0,1E0,4E0,4E0,2E0,1E0,6E0,2E0,3E0,1E0,1E0,1E0,2E0,4E0,1E0,1E0,1E0,1E0],"tree_param":{"num_deleted":"0","num_feature":"1","num_nodes":"31","size_leaf_vector":"1"}},{"base_weights":[1.5549196E-3,-4.9585234E-2,5.6236878E-2,-8.423379E-2,-3.3903614E-2,3.602382E-2,8.875761E-3,-3.9248943E-2,-8.2195625E-3,-3.735509E-2,-1.7661884E-2,1.9523887E-2,4.9269777E-2,-6.297881E-3,1.8823744E-3,-2.0420277E-2,-3.511417E-3,-6.6910386E-3,-1.8965409E-3,8.445944E-3,2.2265876E-2,5.7012178E-2,3.9591643E-4,-2.4034136E-3,9.780251E-4,-9.644598E-4,2.1171794E-4,1.0119774E-3,-6.1808714E-5,2.3310543E-3,1.2291983E-2,5.899197E-3,3.193724E-2,-3.9624498E-4,1.4933617E-3,1.2214184E-4,4.607374E-3],"categories":[],"categories_nodes":[],"categories_segments":[],"categories_sizes":[],"default_left":[0,0,0,0,0,0,0,0,0,0,0,0,0,0,0,0,0,0,0,0,0,0,0,0,0,0,0,0,0,0,0,0,0,0,0,0,0],"id":45,"left_children":[1,3,5,7,9,11,-1,13,-1,15,17,19,21,-1,-1,23,-1,25,-1,27,29,31,-1,-1,-1,-1,-1,-1,-1,-1,33,-1,35,-1,-1,-1,-1],"loss_changes":[8.1088945E-2,5.294353E-3,1.3311915E-2,2.6187673E-4,1.2934208E-5,1.6607512E-3,0E0,1.0740919E-2,0E0,4.8635434E-4,1.6542745E-4,2.4572713E-5,1.7426098E-3,0E0,0E0,2.3628215E-3,0E0,2.1235923E-4,0E0,1.5148024E-4,5.754805E-5,2.0152889E-4,0E0,0E0,0E0,0E0,0E0,0E0,0E0,0E0,6.408565E-4,0E0,3.4757014E-3,0E0,0E0,0E0,0E0],"parents":[2147483647,0,0,1,1,2,2,3,3,4,4,5,5,7,7,9,9,10,10,11,11,12,12,15,15,17,17,19,19,20,20,21,21,30,30,32,32],"right_children":[2,4,6,8,10,12,-1,14,-1,16,18,20,22,-1,-1,24,-1,26,-1,28,30,32,-1,-1,-1,-1,-1,-1,-1,-1,34,-1,36,-1,-1,-1,-1],"split_conditions":[5.3E0,2E0,1.03E1,1.5E0,4.5E0,8.2E0,8.875761E-3,1.3E0,-8.2195625E-3,3.7E0,5.1E0,6E0,9.6E0,-6.297881E-3,1.8823744E-3,3.2E0,-3.511417E-3,4.9E0,-1.8965409E-3,5.9E0,6.8E0,8.7E0,3.9591643E-4,-2.4034136E-3,9.780251E-4,-9.644598E-4,2.1171794E-4,1.0119774E-3,-6.1808714E-5,2.3310543E-3,7.1E0,5.899197E-3,9.5E0,-3.9624498E-4,1.4933617E-3,1.2214184E-4,4.607374E-3],"split_indices":[0,0,0,0,0,0,0,0,0,0,0,0,0,0,0,0,0,0,0,0,0,0,0,0,0,0,0,0,0,0,0,0,0,0,0,0,0],"split_type":[0,0,0,0,0,0,0,0,0,0,0,0,0,0,0,0,0,0,0,0,0,0,0,0,0,0,0,0,0,0,0,0,0,0,0,0,0],"sum_hessian":[2.7E1,1.4E1,1.3E1,3E0,1.1E1,1.1E1,2E0,2E0,1E0,8E0,3E0,6E0,5E0,1E0,1E0,4E0,4E0,2E0,1E0,2E0,4E0,4E0,1E0,3E0,1E0,1E0,1E0,1E0,1E0,1E0,3E0,1E0,3E0,1E0,2E0,2E0,1E0],"tree_param":{"num_deleted":"0","num_feature":"1","num_nodes":"37","size_leaf_vector":"1"}},{"base_weights":[1.5832154E-3,-4.7214422E-2,5.3753313E-2,-8.107504E-2,-2.399476E-3,3.460562E-2,8.431974E-3,-3.7777144E-2,-7.911328E-3,1.8685076E-2,4.741198E-2,-6.0617123E-3,1.8117831E-3,8.1292195E-3,2.1281576E-2,5.4862E-2,3.810704E-4,9.74028E-4,-5.9490838E-5,2.243639E-3,1.1644378E-2,5.6779776E-3,3.0724317E-2,-3.8138556E-4,1.4186949E-3,1.16032366E-4,4.434599E-3],"categories":[],"categories_nodes":[],"categories_segments":[],"categories_sizes":[],"default_left":[0,0,0,0,0,0,0,0,0,0,0,0,0,0,0,0,0,0,0,0,0,0,0,0,0,0,0],"id":46,"left_children":[1,3,5,7,-1,9,-1,11,-1,13,15,-1,-1,17,19,21,-1,-1,-1,-1,23,-1,25,-1,-1,-1,-1],"loss_changes":[7.38197E-2,5.1372573E-3,1.1837762E-2,2.425909E-4,0E0,1.5607132E-3,0E0,9.950452E-3,0E0,1.8855324E-5,1.6134521E-3,0E0,0E0,1.4033215E-4,6.767525E-5,1.8964708E-4,0E0,0E0,0E0,0E0,5.827885E-4,0E0,3.2234835E-3,0E0,0E0,0E0,0E0],"parents":[2147483647,0,0,1,1,2,2,3,3,5,5,7,7,9,9,10,10,13,13,14,14,15,15,20,20,22,22],"right_children":[2,4,6,8,-1,10,-1,12,-1,14,16,-1,-1,18,20,22,-1,-1,-1,-1,24,-1,26,-1,-1,-1,-1],"split_conditions":[5.3E0,2E0,1.03E1,1.5E0,-2.399476E-3,8.2E0,8.431974E-3,1.3E0,-7.911328E-3,6E0,9.6E0,-6.0617123E-3,1.8117831E-3,5.9E0,6.8E0,8.7E0,3.810704E-4,9.74028E-4,-5.9490838E-5,2.243639E-3,7.1E0,5.6779776E-3,9.5E0,-3.8138556E-4,1.4186949E-3,1.16032366E-4,4.434599E-3],"split_indices":[0,0,0,0,0,0,0,0,0,0,0,0,0,0,0,0,0,0,0,0,0,0,0,0,0,0,0],"split_type":[0,0,0,0,0,0,0,0,0,0,0,0,0,0,0,0,0,0,0,0,0,0,0,0,0,0,0],"sum_hessian":[2.7E1,1.4E1,1.3E1,3E0,1.1E1,1.1E1,2E0,2E0,1E0,6E0,5E0,1E0,1E0,2E0,4E0,4E0,1E0,1E0,1E0,1E0,3E0,1E0,3E0,1E0,2E0,2E0,1E0],"tree_param":{"num_deleted":"0","num_feature":"1","num_nodes":"27","size_leaf_vector":"1"}},{"base_weights":[1.7743508E-3,-4.4644043E-2,5.1381607E-2,-7.803473E-2,-2.9793479E-2,3.3243965E-2,8.0103725E-3,-3.6360502E-2,-7.614653E-3,-3.2969102E-2,-1.5199952E-2,1.7883046E-2,4.5624375E-2,-5.8343993E-3,1.7438427E-3,-1.7254245E-2,-3.1567607E-3,-4.8404634E-3,-1.7354407E-3,7.824373E-3,2.034164E-2,5.2793097E-2,3.667787E-4,-2.8443336E-2,1.0313295E-3,-8.3831104E-4,2.937589E-4,9.3750196E-4,-5.7259855E-5,2.1595024E-3,1.10303685E-2,5.465055E-3,2.9557675E-2,-2.4378092E-3,-6.0978683E-4,-3.670838E-4,1.3477594E-3,1.1023283E-4,4.268302E-3],"categories":[],"categories_nodes":[],"categories_segments":[],"categories_sizes":[],"default_left":[0,0,0,0,0,0,0,0,0,0,0,0,0,0,0,0,0,0,0,0,0,0,0,0,0,0,0,0,0,0,0,0,0,0,0,0,0,0,0],"id":47,"left_children":[1,3,5,7,9,11,-1,13,-1,15,17,19,21,-1,-1,23,-1,25,-1,27,29,31,-1,33,-1,-1,-1,-1,-1,-1,35,-1,37,-1,-1,-1,-1,-1,-1],"loss_changes":[6.6769175E-2,5.1131323E-3,1.0522865E-2,2.2473931E-4,5.4993667E-5,1.4661914E-3,0E0,9.2181675E-3,0E0,5.6378916E-4,2.1698215E-4,1.3950514E-5,1.4938861E-3,0E0,0E0,2.1257321E-3,0E0,2.1026429E-4,0E0,1.3000456E-4,7.587997E-5,1.7838366E-4,0E0,6.566988E-5,0E0,0E0,0E0,0E0,0E0,0E0,5.3001137E-4,0E0,2.9895098E-3,0E0,0E0,0E0,0E0,0E0,0E0],"parents":[2147483647,0,0,1,1,2,2,3,3,4,4,5,5,7,7,9,9,10,10,11,11,12,12,15,15,17,17,19,19,20,20,21,21,23,23,30,30,32,32],"right_children":[2,4,6,8,10,12,-1,14,-1,16,18,20,22,-1,-1,24,-1,26,-1,28,30,32,-1,34,-1,-1,-1,-1,-1,-1,36,-1,38,-1,-1,-1,-1,-1,-1],"split_conditions":[5.3E0,2E0,1.03E1,1.5E0,4.5E0,8.2E0,8.0103725E-3,1.3E0,-7.614653E-3,3.7E0,5.1E0,6E0,9.6E0,-5.8343993E-3,1.7438427E-3,3.2E0,-3.1567607E-3,4.9E0,-1.7354407E-3,5.9E0,6.8E0,8.7E0,3.667787E-4,3E0,1.0313295E-3,-8.3831104E-4,2.937589E-4,9.3750196E-4,-5.7259855E-5,2.1595024E-3,7.1E0,5.465055E-3,9.5E0,-2.4378092E-3,-6.0978683E-4,-3.670838E-4,1.3477594E-3,1.1023283E-4,4.268302E-3],"split_indices":[0,0,0,0,0,0,0,0,0,0,0,0,0,0,0,0,0,0,0,0,0,0,0,0,0,0,0,0,0,0,0,0,0,0,0,0,0,0,0],"split_type":[0,0,0,0,0,0,0,0,0,0,0,0,0,0,0,0,0,0,0,0,0,0,0,0,0,0,0,0,0,0,0,0,0,0,0,0,0,0,0],"sum_hessian":[2.7E1,1.4E1,1.3E1,3E0,1.1E1,1.1E1,2E0,2E0,1E0,8E0,3E0,6E0,5E0,1E0,1E0,4E0,4E0,2E0,1E0,2E0,4E0,4E0,1E0,3E0,1E0,1E0,1E0,1E0,1E0,1E0,3E0,1E0,3E0,2E0,1E0,1E0,2E0,2E0,1E0],"tree_param":{"num_deleted":"0","num_feature":"1","num_nodes":"39","size_leaf_vector":"1"}},{"base_weights":[1.7513792E-3,-4.257295E-2,4.911663E-2,-7.510844E-2,-2.8180039E-2,3.193656E-2,7.6098535E-3,-3.4996986E-2,-7.329105E-3,-1.6363418E-2,-3.204292E-2,1.711616E-2,4.3904264E-2,-5.6156116E-3,1.6784505E-3,-2.7071968E-2,9.926544E-4,-2.967354E-3,-1.4629945E-2,7.5309575E-3,1.9444048E-2,5.0802328E-2,3.530234E-4,-2.3159178E-3,-5.869188E-4,-4.6589375E-3,-1.6703614E-3,9.0234546E-4,-5.511269E-5,2.078522E-3,1.0448247E-2,5.260116E-3,2.8435469E-2,-8.068733E-4,2.8274284E-4,-3.5331846E-4,1.2803704E-3,1.0471941E-4,4.1082413E-3],"categories":[],"categories_nodes":[],"categories_segments":[],"categories_sizes":[],"default_left":[0,0,0,0,0,0,0,0,0,0,0,0,0,0,0,0,0,0,0,0,0,0,0,0,0,0,0,0,0,0,0,0,0,0,0,0,0,0,0],"id":48,"left_children":[1,3,5,7,9,11,-1,13,-1,15,17,19,21,-1,-1,23,-1,-1,25,27,29,31,-1,-1,-1,33,-1,-1,-1,-1,35,-1,37,-1,-1,-1,-1,-1,-1],"loss_changes":[6.087516E-2,4.907649E-3,9.350378E-3,2.0820089E-4,2.3422763E-5,1.3769213E-3,0E0,8.539779E-3,0E0,1.9431098E-3,4.6898518E-4,9.760726E-6,1.3831863E-3,0E0,0E0,5.1433453E-5,0E0,0E0,2.0101405E-4,1.2043702E-4,8.2398416E-5,1.6772468E-4,0E0,0E0,0E0,1.9478978E-4,0E0,0E0,0E0,0E0,4.8204095E-4,0E0,2.7724858E-3,0E0,0E0,0E0,0E0,0E0,0E0],"parents":[2147483647,0,0,1,1,2,2,3,3,4,4,5,5,7,7,9,9,10,10,11,11,12,12,15,15,18,18,19,19,20,20,21,21,25,25,30,30,32,32],"right_children":[2,4,6,8,10,12,-1,14,-1,16,18,20,22,-1,-1,24,-1,-1,26,28,30,32,-1,-1,-1,34,-1,-1,-1,-1,36,-1,38,-1,-1,-1,-1,-1,-1],"split_conditions":[5.3E0,2E0,1.03E1,1.5E0,3.7E0,8.2E0,7.6098535E-3,1.3E0,-7.329105E-3,3.2E0,4.5E0,6E0,9.6E0,-5.6156116E-3,1.6784505E-3,3E0,9.926544E-4,-2.967354E-3,5.1E0,5.9E0,6.8E0,8.7E0,3.530234E-4,-2.3159178E-3,-5.869188E-4,4.9E0,-1.6703614E-3,9.0234546E-4,-5.511269E-5,2.078522E-3,7.1E0,5.260116E-3,9.5E0,-8.068733E-4,2.8274284E-4,-3.5331846E-4,1.2803704E-3,1.0471941E-4,4.1082413E-3],"split_indices":[0,0,0,0,0,0,0,0,0,0,0,0,0,0,0,0,0,0,0,0,0,0,0,0,0,0,0,0,0,0,0,0,0,0,0,0,0,0,0],"split_type":[0,0,0,0,0,0,0,0,0,0,0,0,0,0,0,0,0,0,0,0,0,0,0,0,0,0,0,0,0,0,0,0,0,0,0,0,0,0,0],"sum_hessian":[2.7E1,1.4E1,1.3E1,3E0,1.1E1,1.1E1,2E0,2E0,1E0,4E0,7E0,6E0,5E0,1E0,1E0,3E0,1E0,4E0,3E0,2E0,4E0,4E0,1E0,2E0,1E0,2E0,1E0,1E0,1E0,1E0,3E0,1E0,3E0,1E0,1E0,1E0,2E0,2E0,1E0],"tree_param":{"num_deleted":"0","num_feature":"1","num_nodes":"39","size_leaf_vector":"1"}},{"base_weights":[1.7254063E-3,-4.060253E-2,4.6953525E-2,-7.229188E-2,-2.665587E-2,3.0681241E-2,7.229361E-3,-3.368461E-2,-7.0542637E-3,-1.5518201E-2,-3.028493E-2,1.6382847E-2,4.224916E-2,-5.405027E-3,1.615508E-3,-2.5767282E-2,9.554297E-4,-2.7893125E-3,-1.4081322E-2,7.2485483E-3,1.8586855E-2,4.88868E-2,3.3978673E-4,-2.2001222E-3,-5.64909E-4,-4.4842265E-3,-1.6077228E-3,8.685077E-4,-5.3045995E-5,2.000577E-3,9.89639E-3,5.062862E-3,2.7356088E-2,-7.7661575E-4,2.7214029E-4,-3.4006947E-4,1.2163521E-3,9.948611E-5,3.9541842E-3],"categories":[],"categories_nodes":[],"categories_segments":[],"categories_sizes":[],"default_left":[0,0,0,0,0,0,0,0,0,0,0,0,0,0,0,0,0,0,0,0,0,0,0,0,0,0,0,0,0,0,0,0,0,0,0,0,0,0,0],"id":49,"left_children":[1,3,5,7,9,11,-1,13,-1,15,17,19,21,-1,-1,23,-1,-1,25,27,29,31,-1,-1,-1,33,-1,-1,-1,-1,35,-1,37,-1,-1,-1,-1,-1,-1],"loss_changes":[5.5509992E-2,4.702406E-3,8.305144E-3,1.9287504E-4,1.5064143E-5,1.2926701E-3,0E0,7.911305E-3,0E0,1.7763057E-3,3.7150737E-4,6.196671E-6,1.2806971E-3,0E0,0E0,3.927457E-5,0E0,0E0,1.8622057E-4,1.1157368E-4,8.744106E-5,1.5762914E-4,0E0,0E0,0E0,1.8045463E-4,0E0,0E0,0E0,0E0,4.3843797E-4,0E0,2.571171E-3,0E0,0E0,0E0,0E0,0E0,0E0],"parents":[2147483647,0,0,1,1,2,2,3,3,4,4,5,5,7,7,9,9,10,10,11,11,12,12,15,15,18,18,19,19,20,20,21,21,25,25,30,30,32,32],"right_children":[2,4,6,8,10,12,-1,14,-1,16,18,20,22,-1,-1,24,-1,-1,26,28,30,32,-1,-1,-1,34,-1,-1,-1,-1,36,-1,38,-1,-1,-1,-1,-1,-1],"split_conditions":[5.3E0,2E0,1.03E1,1.5E0,3.7E0,8.2E0,7.229361E-3,1.3E0,-7.0542637E-3,3.2E0,4.5E0,6E0,9.6E0,-5.405027E-3,1.615508E-3,3E0,9.554297E-4,-2.7893125E-3,5.1E0,5.9E0,6.8E0,8.7E0,3.3978673E-4,-2.2001222E-3,-5.64909E-4,4.9E0,-1.6077228E-3,8.685077E-4,-5.3045995E-5,2.000577E-3,7.1E0,5.062862E-3,9.5E0,-7.7661575E-4,2.7214029E-4,-3.4006947E-4,1.2163521E-3,9.948611E-5,3.9541842E-3],"split_indices":[0,0,0,0,0,0,0,0,0,0,0,0,0,0,0,0,0,0,0,0,0,0,0,0,0,0,0,0,0,0,0,0,0,0,0,0,0,0,0],"split_type":[0,0,0,0,0,0,0,0,0,0,0,0,0,0,0,0,0,0,0,0,0,0,0,0,0,0,0,0,0,0,0,0,0,0,0,0,0,0,0],"sum_hessian":[2.7E1,1.4E1,1.3E1,3E0,1.1E1,1.1E1,2E0,2E0,1E0,4E0,7E0,6E0,5E0,1E0,1E0,3E0,1E0,4E0,3E0,2E0,4E0,4E0,1E0,2E0,1E0,2E0,1E0,1E0,1E0,1E0,3E0,1E0,3E0,1E0,1E0,1E0,2E0,2E0,1E0],"tree_param":{"num_deleted":"0","num_feature":"1","num_nodes":"39","size_leaf_vector":"1"}},{"base_weights":[1.6968285E-3,-3.8727667E-2,4.4887587E-2,-6.958094E-2,-2.5215937E-2,2.9475868E-2,6.867895E-3,-3.242143E-2,-6.789731E-3,-1.4716243E-2,-2.8626252E-2,1.5681608E-2,4.0656526E-2,-5.2023367E-3,1.5549258E-3,-2.4525985E-2,9.196021E-4,-2.6219534E-3,-1.3553284E-2,6.976726E-3,1.7768215E-2,4.7043584E-2,3.2704623E-4,-2.090116E-3,-5.4372405E-4,-4.3160818E-3,-1.5474336E-3,8.3593844E-4,-5.105669E-5,1.9255556E-3,9.373233E-3,4.873006E-3,2.6317775E-2,-7.474937E-4,2.6193447E-4,-3.273167E-4,1.1555344E-3,9.450913E-5,3.8059028E-3],"categories":[],"categories_nodes":[],"categories_segments":[],"categories_sizes":[],"default_left":[0,0,0,0,0,0,0,0,0,0,0,0,0,0,0,0,0,0,0,0,0,0,0,0,0,0,0,0,0,0,0,0,0,0,0,0,0,0,0],"id":50,"left_children":[1,3,5,7,9,11,-1,13,-1,15,17,19,21,-1,-1,23,-1,-1,25,27,29,31,-1,-1,-1,33,-1,-1,-1,-1,35,-1,37,-1,-1,-1,-1,-1,-1],"loss_changes":[5.06254E-2,4.498668E-3,7.373642E-3,1.7868541E-4,8.416362E-6,1.2131874E-3,0E0,7.3290775E-3,0E0,1.6239386E-3,2.898574E-4,3.1817472E-6,1.1858055E-3,0E0,0E0,2.8930604E-5,0E0,0E0,1.7251534E-4,1.0336247E-4,9.1198715E-5,1.4809519E-4,0E0,0E0,0E0,1.6717438E-4,0E0,0E0,0E0,0E0,3.9880147E-4,0E0,2.3844475E-3,0E0,0E0,0E0,0E0,0E0,0E0],"parents":[2147483647,0,0,1,1,2,2,3,3,4,4,5,5,7,7,9,9,10,10,11,11,12,12,15,15,18,18,19,19,20,20,21,21,25,25,30,30,32,32],"right_children":[2,4,6,8,10,12,-1,14,-1,16,18,20,22,-1,-1,24,-1,-1,26,28,30,32,-1,-1,-1,34,-1,-1,-1,-1,36,-1,38,-1,-1,-1,-1,-1,-1],"split_conditions":[5.3E0,2E0,1.03E1,1.5E0,3.7E0,8.2E0,6.867895E-3,1.3E0,-6.789731E-3,3.2E0,4.5E0,6E0,9.6E0,-5.2023367E-3,1.5549258E-3,3E0,9.196021E-4,-2.6219534E-3,5.1E0,5.9E0,6.8E0,8.7E0,3.2704623E-4,-2.090116E-3,-5.4372405E-4,4.9E0,-1.5474336E-3,8.3593844E-4,-5.105669E-5,1.9255556E-3,7.1E0,4.873006E-3,9.5E0,-7.474937E-4,2.6193447E-4,-3.273167E-4,1.1555344E-3,9.450913E-5,3.8059028E-3],"split_indices":[0,0,0,0,0,0,0,0,0,0,0,0,0,0,0,0,0,0,0,0,0,0,0,0,0,0,0,0,0,0,0,0,0,0,0,0,0,0,0],"split_type":[0,0,0,0,0,0,0,0,0,0,0,0,0,0,0,0,0,0,0,0,0,0,0,0,0,0,0,0,0,0,0,0,0,0,0,0,0,0,0],"sum_hessian":[2.7E1,1.4E1,1.3E1,3E0,1.1E1,1.1E1,2E0,2E0,1E0,4E0,7E0,6E0,5E0,1E0,1E0,3E0,1E0,4E0,3E0,2E0,4E0,4E0,1E0,2E0,1E0,2E0,1E0,1E0,1E0,1E0,3E0,1E0,3E0,1E0,1E0,1E0,2E0,2E0,1E0],"tree_param":{"num_deleted":"0","num_feature":"1","num_nodes":"39","size_leaf_vector":"1"}},{"base_weights":[1.6660137E-3,-3.6943525E-2,4.2914376E-2,-6.697169E-2,-2.385551E-2,2.3374215E-2,5.505887E-3,-3.1205654E-2,-6.5351175E-3,-1.3955379E-2,-2.7061153E-2,2.864385E-2,-9.019688E-4,-5.0072507E-3,1.4966145E-3,-2.3345008E-2,8.8511786E-4,-2.4646365E-3,-1.3045035E-2,1.1258257E-3,5.0905865E-2,-1.9856112E-3,-5.233348E-4,-4.1542253E-3,-1.489405E-3,4.690267E-3,1.0366426E-3,-7.1946235E-4,2.5211202E-4],"categories":[],"categories_nodes":[],"categories_segments":[],"categories_sizes":[],"default_left":[0,0,0,0,0,0,0,0,0,0,0,0,0,0,0,0,0,0,0,0,0,0,0,0,0,0,0,0,0],"id":51,"left_children":[1,3,5,7,9,11,-1,13,-1,15,17,19,-1,-1,-1,21,-1,-1,23,-1,25,-1,-1,27,-1,-1,-1,-1,-1],"loss_changes":[4.6177655E-2,4.297491E-3,6.6270065E-3,1.6553141E-4,3.1874515E-6,2.2099535E-3,0E0,6.789702E-3,0E0,1.4847489E-3,2.2173859E-4,1.9673016E-3,0E0,0E0,0E0,2.0168955E-5,0E0,0E0,1.598195E-4,0E0,4.2959582E-4,0E0,0E0,1.5487133E-4,0E0,0E0,0E0,0E0,0E0],"parents":[2147483647,0,0,1,1,2,2,3,3,4,4,5,5,7,7,9,9,10,10,11,11,15,15,18,18,20,20,23,23],"right_children":[2,4,6,8,10,12,-1,14,-1,16,18,20,-1,-1,-1,22,-1,-1,24,-1,26,-1,-1,28,-1,-1,-1,-1,-1],"split_conditions":[5.3E0,2E0,9.5E0,1.5E0,3.7E0,9E0,5.505887E-3,1.3E0,-6.5351175E-3,3.2E0,4.5E0,8.2E0,-9.019688E-4,-5.0072507E-3,1.4966145E-3,3E0,8.8511786E-4,-2.4646365E-3,5.1E0,1.1258257E-3,8.7E0,-1.9856112E-3,-5.233348E-4,4.9E0,-1.489405E-3,4.690267E-3,1.0366426E-3,-7.1946235E-4,2.5211202E-4],"split_indices":[0,0,0,0,0,0,0,0,0,0,0,0,0,0,0,0,0,0,0,0,0,0,0,0,0,0,0,0,0],"split_type":[0,0,0,0,0,0,0,0,0,0,0,0,0,0,0,0,0,0,0,0,0,0,0,0,0,0,0,0,0],"sum_hessian":[2.7E1,1.4E1,1.3E1,3E0,1.1E1,9E0,4E0,2E0,1E0,4E0,7E0,8E0,1E0,1E0,1E0,3E0,1E0,4E0,3E0,6E0,2E0,2E0,1E0,2E0,1E0,1E0,1E0,1E0,1E0],"tree_param":{"num_deleted":"0","num_feature":"1","num_nodes":"29","size_leaf_vector":"1"}},{"base_weights":[1.3755517E-3,-3.5245482E-2,4.051412E-2,-6.446025E-2,-1.6927578E-3,2.6435792E-2,6.2492047E-3,-3.0035457E-2,-6.290049E-3,1.4046022E-2,3.6484558E-2,-4.8194784E-3,1.4404893E-3,5.9645474E-3,1.6085703E-2,4.320381E-2,1.0831207E-4,7.623721E-4,-9.136051E-5,1.8111304E-3,8.032925E-3,4.5143813E-3,2.3908883E-2,-3.572602E-4,1.041466E-3,8.641482E-5,3.4567104E-3],"categories":[],"categories_nodes":[],"categories_segments":[],"categories_sizes":[],"default_left":[0,0,0,0,0,0,0,0,0,0,0,0,0,0,0,0,0,0,0,0,0,0,0,0,0,0,0],"id":52,"left_children":[1,3,5,7,-1,9,-1,11,-1,13,15,-1,-1,17,19,21,-1,-1,-1,-1,23,-1,25,-1,-1,-1,-1],"loss_changes":[4.1560195E-2,4.099749E-3,6.234728E-3,1.5334226E-4,0E0,9.8156E-4,0E0,6.290015E-3,0E0,1.9441475E-5,1.350278E-3,0E0,0E0,1.0289312E-4,1.3065338E-4,1.9978732E-4,0E0,0E0,0E0,0E0,3.6575046E-4,0E0,1.9659225E-3,0E0,0E0,0E0,0E0],"parents":[2147483647,0,0,1,1,2,2,3,3,5,5,7,7,9,9,10,10,13,13,14,14,15,15,20,20,22,22],"right_children":[2,4,6,8,-1,10,-1,12,-1,14,16,-1,-1,18,20,22,-1,-1,-1,-1,24,-1,26,-1,-1,-1,-1],"split_conditions":[5.3E0,2E0,1.03E1,1.5E0,-1.6927578E-3,8.2E0,6.2492047E-3,1.3E0,-6.290049E-3,6E0,9.6E0,-4.8194784E-3,1.4404893E-3,5.9E0,6.8E0,8.7E0,1.0831207E-4,7.623721E-4,-9.136051E-5,1.8111304E-3,7.1E0,4.5143813E-3,9.5E0,-3.572602E-4,1.041466E-3,8.641482E-5,3.4567104E-3],"split_indices":[0,0,0,0,0,0,0,0,0,0,0,0,0,0,0,0,0,0,0,0,0,0,0,0,0,0,0],"split_type":[0,0,0,0,0,0,0,0,0,0,0,0,0,0,0,0,0,0,0,0,0,0,0,0,0,0,0],"sum_hessian":[2.7E1,1.4E1,1.3E1,3E0,1.1E1,1.1E1,2E0,2E0,1E0,6E0,5E0,1E0,1E0,2E0,4E0,4E0,1E0,1E0,1E0,1E0,3E0,1E0,3E0,1E0,2E0,2E0,1E0],"tree_param":{"num_deleted":"0","num_feature":"1","num_nodes":"27","size_leaf_vector":"1"}},{"base_weights":[1.4945188E-3,-3.3359513E-2,3.873137E-2,-6.204298E-2,-2.1018395E-2,2.5397452E-2,5.936745E-3,-2.8909126E-2,-6.054171E-3,-1.1879265E-2,-2.4103053E-2,1.3444902E-2,3.510918E-2,-4.6387464E-3,1.3864697E-3,-2.0951778E-2,9.1540447E-4,-2.215191E-3,-1.1286259E-2,5.740876E-3,1.5378338E-2,4.1575026E-2,1.0424853E-4,-1.8016906E-3,-4.4023097E-4,-2.869914E-3,-1.3700735E-3,7.337831E-4,-8.7934546E-5,1.7432125E-3,7.601507E-3,4.345094E-3,2.3001492E-2,-6.2900264E-4,3.0613728E-4,-3.4386257E-4,9.893924E-4,8.209348E-5,3.3270838E-3],"categories":[],"categories_nodes":[],"categories_segments":[],"categories_sizes":[],"default_left":[0,0,0,0,0,0,0,0,0,0,0,0,0,0,0,0,0,0,0,0,0,0,0,0,0,0,0,0,0,0,0,0,0,0,0,0,0,0,0],"id":53,"left_children":[1,3,5,7,9,11,-1,13,-1,15,17,19,21,-1,-1,23,-1,-1,25,27,29,31,-1,-1,-1,33,-1,-1,-1,-1,35,-1,37,-1,-1,-1,-1,-1,-1],"loss_changes":[3.763198E-2,4.005747E-3,5.5359975E-3,1.4205743E-4,5.1966403E-5,9.2092017E-4,0E0,5.8271047E-3,0E0,1.3482663E-3,2.2370182E-4,1.5981379E-5,1.2503504E-3,0E0,0E0,4.4247136E-5,0E0,0E0,1.8260448E-4,9.5320844E-5,1.2912368E-4,1.8669106E-4,0E0,0E0,0E0,1.4928699E-4,0E0,0E0,0E0,0E0,3.3298833E-4,0E0,1.823137E-3,0E0,0E0,0E0,0E0,0E0,0E0],"parents":[2147483647,0,0,1,1,2,2,3,3,4,4,5,5,7,7,9,9,10,10,11,11,12,12,15,15,18,18,19,19,20,20,21,21,25,25,30,30,32,32],"right_children":[2,4,6,8,10,12,-1,14,-1,16,18,20,22,-1,-1,24,-1,-1,26,28,30,32,-1,-1,-1,34,-1,-1,-1,-1,36,-1,38,-1,-1,-1,-1,-1,-1],"split_conditions":[5.3E0,2E0,1.03E1,1.5E0,3.7E0,8.2E0,5.936745E-3,1.3E0,-6.054171E-3,3.2E0,4.5E0,6E0,9.6E0,-4.6387464E-3,1.3864697E-3,3E0,9.1540447E-4,-2.215191E-3,5.1E0,5.9E0,6.8E0,8.7E0,1.0424853E-4,-1.8016906E-3,-4.4023097E-4,4.9E0,-1.3700735E-3,7.337831E-4,-8.7934546E-5,1.7432125E-3,7.1E0,4.345094E-3,9.5E0,-6.2900264E-4,3.0613728E-4,-3.4386257E-4,9.893924E-4,8.209348E-5,3.3270838E-3],"split_indices":[0,0,0,0,0,0,0,0,0,0,0,0,0,0,0,0,0,0,0,0,0,0,0,0,0,0,0,0,0,0,0,0,0,0,0,0,0,0,0],"split_type":[0,0,0,0,0,0,0,0,0,0,0,0,0,0,0,0,0,0,0,0,0,0,0,0,0,0,0,0,0,0,0,0,0,0,0,0,0,0,0],"sum_hessian":[2.7E1,1.4E1,1.3E1,3E0,1.1E1,1.1E1,2E0,2E0,1E0,4E0,7E0,6E0,5E0,1E0,1E0,3E0,1E0,4E0,3E0,2E0,4E0,4E0,1E0,2E0,1E0,2E0,1E0,1E0,1E0,1E0,3E0,1E0,3E0,1E0,1E0,1E0,2E0,2E0,1E0],"tree_param":{"num_deleted":"0","num_feature":"1","num_nodes":"39","size_leaf_vector":"1"}},{"base_weights":[1.4641705E-3,-3.182695E-2,3.7028644E-2,-5.9716374E-2,-1.987823E-2,2.4400393E-2,5.639908E-3,-2.7825037E-2,-5.8271396E-3,-1.125362E-2,-2.278383E-2,1.2870054E-2,3.378572E-2,-4.464792E-3,1.334475E-3,-1.9940868E-2,8.810766E-4,-2.0822785E-3,-1.0863021E-2,5.525594E-3,1.470272E-2,4.0007733E-2,1.00336976E-4,-1.7116055E-3,-4.23722E-4,-2.7622879E-3,-1.3186958E-3,7.0626644E-4,-8.463711E-5,1.6778425E-3,7.192783E-3,4.1821543E-3,2.2128642E-2,-6.0541485E-4,2.9465742E-4,-3.3096783E-4,9.399235E-4,7.7986726E-5,3.2023164E-3],"categories":[],"categories_nodes":[],"categories_segments":[],"categories_sizes":[],"default_left":[0,0,0,0,0,0,0,0,0,0,0,0,0,0,0,0,0,0,0,0,0,0,0,0,0,0,0,0,0,0,0,0,0,0,0,0,0,0,0],"id":54,"left_children":[1,3,5,7,9,11,-1,13,-1,15,17,19,21,-1,-1,23,-1,-1,25,27,29,31,-1,-1,-1,33,-1,-1,-1,-1,35,-1,37,-1,-1,-1,-1,-1,-1],"loss_changes":[3.4329984E-2,3.8115885E-3,4.913427E-3,1.316024E-4,4.4315588E-5,8.637677E-4,0E0,5.3982576E-3,0E0,1.2333496E-3,1.7331587E-4,1.2978446E-5,1.1578249E-3,0E0,0E0,3.573345E-5,0E0,0E0,1.6916616E-4,8.830591E-5,1.270388E-4,1.7442554E-4,0E0,0E0,0E0,1.3830044E-4,0E0,0E0,0E0,0E0,3.031796E-4,0E0,1.6906981E-3,0E0,0E0,0E0,0E0,0E0,0E0],"parents":[2147483647,0,0,1,1,2,2,3,3,4,4,5,5,7,7,9,9,10,10,11,11,12,12,15,15,18,18,19,19,20,20,21,21,25,25,30,30,32,32],"right_children":[2,4,6,8,10,12,-1,14,-1,16,18,20,22,-1,-1,24,-1,-1,26,28,30,32,-1,-1,-1,34,-1,-1,-1,-1,36,-1,38,-1,-1,-1,-1,-1,-1],"split_conditions":[5.3E0,2E0,1.03E1,1.5E0,3.7E0,8.2E0,5.639908E-3,1.3E0,-5.8271396E-3,3.2E0,4.5E0,6E0,9.6E0,-4.464792E-3,1.334475E-3,3E0,8.810766E-4,-2.0822785E-3,5.1E0,5.9E0,6.8E0,8.7E0,1.00336976E-4,-1.7116055E-3,-4.23722E-4,4.9E0,-1.3186958E-3,7.0626644E-4,-8.463711E-5,1.6778425E-3,7.1E0,4.1821543E-3,9.5E0,-6.0541485E-4,2.9465742E-4,-3.3096783E-4,9.399235E-4,7.7986726E-5,3.2023164E-3],"split_indices":[0,0,0,0,0,0,0,0,0,0,0,0,0,0,0,0,0,0,0,0,0,0,0,0,0,0,0,0,0,0,0,0,0,0,0,0,0,0,0],"split_type":[0,0,0,0,0,0,0,0,0,0,0,0,0,0,0,0,0,0,0,0,0,0,0,0,0,0,0,0,0,0,0,0,0,0,0,0,0,0,0],"sum_hessian":[2.7E1,1.4E1,1.3E1,3E0,1.1E1,1.1E1,2E0,2E0,1E0,4E0,7E0,6E0,5E0,1E0,1E0,3E0,1E0,4E0,3E0,2E0,4E0,4E0,1E0,2E0,1E0,2E0,1E0,1E0,1E0,1E0,3E0,1E0,3E0,1E0,1E0,1E0,2E0,2E0,1E0],"tree_param":{"num_deleted":"0","num_feature":"1","num_nodes":"39","size_leaf_vector":"1"}},{"base_weights":[1.4324944E-3,-3.0368151E-2,3.5402294E-2,-5.7476997E-2,-1.880119E-2,1.2320288E-2,5.117376E-2,-2.6781598E-2,-5.60862E-3,-1.0660445E-2,-2.1539006E-2,5.318383E-3,1.4057374E-2,3.2512266E-2,5.3579123E-3,-4.297364E-3,1.284434E-3,-1.8979132E-2,8.480363E-4,-1.9573413E-3,-1.04556605E-2,6.797813E-4,-8.1463164E-5,1.6149223E-3,6.805569E-3,3.8499665E-2,9.657294E-5,-1.6260252E-3,-4.0783212E-4,-2.658705E-3,-1.2692448E-3,-3.1855702E-4,8.929283E-4,4.025325E-3,2.128908E-2,-5.827122E-4,2.8360786E-4,7.408858E-5,3.0822293E-3],"categories":[],"categories_nodes":[],"categories_segments":[],"categories_sizes":[],"default_left":[0,0,0,0,0,0,0,0,0,0,0,0,0,0,0,0,0,0,0,0,0,0,0,0,0,0,0,0,0,0,0,0,0,0,0,0,0,0,0],"id":55,"left_children":[1,3,5,7,9,11,13,15,-1,17,19,21,23,25,-1,-1,-1,27,-1,-1,29,-1,-1,-1,31,33,-1,-1,-1,35,-1,-1,-1,-1,37,-1,-1,-1,-1],"loss_changes":[3.1322423E-2,3.622868E-3,4.466044E-3,1.2191571E-4,3.7838705E-5,1.0377727E-5,7.027723E-4,5.0009866E-3,0E0,1.1283075E-3,1.3135024E-4,8.180709E-5,1.2449396E-4,1.072152E-3,0E0,0E0,0E0,2.8419541E-5,0E0,0E0,1.5671653E-4,0E0,0E0,0E0,2.7605597E-4,1.6293162E-4,0E0,0E0,0E0,1.2812251E-4,0E0,0E0,0E0,0E0,1.5678543E-3,0E0,0E0,0E0,0E0],"parents":[2147483647,0,0,1,1,2,2,3,3,4,4,5,5,6,6,7,7,9,9,10,10,11,11,12,12,13,13,17,17,20,20,24,24,25,25,29,29,34,34],"right_children":[2,4,6,8,10,12,14,16,-1,18,20,22,24,26,-1,-1,-1,28,-1,-1,30,-1,-1,-1,32,34,-1,-1,-1,36,-1,-1,-1,-1,38,-1,-1,-1,-1],"split_conditions":[5.3E0,2E0,8.2E0,1.5E0,3.7E0,6E0,1.03E1,1.3E0,-5.60862E-3,3.2E0,4.5E0,5.9E0,6.8E0,9.6E0,5.3579123E-3,-4.297364E-3,1.284434E-3,3E0,8.480363E-4,-1.9573413E-3,5.1E0,6.797813E-4,-8.1463164E-5,1.6149223E-3,7.1E0,8.7E0,9.657294E-5,-1.6260252E-3,-4.0783212E-4,4.9E0,-1.2692448E-3,-3.1855702E-4,8.929283E-4,4.025325E-3,9.5E0,-5.827122E-4,2.8360786E-4,7.408858E-5,3.0822293E-3],"split_indices":[0,0,0,0,0,0,0,0,0,0,0,0,0,0,0,0,0,0,0,0,0,0,0,0,0,0,0,0,0,0,0,0,0,0,0,0,0,0,0],"split_type":[0,0,0,0,0,0,0,0,0,0,0,0,0,0,0,0,0,0,0,0,0,0,0,0,0,0,0,0,0,0,0,0,0,0,0,0,0,0,0],"sum_hessian":[2.7E1,1.4E1,1.3E1,3E0,1.1E1,6E0,7E0,2E0,1E0,4E0,7E0,2E0,4E0,5E0,2E0,1E0,1E0,3E0,1E0,4E0,3E0,1E0,1E0,1E0,3E0,4E0,1E0,2E0,1E0,2E0,1E0,1E0,2E0,1E0,3E0,1E0,1E0,2E0,1E0],"tree_param":{"num_deleted":"0","num_feature":"1","num_nodes":"39","size_leaf_vector":"1"}},{"base_weights":[1.3997225E-3,-2.897941E-2,3.384881E-2,-5.5321604E-2,-1.7783726E-2,1.1794494E-2,4.8915237E-2,-2.57773E-2,-5.3982944E-3,-1.0848154E-2,-2.118797E-2,5.118946E-3,1.3440925E-2,3.1286854E-2,5.090019E-3,-4.136212E-3,1.236266E-3,-1.8064171E-2,2.3892522E-3,-2.2365646E-3,-1.1770641E-2,6.5428973E-4,-7.840824E-5,1.5543626E-3,6.4387396E-3,3.704848E-2,9.295196E-5,-1.5447245E-3,-3.9253908E-4,8.162342E-4,-5.4744334E-4,-6.568983E-3,-1.221648E-3,-3.0661115E-4,8.482814E-4,3.874375E-3,2.0481437E-2,-8.3888025E-4,2.729729E-4,7.038117E-5,2.966644E-3],"categories":[],"categories_nodes":[],"categories_segments":[],"categories_sizes":[],"default_left":[0,0,0,0,0,0,0,0,0,0,0,0,0,0,0,0,0,0,0,0,0,0,0,0,0,0,0,0,0,0,0,0,0,0,0,0,0,0,0,0,0],"id":56,"left_children":[1,3,5,7,9,11,13,15,-1,17,19,21,23,25,-1,-1,-1,27,29,-1,31,-1,-1,-1,33,35,-1,-1,-1,-1,-1,37,-1,-1,-1,-1,39,-1,-1,-1,-1],"loss_changes":[2.8582621E-2,3.4399582E-3,4.074985E-3,1.12939626E-4,5.347398E-5,8.132309E-6,5.493574E-4,4.6329405E-3,0E0,6.162879E-4,2.1808082E-4,7.5786615E-5,1.2157456E-4,9.928187E-4,0E0,0E0,0E0,2.2155233E-5,3.263171E-4,0E0,1.050561E-5,0E0,0E0,0E0,2.5137316E-4,1.5217345E-4,0E0,0E0,0E0,0E0,0E0,2.2920516E-4,0E0,0E0,0E0,0E0,1.4539207E-3,0E0,0E0,0E0,0E0],"parents":[2147483647,0,0,1,1,2,2,3,3,4,4,5,5,6,6,7,7,9,9,10,10,11,11,12,12,13,13,17,17,18,18,20,20,24,24,25,25,31,31,36,36],"right_children":[2,4,6,8,10,12,14,16,-1,18,20,22,24,26,-1,-1,-1,28,30,-1,32,-1,-1,-1,34,36,-1,-1,-1,-1,-1,38,-1,-1,-1,-1,40,-1,-1,-1,-1],"split_conditions":[5.3E0,2E0,8.2E0,1.5E0,4E0,6E0,1.03E1,1.3E0,-5.3982944E-3,3.2E0,4.1E0,5.9E0,6.8E0,9.6E0,5.090019E-3,-4.136212E-3,1.236266E-3,3E0,3.7E0,-2.2365646E-3,5.1E0,6.5428973E-4,-7.840824E-5,1.5543626E-3,7.1E0,8.7E0,9.295196E-5,-1.5447245E-3,-3.9253908E-4,8.162342E-4,-5.4744334E-4,4.9E0,-1.221648E-3,-3.0661115E-4,8.482814E-4,3.874375E-3,9.5E0,-8.3888025E-4,2.729729E-4,7.038117E-5,2.966644E-3],"split_indices":[0,0,0,0,0,0,0,0,0,0,0,0,0,0,0,0,0,0,0,0,0,0,0,0,0,0,0,0,0,0,0,0,0,0,0,0,0,0,0,0,0],"split_type":[0,0,0,0,0,0,0,0,0,0,0,0,0,0,0,0,0,0,0,0,0,0,0,0,0,0,0,0,0,0,0,0,0,0,0,0,0,0,0,0,0],"sum_hessian":[2.7E1,1.4E1,1.3E1,3E0,1.1E1,6E0,7E0,2E0,1E0,5E0,6E0,2E0,4E0,5E0,2E0,1E0,1E0,3E0,2E0,2E0,4E0,1E0,1E0,1E0,3E0,4E0,1E0,2E0,1E0,1E0,1E0,3E0,1E0,1E0,2E0,1E0,3E0,2E0,1E0,2E0,1E0],"tree_param":{"num_deleted":"0","num_feature":"1","num_nodes":"41","size_leaf_vector":"1"}},{"base_weights":[1.322436E-3,-2.7738681E-2,3.2364886E-2,-5.3247064E-2,-1.692433E-2,1.1291604E-2,4.67584E-2,-2.4810672E-2,-5.1958594E-3,-1.0312617E-2,-2.0173749E-2,4.9269847E-3,1.2852055E-2,3.0107737E-2,4.8355195E-3,-3.9811046E-3,1.1899039E-3,-1.7193675E-2,2.2996664E-3,-2.1247372E-3,-1.1245352E-2,6.2975363E-4,-7.546786E-5,1.4960737E-3,6.0912445E-3,3.565214E-2,8.946509E-5,-1.4674887E-3,-3.778182E-4,7.856258E-4,-5.2691327E-4,-6.217785E-3,-1.1758357E-3,-2.9511342E-4,8.0586673E-4,3.7290843E-3,1.970461E-2,-7.969365E-4,2.6273692E-4,6.686449E-5,2.855395E-3],"categories":[],"categories_nodes":[],"categories_segments":[],"categories_sizes":[],"default_left":[0,0,0,0,0,0,0,0,0,0,0,0,0,0,0,0,0,0,0,0,0,0,0,0,0,0,0,0,0,0,0,0,0,0,0,0,0,0,0,0,0],"id":57,"left_children":[1,3,5,7,9,11,13,15,-1,17,19,21,23,25,-1,-1,-1,27,29,-1,31,-1,-1,-1,33,35,-1,-1,-1,-1,-1,37,-1,-1,-1,-1,39,-1,-1,-1,-1],"loss_changes":[2.6157351E-2,3.2366784E-3,3.7184814E-3,1.0462571E-4,4.976662E-5,6.1998144E-6,4.1860342E-4,4.291981E-3,0E0,5.6025485E-4,1.9116607E-4,7.020914E-5,1.1835381E-4,9.1936486E-4,0E0,0E0,0E0,1.681014E-5,3.0230184E-4,0E0,1.39412E-5,0E0,0E0,0E0,2.2891094E-4,1.4209235E-4,0E0,0E0,0E0,0E0,0E0,2.0862496E-4,0E0,0E0,0E0,0E0,1.3482416E-3,0E0,0E0,0E0,0E0],"parents":[2147483647,0,0,1,1,2,2,3,3,4,4,5,5,6,6,7,7,9,9,10,10,11,11,12,12,13,13,17,17,18,18,20,20,24,24,25,25,31,31,36,36],"right_children":[2,4,6,8,10,12,14,16,-1,18,20,22,24,26,-1,-1,-1,28,30,-1,32,-1,-1,-1,34,36,-1,-1,-1,-1,-1,38,-1,-1,-1,-1,40,-1,-1,-1,-1],"split_conditions":[5.3E0,2E0,8.2E0,1.5E0,4E0,6E0,1.03E1,1.3E0,-5.1958594E-3,3.2E0,4.1E0,5.9E0,6.8E0,9.6E0,4.8355195E-3,-3.9811046E-3,1.1899039E-3,3E0,3.7E0,-2.1247372E-3,5.1E0,6.2975363E-4,-7.546786E-5,1.4960737E-3,7.1E0,8.7E0,8.946509E-5,-1.4674887E-3,-3.778182E-4,7.856258E-4,-5.2691327E-4,4.9E0,-1.1758357E-3,-2.9511342E-4,8.0586673E-4,3.7290843E-3,9.5E0,-7.969365E-4,2.6273692E-4,6.686449E-5,2.855395E-3],"split_indices":[0,0,0,0,0,0,0,0,0,0,0,0,0,0,0,0,0,0,0,0,0,0,0,0,0,0,0,0,0,0,0,0,0,0,0,0,0,0,0,0,0],"split_type":[0,0,0,0,0,0,0,0,0,0,0,0,0,0,0,0,0,0,0,0,0,0,0,0,0,0,0,0,0,0,0,0,0,0,0,0,0,0,0,0,0],"sum_hessian":[2.7E1,1.4E1,1.3E1,3E0,1.1E1,6E0,7E0,2E0,1E0,5E0,6E0,2E0,4E0,5E0,2E0,1E0,1E0,3E0,2E0,2E0,4E0,1E0,1E0,1E0,3E0,4E0,1E0,2E0,1E0,1E0,1E0,3E0,1E0,1E0,2E0,1E0,3E0,2E0,1E0,2E0,1E0],"tree_param":{"num_deleted":"0","num_feature":"1","num_nodes":"41","size_leaf_vector":"1"}},{"base_weights":[1.2492854E-3,-2.6552187E-2,3.0947343E-2,-5.125031E-2,-1.6106797E-2,1.0810608E-2,4.4698566E-2,-2.3880282E-2,-5.0010146E-3,-9.803613E-3,-1.9208554E-2,1.3156472E-2,5.762093E-3,2.8973123E-2,4.593745E-3,-3.8318129E-3,1.1452809E-3,-1.6365483E-2,2.2134185E-3,-2.018501E-3,-1.074397E-2,4.7422224E-3,1.4399708E-3,-2.8404707E-4,7.65574E-4,3.4308482E-2,8.6112326E-5,-1.3941155E-3,-3.6364945E-4,7.561639E-4,-5.071543E-4,-5.8850124E-3,-1.1317425E-3,6.061379E-4,-7.263786E-5,3.589243E-3,1.8957317E-2,-7.5709075E-4,2.5288426E-4,6.3520674E-5,2.7483166E-3],"categories":[],"categories_nodes":[],"categories_segments":[],"categories_sizes":[],"default_left":[0,0,0,0,0,0,0,0,0,0,0,0,0,0,0,0,0,0,0,0,0,0,0,0,0,0,0,0,0,0,0,0,0,0,0,0,0,0,0,0,0],"id":58,"left_children":[1,3,5,7,9,11,13,15,-1,17,19,21,23,25,-1,-1,-1,27,29,-1,31,33,-1,-1,-1,35,-1,-1,-1,-1,-1,37,-1,-1,-1,-1,39,-1,-1,-1,-1],"loss_changes":[2.3939911E-2,3.0442448E-3,3.393448E-3,9.692274E-5,4.6297908E-5,7.093011E-6,3.076177E-4,3.9761146E-3,0E0,5.093489E-4,1.6736914E-4,1.12345035E-4,2.0846889E-4,8.5134525E-4,0E0,0E0,0E0,1.2266915E-5,2.800541E-4,0E0,1.6779173E-5,6.504221E-5,0E0,0E0,0E0,1.3266271E-4,0E0,0E0,0E0,0E0,0E0,1.8990388E-4,0E0,0E0,0E0,0E0,1.2502302E-3,0E0,0E0,0E0,0E0],"parents":[2147483647,0,0,1,1,2,2,3,3,4,4,5,5,6,6,7,7,9,9,10,10,11,11,12,12,13,13,17,17,18,18,20,20,21,21,25,25,31,31,36,36],"right_children":[2,4,6,8,10,12,14,16,-1,18,20,22,24,26,-1,-1,-1,28,30,-1,32,34,-1,-1,-1,36,-1,-1,-1,-1,-1,38,-1,-1,-1,-1,40,-1,-1,-1,-1],"split_conditions":[5.3E0,2E0,8.2E0,1.5E0,4E0,6.8E0,1.03E1,1.3E0,-5.0010146E-3,3.2E0,4.1E0,6E0,7.1E0,9.6E0,4.593745E-3,-3.8318129E-3,1.1452809E-3,3E0,3.7E0,-2.018501E-3,5.1E0,5.9E0,1.4399708E-3,-2.8404707E-4,7.65574E-4,8.7E0,8.6112326E-5,-1.3941155E-3,-3.6364945E-4,7.561639E-4,-5.071543E-4,4.9E0,-1.1317425E-3,6.061379E-4,-7.263786E-5,3.589243E-3,9.5E0,-7.5709075E-4,2.5288426E-4,6.3520674E-5,2.7483166E-3],"split_indices":[0,0,0,0,0,0,0,0,0,0,0,0,0,0,0,0,0,0,0,0,0,0,0,0,0,0,0,0,0,0,0,0,0,0,0,0,0,0,0,0,0],"split_type":[0,0,0,0,0,0,0,0,0,0,0,0,0,0,0,0,0,0,0,0,0,0,0,0,0,0,0,0,0,0,0,0,0,0,0,0,0,0,0,0,0],"sum_hessian":[2.7E1,1.4E1,1.3E1,3E0,1.1E1,6E0,7E0,2E0,1E0,5E0,6E0,3E0,3E0,5E0,2E0,1E0,1E0,3E0,2E0,2E0,4E0,2E0,1E0,1E0,2E0,4E0,1E0,2E0,1E0,1E0,1E0,3E0,1E0,1E0,1E0,1E0,3E0,2E0,1E0,2E0,1E0],"tree_param":{"num_deleted":"0","num_feature":"1","num_nodes":"41","size_leaf_vector":"1"}},{"base_weights":[1.1800671E-3,-2.5417473E-2,2.9593142E-2,-4.9328387E-2,-1.5329045E-2,1.0350527E-2,4.2731285E-2,-2.2984743E-2,-4.8134746E-3,-9.3197925E-3,-1.828997E-2,1.26631E-2,5.450323E-3,2.7881324E-2,4.3640584E-3,-3.688118E-3,1.1023344E-3,-1.557751E-2,2.130429E-3,-1.9175754E-3,-1.0265356E-2,4.5643896E-3,1.3859712E-3,-2.7339533E-4,7.272959E-4,3.3015538E-2,8.288473E-5,-1.3244094E-3,-3.5001265E-4,7.278085E-4,-4.8813524E-4,-5.5696815E-3,-1.0893021E-3,5.834079E-4,-6.9914015E-5,3.4546452E-3,1.8238455E-2,-7.1923586E-4,2.4340153E-4,6.0343747E-5,2.6452527E-3],"categories":[],"categories_nodes":[],"categories_segments":[],"categories_sizes":[],"default_left":[0,0,0,0,0,0,0,0,0,0,0,0,0,0,0,0,0,0,0,0,0,0,0,0,0,0,0,0,0,0,0,0,0,0,0,0,0,0,0,0,0],"id":59,"left_children":[1,3,5,7,9,11,13,15,-1,17,19,21,23,25,-1,-1,-1,27,29,-1,31,33,-1,-1,-1,35,-1,-1,-1,-1,-1,37,-1,-1,-1,-1,39,-1,-1,-1,-1],"loss_changes":[2.1912284E-2,2.8621964E-3,3.0970788E-3,8.9793466E-5,4.305644E-5,1.03065395E-5,2.138447E-4,3.6834967E-3,0E0,4.6310032E-4,1.4634384E-4,1.0407693E-4,1.8986352E-4,7.8836177E-4,0E0,0E0,0E0,8.422008E-6,2.594438E-4,0E0,1.9092462E-5,6.0255552E-5,0E0,0E0,0E0,1.2383983E-4,0E0,0E0,0E0,0E0,0E0,1.7287268E-4,0E0,0E0,0E0,0E0,1.1593278E-3,0E0,0E0,0E0,0E0],"parents":[2147483647,0,0,1,1,2,2,3,3,4,4,5,5,6,6,7,7,9,9,10,10,11,11,12,12,13,13,17,17,18,18,20,20,21,21,25,25,31,31,36,36],"right_children":[2,4,6,8,10,12,14,16,-1,18,20,22,24,26,-1,-1,-1,28,30,-1,32,34,-1,-1,-1,36,-1,-1,-1,-1,-1,38,-1,-1,-1,-1,40,-1,-1,-1,-1],"split_conditions":[5.3E0,2E0,8.2E0,1.5E0,4E0,6.8E0,1.03E1,1.3E0,-4.8134746E-3,3.2E0,4.1E0,6E0,7.1E0,9.6E0,4.3640584E-3,-3.688118E-3,1.1023344E-3,3E0,3.7E0,-1.9175754E-3,5.1E0,5.9E0,1.3859712E-3,-2.7339533E-4,7.272959E-4,8.7E0,8.288473E-5,-1.3244094E-3,-3.5001265E-4,7.278085E-4,-4.8813524E-4,4.9E0,-1.0893021E-3,5.834079E-4,-6.9914015E-5,3.4546452E-3,9.5E0,-7.1923586E-4,2.4340153E-4,6.0343747E-5,2.6452527E-3],"split_indices":[0,0,0,0,0,0,0,0,0,0,0,0,0,0,0,0,0,0,0,0,0,0,0,0,0,0,0,0,0,0,0,0,0,0,0,0,0,0,0,0,0],"split_type":[0,0,0,0,0,0,0,0,0,0,0,0,0,0,0,0,0,0,0,0,0,0,0,0,0,0,0,0,0,0,0,0,0,0,0,0,0,0,0,0,0],"sum_hessian":[2.7E1,1.4E1,1.3E1,3E0,1.1E1,6E0,7E0,2E0,1E0,5E0,6E0,3E0,3E0,5E0,2E0,1E0,1E0,3E0,2E0,2E0,4E0,2E0,1E0,1E0,2E0,4E0,1E0,2E0,1E0,1E0,1E0,3E0,1E0,1E0,1E0,1E0,3E0,2E0,1E0,2E0,1E0],"tree_param":{"num_deleted":"0","num_feature":"1","num_nodes":"41","size_leaf_vector":"1"}},{"base_weights":[1.1145616E-3,-2.4332276E-2,2.8299417E-2,-4.7478586E-2,-1.4589149E-2,9.910433E-3,4.0852353E-2,-2.212282E-2,-4.632971E-3,-8.859932E-3,-1.7415741E-2,1.218823E-2,5.155027E-3,2.6830753E-2,4.145858E-3,-3.5498145E-3,1.060997E-3,-1.4827803E-2,2.0505388E-3,-1.8216954E-3,-9.808475E-3,4.393225E-3,1.3339967E-3,-2.631426E-4,6.909311E-4,3.177142E-2,7.977784E-5,-1.2581885E-3,-3.368877E-4,7.0051476E-4,-4.6982916E-4,-5.270906E-3,-1.0484532E-3,5.6153E-4,-6.729216E-5,3.3250945E-3,1.7546982E-2,-6.832734E-4,2.3427421E-4,5.732775E-5,2.5460557E-3],"categories":[],"categories_nodes":[],"categories_segments":[],"categories_sizes":[],"default_left":[0,0,0,0,0,0,0,0,0,0,0,0,0,0,0,0,0,0,0,0,0,0,0,0,0,0,0,0,0,0,0,0,0,0,0,0,0,0,0,0,0],"id":60,"left_children":[1,3,5,7,9,11,13,15,-1,17,19,21,23,25,-1,-1,-1,27,29,-1,31,33,-1,-1,-1,35,-1,-1,-1,-1,-1,37,-1,-1,-1,-1,39,-1,-1,-1,-1],"loss_changes":[2.005811E-2,2.690089E-3,2.826835E-3,8.31848E-5,4.0027546E-5,1.2992299E-5,1.3502315E-4,3.4124167E-3,0E0,4.2107864E-4,1.2778072E-4,9.641732E-5,1.7292865E-4,7.300433E-4,0E0,0E0,0E0,5.185255E-6,2.4034956E-4,0E0,2.0944746E-5,5.5821085E-5,0E0,0E0,0E0,1.1558179E-4,0E0,0E0,0E0,0E0,0E0,1.5737802E-4,0E0,0E0,0E0,0E0,1.0750195E-3,0E0,0E0,0E0,0E0],"parents":[2147483647,0,0,1,1,2,2,3,3,4,4,5,5,6,6,7,7,9,9,10,10,11,11,12,12,13,13,17,17,18,18,20,20,21,21,25,25,31,31,36,36],"right_children":[2,4,6,8,10,12,14,16,-1,18,20,22,24,26,-1,-1,-1,28,30,-1,32,34,-1,-1,-1,36,-1,-1,-1,-1,-1,38,-1,-1,-1,-1,40,-1,-1,-1,-1],"split_conditions":[5.3E0,2E0,8.2E0,1.5E0,4E0,6.8E0,1.03E1,1.3E0,-4.632971E-3,3.2E0,4.1E0,6E0,7.1E0,9.6E0,4.145858E-3,-3.5498145E-3,1.060997E-3,3E0,3.7E0,-1.8216954E-3,5.1E0,5.9E0,1.3339967E-3,-2.631426E-4,6.909311E-4,8.7E0,7.977784E-5,-1.2581885E-3,-3.368877E-4,7.0051476E-4,-4.6982916E-4,4.9E0,-1.0484532E-3,5.6153E-4,-6.729216E-5,3.3250945E-3,9.5E0,-6.832734E-4,2.3427421E-4,5.732775E-5,2.5460557E-3],"split_indices":[0,0,0,0,0,0,0,0,0,0,0,0,0,0,0,0,0,0,0,0,0,0,0,0,0,0,0,0,0,0,0,0,0,0,0,0,0,0,0,0,0],"split_type":[0,0,0,0,0,0,0,0,0,0,0,0,0,0,0,0,0,0,0,0,0,0,0,0,0,0,0,0,0,0,0,0,0,0,0,0,0,0,0,0,0],"sum_hessian":[2.7E1,1.4E1,1.3E1,3E0,1.1E1,6E0,7E0,2E0,1E0,5E0,6E0,3E0,3E0,5E0,2E0,1E0,1E0,3E0,2E0,2E0,4E0,2E0,1E0,1E0,2E0,4E0,1E0,2E0,1E0,1E0,1E0,3E0,1E0,1E0,1E0,1E0,3E0,2E0,1E0,2E0,1E0],"tree_param":{"num_deleted":"0","num_feature":"1","num_nodes":"41","size_leaf_vector":"1"}},{"base_weights":[1.0525632E-3,-2.3294386E-2,2.7063396E-2,-4.5698136E-2,-1.388527E-2,9.489437E-3,3.9057687E-2,-2.1293202E-2,-4.4592354E-3,-8.422852E-3,-1.6583731E-2,1.1731166E-2,4.875347E-3,2.5819818E-2,3.938565E-3,-3.4166963E-3,1.0212109E-3,-1.4114499E-2,1.973629E-3,-1.7306105E-3,-9.372341E-3,4.228478E-3,1.2839712E-3,-2.532743E-4,6.563843E-4,3.0574251E-2,7.6787175E-5,-1.1952802E-3,-3.242545E-4,6.742448E-4,-4.522115E-4,-4.987851E-3,-1.0091364E-3,5.404724E-4,-6.476865E-5,3.200403E-3,1.6881794E-2,-6.49111E-4,2.2548885E-4,5.446077E-5,2.450578E-3],"categories":[],"categories_nodes":[],"categories_segments":[],"categories_sizes":[],"default_left":[0,0,0,0,0,0,0,0,0,0,0,0,0,0,0,0,0,0,0,0,0,0,0,0,0,0,0,0,0,0,0,0,0,0,0,0,0,0,0,0,0],"id":61,"left_children":[1,3,5,7,9,11,13,15,-1,17,19,21,23,25,-1,-1,-1,27,29,-1,31,33,-1,-1,-1,35,-1,-1,-1,-1,-1,37,-1,-1,-1,-1,39,-1,-1,-1,-1],"loss_changes":[1.8362388E-2,2.5274614E-3,2.5803857E-3,7.706601E-5,3.719912E-5,1.521135E-5,6.917678E-5,3.1612865E-3,0E0,3.828954E-4,1.11402594E-4,8.932146E-5,1.5751357E-4,6.760424E-4,0E0,0E0,0E0,2.4777255E-6,2.2266146E-4,0E0,2.2392924E-5,5.171295E-5,0E0,0E0,0E0,1.0786159E-4,0E0,0E0,0E0,0E0,0E0,1.4328104E-4,0E0,0E0,0E0,0E0,9.968313E-4,0E0,0E0,0E0,0E0],"parents":[2147483647,0,0,1,1,2,2,3,3,4,4,5,5,6,6,7,7,9,9,10,10,11,11,12,12,13,13,17,17,18,18,20,20,21,21,25,25,31,31,36,36],"right_children":[2,4,6,8,10,12,14,16,-1,18,20,22,24,26,-1,-1,-1,28,30,-1,32,34,-1,-1,-1,36,-1,-1,-1,-1,-1,38,-1,-1,-1,-1,40,-1,-1,-1,-1],"split_conditions":[5.3E0,2E0,8.2E0,1.5E0,4E0,6.8E0,1.03E1,1.3E0,-4.4592354E-3,3.2E0,4.1E0,6E0,7.1E0,9.6E0,3.938565E-3,-3.4166963E-3,1.0212109E-3,3E0,3.7E0,-1.7306105E-3,5.1E0,5.9E0,1.2839712E-3,-2.532743E-4,6.563843E-4,8.7E0,7.6787175E-5,-1.1952802E-3,-3.242545E-4,6.742448E-4,-4.522115E-4,4.9E0,-1.0091364E-3,5.404724E-4,-6.476865E-5,3.200403E-3,9.5E0,-6.49111E-4,2.2548885E-4,5.446077E-5,2.450578E-3],"split_indices":[0,0,0,0,0,0,0,0,0,0,0,0,0,0,0,0,0,0,0,0,0,0,0,0,0,0,0,0,0,0,0,0,0,0,0,0,0,0,0,0,0],"split_type":[0,0,0,0,0,0,0,0,0,0,0,0,0,0,0,0,0,0,0,0,0,0,0,0,0,0,0,0,0,0,0,0,0,0,0,0,0,0,0,0,0],"sum_hessian":[2.7E1,1.4E1,1.3E1,3E0,1.1E1,6E0,7E0,2E0,1E0,5E0,6E0,3E0,3E0,5E0,2E0,1E0,1E0,3E0,2E0,2E0,4E0,2E0,1E0,1E0,2E0,4E0,1E0,2E0,1E0,1E0,1E0,3E0,1E0,1E0,1E0,1E0,3E0,2E0,1E0,2E0,1E0],"tree_param":{"num_deleted":"0","num_feature":"1","num_nodes":"41","size_leaf_vector":"1"}},{"base_weights":[9.93905E-4,-2.2301683E-2,2.5882471E-2,-4.3984473E-2,-1.3215614E-2,9.086706E-3,3.7343457E-2,-2.0494739E-2,-4.292013E-3,-7.2875144E-3,-1.5268724E-2,1.1291256E-2,4.610479E-3,2.484703E-2,3.741637E-3,-3.2885717E-3,9.829134E-4,-1.0076847E-3,6.489605E-4,-1.3728655E-3,-7.656358E-3,4.069912E-3,1.2358234E-3,-2.4377705E-4,6.235659E-4,2.9422259E-2,7.3908275E-5,-1.5747547E-3,-9.7129383E-4,5.2020495E-4,-6.233985E-5,3.0803876E-3,1.6241908E-2,-3.941931E-4,2.1703319E-4,5.173683E-5,2.358681E-3],"categories":[],"categories_nodes":[],"categories_segments":[],"categories_sizes":[],"default_left":[0,0,0,0,0,0,0,0,0,0,0,0,0,0,0,0,0,0,0,0,0,0,0,0,0,0,0,0,0,0,0,0,0,0,0,0,0],"id":62,"left_children":[1,3,5,7,9,11,13,15,-1,17,19,21,23,25,-1,-1,-1,-1,-1,-1,27,29,-1,-1,-1,31,-1,33,-1,-1,-1,-1,35,-1,-1,-1,-1],"loss_changes":[1.681145E-2,2.3738886E-3,2.3556156E-3,7.13896E-5,3.4781406E-5,1.7018465E-5,1.4564022E-5,2.9286332E-3,0E0,6.0628523E-4,4.4749584E-5,8.274824E-5,1.43482E-4,6.2603946E-4,0E0,0E0,0E0,0E0,0E0,0E0,1.0839553E-4,4.7907248E-5,0E0,0E0,0E0,1.0064244E-4,0E0,6.4557455E-5,0E0,0E0,0E0,0E0,9.2431833E-4,0E0,0E0,0E0,0E0],"parents":[2147483647,0,0,1,1,2,2,3,3,4,4,5,5,6,6,7,7,9,9,10,10,11,11,12,12,13,13,20,20,21,21,25,25,27,27,32,32],"right_children":[2,4,6,8,10,12,14,16,-1,18,20,22,24,26,-1,-1,-1,-1,-1,-1,28,30,-1,-1,-1,32,-1,34,-1,-1,-1,-1,36,-1,-1,-1,-1],"split_conditions":[5.3E0,2E0,8.2E0,1.5E0,3.7E0,6.8E0,1.03E1,1.3E0,-4.292013E-3,3.2E0,4.5E0,6E0,7.1E0,9.6E0,3.741637E-3,-3.2885717E-3,9.829134E-4,-1.0076847E-3,6.489605E-4,-1.3728655E-3,5.1E0,5.9E0,1.2358234E-3,-2.4377705E-4,6.235659E-4,8.7E0,7.3908275E-5,4.9E0,-9.7129383E-4,5.2020495E-4,-6.233985E-5,3.0803876E-3,9.5E0,-3.941931E-4,2.1703319E-4,5.173683E-5,2.358681E-3],"split_indices":[0,0,0,0,0,0,0,0,0,0,0,0,0,0,0,0,0,0,0,0,0,0,0,0,0,0,0,0,0,0,0,0,0,0,0,0,0],"split_type":[0,0,0,0,0,0,0,0,0,0,0,0,0,0,0,0,0,0,0,0,0,0,0,0,0,0,0,0,0,0,0,0,0,0,0,0,0],"sum_hessian":[2.7E1,1.4E1,1.3E1,3E0,1.1E1,6E0,7E0,2E0,1E0,4E0,7E0,3E0,3E0,5E0,2E0,1E0,1E0,3E0,1E0,4E0,3E0,2E0,1E0,1E0,2E0,4E0,1E0,2E0,1E0,1E0,1E0,1E0,3E0,1E0,1E0,2E0,1E0],"tree_param":{"num_deleted":"0","num_feature":"1","num_nodes":"37","size_leaf_vector":"1"}},{"base_weights":[9.872972E-4,-2.12609E-2,2.4754131E-2,-4.2335033E-2,-1.2464449E-2,8.701407E-3,2.67795E-3,-1.9726157E-2,-4.1310624E-3,-7.3828995E-3,-1.5039427E-2,1.086783E-2,4.3596327E-3,-3.165248E-3,9.460554E-4,-1.2680039E-2,2.1409194E-3,-1.5754357E-3,-8.451712E-3,3.9172918E-3,1.1894793E-3,-2.3463518E-4,5.9238676E-4,-1.0851324E-3,-2.743073E-4,6.246239E-4,-3.8377047E-4,-4.33217E-3,-9.3487056E-4,5.0069747E-4,-6.0002134E-5,-5.7248026E-4,2.0889491E-4],"categories":[],"categories_nodes":[],"categories_segments":[],"categories_sizes":[],"default_left":[0,0,0,0,0,0,0,0,0,0,0,0,0,0,0,0,0,0,0,0,0,0,0,0,0,0,0,0,0,0,0,0,0],"id":63,"left_children":[1,3,5,7,9,11,-1,13,-1,15,17,19,21,-1,-1,23,25,-1,27,29,-1,-1,-1,-1,-1,-1,-1,31,-1,-1,-1,-1,-1],"loss_changes":[1.5331834E-2,2.252981E-3,2.15061E-3,6.613927E-5,4.5983936E-5,1.846312E-5,0E0,2.7131042E-3,0E0,3.2984093E-4,9.7598764E-5,7.665818E-5,1.3070746E-4,0E0,0E0,1.1626573E-5,1.7733732E-4,0E0,2.8663111E-5,4.438161E-5,0E0,0E0,0E0,0E0,0E0,0E0,0E0,1.15235904E-4,0E0,0E0,0E0,0E0,0E0],"parents":[2147483647,0,0,1,1,2,2,3,3,4,4,5,5,7,7,9,9,10,10,11,11,12,12,15,15,16,16,18,18,19,19,27,27],"right_children":[2,4,6,8,10,12,-1,14,-1,16,18,20,22,-1,-1,24,26,-1,28,30,-1,-1,-1,-1,-1,-1,-1,32,-1,-1,-1,-1,-1],"split_conditions":[5.3E0,2E0,8.2E0,1.5E0,4E0,6.8E0,2.67795E-3,1.3E0,-4.1310624E-3,3.2E0,4.1E0,6E0,7.1E0,-3.165248E-3,9.460554E-4,3E0,3.7E0,-1.5754357E-3,5.1E0,5.9E0,1.1894793E-3,-2.3463518E-4,5.9238676E-4,-1.0851324E-3,-2.743073E-4,6.246239E-4,-3.8377047E-4,4.9E0,-9.3487056E-4,5.0069747E-4,-6.0002134E-5,-5.7248026E-4,2.0889491E-4],"split_indices":[0,0,0,0,0,0,0,0,0,0,0,0,0,0,0,0,0,0,0,0,0,0,0,0,0,0,0,0,0,0,0,0,0],"split_type":[0,0,0,0,0,0,0,0,0,0,0,0,0,0,0,0,0,0,0,0,0,0,0,0,0,0,0,0,0,0,0,0,0],"sum_hessian":[2.7E1,1.4E1,1.3E1,3E0,1.1E1,6E0,7E0,2E0,1E0,5E0,6E0,3E0,3E0,1E0,1E0,3E0,2E0,2E0,4E0,2E0,1E0,1E0,2E0,2E0,1E0,1E0,1E0,3E0,1E0,1E0,1E0,2E0,1E0],"tree_param":{"num_deleted":"0","num_feature":"1","num_nodes":"33","size_leaf_vector":"1"}},{"base_weights":[7.1051426E-4,-2.0355845E-2,2.3230862E-2,-4.0747464E-2,-1.1862318E-2,8.332786E-3,3.336282E-2,-1.8986424E-2,-3.976147E-3,-7.015606E-3,-1.4322026E-2,1.0460289E-2,4.122086E-3,2.1679362E-2,3.42066E-3,-3.0465515E-3,9.105787E-4,-1.20688975E-2,2.0606518E-3,-1.4966653E-3,-8.077514E-3,3.7703936E-3,1.1448741E-3,-2.2583643E-4,5.627662E-4,2.4892332E-3,7.6267123E-3,-1.0308758E-3,-2.6402102E-4,6.0120155E-4,-3.693782E-4,-4.0981397E-3,-8.9981296E-4,4.8192145E-4,-5.7752153E-5,-9.965167E-4,1.9026875E-2,-5.438552E-4,2.0106175E-4,2.1698088E-3,-2.9285253E-5],"categories":[],"categories_nodes":[],"categories_segments":[],"categories_sizes":[],"default_left":[0,0,0,0,0,0,0,0,0,0,0,0,0,0,0,0,0,0,0,0,0,0,0,0,0,0,0,0,0,0,0,0,0,0,0,0,0,0,0,0,0],"id":64,"left_children":[1,3,5,7,9,11,13,15,-1,17,19,21,23,25,-1,-1,-1,27,29,-1,31,33,-1,-1,-1,-1,35,-1,-1,-1,-1,37,-1,-1,-1,-1,39,-1,-1,-1,-1],"loss_changes":[1.3756692E-2,2.1145926E-3,1.8352484E-3,6.127171E-5,4.2580417E-5,1.958973E-5,1.5583262E-4,2.5134375E-3,0E0,3.0005965E-4,8.5058506E-5,7.101675E-5,1.1907745E-4,7.1738195E-4,0E0,0E0,0E0,8.927542E-6,1.6428638E-4,0E0,2.882813E-5,4.1115447E-5,0E0,0E0,0E0,0E0,1.2064818E-3,0E0,0E0,0E0,0E0,1.0494311E-4,0E0,0E0,0E0,0E0,5.882194E-4,0E0,0E0,0E0,0E0],"parents":[2147483647,0,0,1,1,2,2,3,3,4,4,5,5,6,6,7,7,9,9,10,10,11,11,12,12,13,13,17,17,18,18,20,20,21,21,26,26,31,31,36,36],"right_children":[2,4,6,8,10,12,14,16,-1,18,20,22,24,26,-1,-1,-1,28,30,-1,32,34,-1,-1,-1,-1,36,-1,-1,-1,-1,38,-1,-1,-1,-1,40,-1,-1,-1,-1],"split_conditions":[5.3E0,2E0,8.2E0,1.5E0,4E0,6.8E0,1.03E1,1.3E0,-3.976147E-3,3.2E0,4.1E0,6E0,7.1E0,9E0,3.42066E-3,-3.0465515E-3,9.105787E-4,3E0,3.7E0,-1.4966653E-3,5.1E0,5.9E0,1.1448741E-3,-2.2583643E-4,5.627662E-4,2.4892332E-3,9.5E0,-1.0308758E-3,-2.6402102E-4,6.0120155E-4,-3.693782E-4,4.9E0,-8.9981296E-4,4.8192145E-4,-5.7752153E-5,-9.965167E-4,9.6E0,-5.438552E-4,2.0106175E-4,2.1698088E-3,-2.9285253E-5],"split_indices":[0,0,0,0,0,0,0,0,0,0,0,0,0,0,0,0,0,0,0,0,0,0,0,0,0,0,0,0,0,0,0,0,0,0,0,0,0,0,0,0,0],"split_type":[0,0,0,0,0,0,0,0,0,0,0,0,0,0,0,0,0,0,0,0,0,0,0,0,0,0,0,0,0,0,0,0,0,0,0,0,0,0,0,0,0],"sum_hessian":[2.7E1,1.4E1,1.3E1,3E0,1.1E1,6E0,7E0,2E0,1E0,5E0,6E0,3E0,3E0,5E0,2E0,1E0,1E0,3E0,2E0,2E0,4E0,2E0,1E0,1E0,2E0,2E0,3E0,2E0,1E0,1E0,1E0,3E0,1E0,1E0,1E0,1E0,2E0,2E0,1E0,1E0,1E0],"tree_param":{"num_deleted":"0","num_feature":"1","num_nodes":"41","size_leaf_vector":"1"}},{"base_weights":[6.231288E-4,-1.949012E-2,2.2128528E-2,-3.921944E-2,-1.12895025E-2,7.980102E-3,3.1742334E-2,-1.8274426E-2,-3.827043E-3,-6.6666007E-3,-1.3639203E-2,1.0068025E-2,3.8971528E-3,2.065895E-2,3.2496245E-3,-2.9323073E-3,8.764342E-4,-1.1487439E-2,1.9833844E-3,-1.4218317E-3,-7.720232E-3,3.629004E-3,1.1019409E-3,-2.1736734E-4,5.346269E-4,2.7711065E-3,1.0011506E-2,-9.793312E-4,-2.541192E-4,5.7865755E-4,-3.555268E-4,-3.8764924E-3,-8.660697E-4,4.6384952E-4,-5.5586548E-5,-1.6275247E-3,1.8313369E-2,-5.166635E-4,1.935214E-4,7.7605253E-4,-9.5914904E-4,2.0884397E-3,-2.8185548E-5],"categories":[],"categories_nodes":[],"categories_segments":[],"categories_sizes":[],"default_left":[0,0,0,0,0,0,0,0,0,0,0,0,0,0,0,0,0,0,0,0,0,0,0,0,0,0,0,0,0,0,0,0,0,0,0,0,0,0,0,0,0,0,0],"id":65,"left_children":[1,3,5,7,9,11,13,15,-1,17,19,21,23,25,-1,-1,-1,27,29,-1,31,33,-1,-1,-1,-1,35,-1,-1,-1,-1,37,-1,-1,-1,39,41,-1,-1,-1,-1,-1,-1],"loss_changes":[1.2542503E-2,1.9841208E-3,1.6509756E-3,5.676411E-5,3.942207E-5,2.0437525E-5,1.3217796E-4,2.328469E-3,0E0,2.729851E-4,7.4004056E-5,6.579023E-5,1.0848875E-4,6.707201E-4,0E0,0E0,0E0,6.6298526E-6,1.5219637E-4,0E0,2.8792798E-5,3.8089645E-5,0E0,0E0,0E0,0E0,5.129336E-4,0E0,0E0,0E0,0E0,9.557559E-5,0E0,0E0,0E0,5.332888E-4,5.449278E-4,0E0,0E0,0E0,0E0,0E0,0E0],"parents":[2147483647,0,0,1,1,2,2,3,3,4,4,5,5,6,6,7,7,9,9,10,10,11,11,12,12,13,13,17,17,18,18,20,20,21,21,26,26,31,31,35,35,36,36],"right_children":[2,4,6,8,10,12,14,16,-1,18,20,22,24,26,-1,-1,-1,28,30,-1,32,34,-1,-1,-1,-1,36,-1,-1,-1,-1,38,-1,-1,-1,40,42,-1,-1,-1,-1,-1,-1],"split_conditions":[5.3E0,2E0,8.2E0,1.5E0,4E0,6.8E0,1.03E1,1.3E0,-3.827043E-3,3.2E0,4.1E0,6E0,7.1E0,8.7E0,3.2496245E-3,-2.9323073E-3,8.764342E-4,3E0,3.7E0,-1.4218317E-3,5.1E0,5.9E0,1.1019409E-3,-2.1736734E-4,5.346269E-4,2.7711065E-3,9.5E0,-9.793312E-4,-2.541192E-4,5.7865755E-4,-3.555268E-4,4.9E0,-8.660697E-4,4.6384952E-4,-5.5586548E-5,9E0,9.6E0,-5.166635E-4,1.935214E-4,7.7605253E-4,-9.5914904E-4,2.0884397E-3,-2.8185548E-5],"split_indices":[0,0,0,0,0,0,0,0,0,0,0,0,0,0,0,0,0,0,0,0,0,0,0,0,0,0,0,0,0,0,0,0,0,0,0,0,0,0,0,0,0,0,0],"split_type":[0,0,0,0,0,0,0,0,0,0,0,0,0,0,0,0,0,0,0,0,0,0,0,0,0,0,0,0,0,0,0,0,0,0,0,0,0,0,0,0,0,0,0],